[{"network":{"layers":[{"out_depth":3,"out_sx":64,"out_sy":128,"layer_type":"input"},{"sx":5,"sy":5,"stride":1,"in_depth":3,"out_depth":8,"out_sx":64,"out_sy":128,"layer_type":"conv","l1_decay_mul":0,"l2_decay_mul":1,"pad":2,"filters":[{"sx":5,"sy":5,"depth":3,"w":{"0":-0.08540669012790356,"1":-0.09127166776687912,"2":-0.09218728888119856,"3":-0.13173051973282932,"4":-0.1361261125237719,"5":-0.1303789926119566,"6":-0.14584269445873965,"7":-0.15184812174972984,"8":-0.14462181562856236,"9":-0.17740729116949017,"10":-0.17533295887330075,"11":-0.1741259695019357,"12":-0.14698461674117475,"13":-0.15229263534251453,"14":-0.1604365820876912,"15":-0.1485075014975572,"16":-0.14924109086325796,"17":-0.14439112527505762,"18":-0.19798522412202585,"19":-0.1960597988501453,"20":-0.19603662772293204,"21":-0.2688287545426829,"22":-0.26996089020100916,"23":-0.27333335576694195,"24":-0.2810685307254794,"25":-0.28501143404363527,"26":-0.28352353578639744,"27":-0.2144806243619445,"28":-0.22597082958331435,"29":-0.22900545856606735,"30":-0.13867467014998303,"31":-0.1422821072484035,"32":-0.1448631698360197,"33":-0.19174805355987828,"34":-0.19264364699234562,"35":-0.19035441210788953,"36":-0.2474313154756029,"37":-0.24540927432367357,"38":-0.24283557785869528,"39":-0.2621402448485367,"40":-0.264423846132512,"41":-0.2660303174885399,"42":-0.21917541930953519,"43":-0.21556435771097332,"44":-0.21719488980721544,"45":-0.08514235189462606,"46":-0.09105353882177103,"47":-0.08478912333301732,"48":-0.16011451659603373,"49":-0.15632982229168343,"50":-0.1622163681954412,"51":-0.21785517401308466,"52":-0.2131460829920857,"53":-0.21803088140789997,"54":-0.2502184553480052,"55":-0.24686813306665015,"56":-0.24796666325188654,"57":-0.19190065397061037,"58":-0.19208894103068846,"59":-0.18935025242466372,"60":-0.04048964267379356,"61":-0.04019776602428408,"62":-0.0400871516756594,"63":-0.10387330388629178,"64":-0.1053580263454062,"65":-0.10187332489558122,"66":-0.13570592456588626,"67":-0.1393978522884328,"68":-0.13444802959231844,"69":-0.14096621497720263,"70":-0.14073613638167023,"71":-0.13481873496817107,"72":-0.08322258285034975,"73":-0.08041964174222485,"74":-0.07907166848764113}},{"sx":5,"sy":5,"depth":3,"w":{"0":0.09859252938239986,"1":0.10901292310525956,"2":0.10364140049429167,"3":0.17088510548878016,"4":0.1767847640171704,"5":0.17244841895085639,"6":0.1900277368997759,"7":0.19213885387353316,"8":0.19272693786838924,"9":0.2634631570602122,"10":0.26479080752300793,"11":0.2650364170386907,"12":0.23370917927828783,"13":0.24523968414712158,"14":0.22946120331047318,"15":0.096943819950368,"16":0.11162284281268502,"17":0.11143666831734059,"18":0.18680592286939865,"19":0.18050495655695933,"20":0.19286211401648667,"21":0.23366627156695974,"22":0.22701626535792277,"23":0.22981431977199335,"24":0.2960473313621505,"25":0.28621887346702296,"26":0.285780099279128,"27":0.25126176202268935,"28":0.2513340845696322,"29":0.2521593181362919,"30":-0.12527603471948484,"31":-0.11059547315501453,"32":-0.11192037841464217,"33":-0.07134049578154152,"34":-0.08896275257328025,"35":-0.07070759393653916,"36":-0.046254168793583426,"37":-0.034845041377832946,"38":-0.03108863854517269,"39":0.07895827133569974,"40":0.09897349183921338,"41":0.09171719317626262,"42":0.1087308847539984,"43":0.12337533359788307,"44":0.10401145433151265,"45":-0.155901593423314,"46":-0.154069076744096,"47":-0.13426948452399948,"48":-0.16512664636581054,"49":-0.14727981584255576,"50":-0.17483126236110938,"51":-0.12887525269765313,"52":-0.12641978432954598,"53":-0.13476212481806077,"54":-0.007583185532930845,"55":-0.005847983460488027,"56":-0.023124452110887646,"57":0.04435669519678234,"58":0.03783127616717049,"59":0.03349393254523172,"60":-0.12958971106207445,"61":-0.11714802843283167,"62":-0.12391905068301189,"63":-0.10650784831216015,"64":-0.11216247674005132,"65":-0.1188002807423927,"66":-0.08220928692483816,"67":-0.080309749657041,"68":-0.0833220510968027,"69":0.012681603527101104,"70":0.022711777924446626,"71":0.02120155806140681,"72":0.0753876713717358,"73":0.060242856534557035,"74":0.059357566572372594}},{"sx":5,"sy":5,"depth":3,"w":{"0":0.09502110353580631,"1":0.10304011163237506,"2":0.11405652957852914,"3":0.18135107974992418,"4":0.19083786488925766,"5":0.18297868904809547,"6":0.21714269614776435,"7":0.2223832095349191,"8":0.22047975868889,"9":0.2017215802406553,"10":0.1865320707347373,"11":0.19287097166905728,"12":0.19483779421808053,"13":0.18043990719292435,"14":0.169236669666654,"15":0.06684403703948158,"16":0.04592806393407726,"17":0.04950430887369397,"18":0.12934229857362778,"19":0.13519275765290936,"20":0.13488474106259005,"21":0.1914100028543635,"22":0.1951683598171581,"23":0.18977397934121926,"24":0.1762915588302387,"25":0.17257148112849546,"26":0.1718555303507088,"27":0.09953246195761235,"28":0.10104573211051705,"29":0.0959349308221572,"30":-0.06742942862080967,"31":-0.061940435435939,"32":-0.0663299376726195,"33":-0.0077263905636006085,"34":-0.01903170421785784,"35":-0.021932029025895368,"36":0.06163439080171048,"37":0.04320291762903752,"38":0.04743344247586399,"39":0.10423918320369144,"40":0.11754169164880988,"41":0.10348035972312969,"42":0.06367772729789296,"43":0.06628434419380352,"44":0.06806846050145816,"45":-0.15055438184559275,"46":-0.1559448031668815,"47":-0.1509671028621084,"48":-0.1286444362970411,"49":-0.139316171827429,"50":-0.14545593740888266,"51":-0.0444761814241737,"52":-0.056926424274198105,"53":-0.058440009663422776,"54":0.023137340012971234,"55":0.032730929886726455,"56":0.02843745864955996,"57":0.055543733816714826,"58":0.0546000695575173,"59":0.04972889824676187,"60":-0.09543668452045749,"61":-0.10001649902187766,"62":-0.10143203541823204,"63":-0.08372849861594223,"64":-0.0824201151233268,"65":-0.07855716106823701,"66":-0.06510627273845672,"67":-0.07227183666634882,"68":-0.05771397816554722,"69":-0.00021583147484850791,"70":0.005617655566621214,"71":0.003597476235867648,"72":0.02451339923829127,"73":0.01687412942819788,"74":0.016067419337972583}},{"sx":5,"sy":5,"depth":3,"w":{"0":-0.2018090707425603,"1":-0.1910619428592991,"2":-0.19843541574345602,"3":-0.22401992606302856,"4":-0.22735658060341377,"5":-0.22184397038866202,"6":-0.2570628252106776,"7":-0.2622194799088929,"8":-0.2511553569983348,"9":-0.19356811031255972,"10":-0.19941282425845316,"11":-0.18965490785813496,"12":-0.10742223881152275,"13":-0.104276093463606,"14":-0.10186014682702788,"15":-0.10324779777039042,"16":-0.10065444897929075,"17":-0.10492871849343914,"18":-0.11248299611591675,"19":-0.11666534517721269,"20":-0.11574044283487794,"21":-0.12405778624942734,"22":-0.11532574299938288,"23":-0.11204807971042983,"24":-0.059551151769941336,"25":-0.0699916468655742,"26":-0.0740716557779139,"27":0.01763034498088069,"28":0.019711428923378623,"29":0.02069932742469353,"30":-0.008023641332649665,"31":-0.0024093445239316267,"32":-0.008714991252338641,"33":-0.004173559748807735,"34":0.000048618382976883274,"35":-0.0005287129637056569,"36":-0.06622234561470038,"37":-0.06096033657650863,"38":-0.06401128421223959,"39":0.011343028051497155,"40":0.012335740692386458,"41":0.01257778129674356,"42":0.07863248569313852,"43":0.09060603188558412,"44":0.0798285956299049,"45":0.09236740546312523,"46":0.09663418314508647,"47":0.09983987139060682,"48":0.13332806346078105,"49":0.1289587121236569,"50":0.14044645828073468,"51":0.09971121330110459,"52":0.1097185707324886,"53":0.09596967804909022,"54":0.15170162021649095,"55":0.1409645206386141,"56":0.1488803347621736,"57":0.1852562433776396,"58":0.17039062222751505,"59":0.1815695383711923,"60":0.1322833340354908,"61":0.14041724907463463,"62":0.14642201121247136,"63":0.1354928015202481,"64":0.1275141512632522,"65":0.1284106326125915,"66":0.1103233162412068,"67":0.11893783299980747,"68":0.12415671177925222,"69":0.1324048042964794,"70":0.13449797089808466,"71":0.14549408677554934,"72":0.12100494331830851,"73":0.11986203839893403,"74":0.11847550423665489}},{"sx":5,"sy":5,"depth":3,"w":{"0":0.05706330570228663,"1":0.05571655270872444,"2":0.051700967424674005,"3":-0.039124142408967486,"4":-0.034476684541225634,"5":-0.0361417452129811,"6":-0.06707322932722902,"7":-0.06257892760117528,"8":-0.07002852021495713,"9":-0.095793289885321,"10":-0.09664837561705861,"11":-0.09782575739425949,"12":-0.08978380944316378,"13":-0.1011199143182147,"14":-0.09419195366206076,"15":-0.016523294614925126,"16":-0.011848055263332248,"17":-0.015282302426569905,"18":-0.1070049833958718,"19":-0.09970652912744395,"20":-0.10538529653379257,"21":-0.1893285300836032,"22":-0.18920342826214778,"23":-0.19391252073412726,"24":-0.23622494033325275,"25":-0.2373203683593171,"26":-0.23676381233148497,"27":-0.18447155099847823,"28":-0.1806465550950379,"29":-0.18253740360160114,"30":0.0009242984756386771,"31":-0.008632601607356584,"32":-0.003251226132029396,"33":-0.09068222348579237,"34":-0.09502679011540346,"35":-0.09422574322810465,"36":-0.14370085834192764,"37":-0.14606489046844934,"38":-0.15079835988974838,"39":-0.20243726033948597,"40":-0.20088210537054202,"41":-0.19953935939285353,"42":-0.1679093212259829,"43":-0.16813690020009955,"44":-0.1662013709392847,"45":0.036008305213002655,"46":0.04248493378910019,"47":0.04794194671059299,"48":-0.02150095029866013,"49":-0.027267548525306516,"50":-0.026428707336107464,"51":-0.022766117297515383,"52":-0.02051324926325073,"53":-0.02705928714023147,"54":-0.09528368217657886,"55":-0.09075058561428848,"56":-0.09457425471233799,"57":-0.12715742026810947,"58":-0.12955245035538554,"59":-0.12578673520160788,"60":0.0745500278687906,"61":0.07750186285444172,"62":0.08234854952236191,"63":0.04768941197572155,"64":0.04488926508499307,"65":0.04712201505624636,"66":0.03224925894485327,"67":0.02836722341039075,"68":0.029106453966545657,"69":-0.012943886924228586,"70":-0.008440354633954997,"71":-0.010272434419689402,"72":-0.002404165130329014,"73":-0.0013137670137372188,"74":-0.006932172943806813}},{"sx":5,"sy":5,"depth":3,"w":{"0":0.0253977550364896,"1":0.039155685551015396,"2":0.021521287757376543,"3":-0.049460492281757126,"4":-0.04265979144531211,"5":-0.05478694891434194,"6":-0.06801159960143013,"7":-0.0666721174296251,"8":-0.059757502113000946,"9":-0.1052061733803813,"10":-0.1044596921569702,"11":-0.10649983104393129,"12":-0.09303773564203073,"13":-0.08820404838010161,"14":-0.08811250905442553,"15":-0.01822823574015065,"16":-0.025419011710452914,"17":-0.018296752478060157,"18":-0.11028814696489991,"19":-0.11224043234352686,"20":-0.10854752526232875,"21":-0.17896523759436334,"22":-0.1678939870326743,"23":-0.1613199169334254,"24":-0.20079117539335775,"25":-0.20383062231087387,"26":-0.2048697385147452,"27":-0.14145506261308274,"28":-0.13408358779822216,"29":-0.13758249817783053,"30":-0.0020116704063390697,"31":-0.017656200440594638,"32":0.00021565468349276116,"33":-0.08991079296528787,"34":-0.10371901175959201,"35":-0.09753252508566518,"36":-0.1145291756001202,"37":-0.10817520702281079,"38":-0.12010472348010505,"39":-0.15899038373518723,"40":-0.15783452531147626,"41":-0.1559330688324735,"42":-0.10749328962990928,"43":-0.11119381686868876,"44":-0.10222566750685483,"45":0.044155213772410204,"46":0.038732643581340986,"47":0.04304619366907514,"48":-0.009154166812164324,"49":-0.01894537705616944,"50":-0.013962160008680015,"51":-0.0433064537759928,"52":-0.04268573818913306,"53":-0.02577094413772644,"54":-0.0883984777393567,"55":-0.09078577187480465,"56":-0.09851385287335511,"57":-0.08458392552052243,"58":-0.09243725190659181,"59":-0.0885320075729064,"60":0.06483832570227566,"61":0.05733208779332899,"62":0.06374653526475828,"63":0.010628328694665515,"64":0.030528144431734818,"65":0.02162737649989945,"66":0.008628948743875663,"67":0.01005193650317582,"68":0.006119293971947239,"69":0.005865075658242593,"70":-0.007241256590006395,"71":0.00923695618151389,"72":0.018372772482576252,"73":0.020253802453594684,"74":-0.00022114602506559058}},{"sx":5,"sy":5,"depth":3,"w":{"0":0.15385902794240844,"1":0.1459200438660767,"2":0.1364674718182709,"3":0.12985052886307277,"4":0.12917678285980733,"5":0.14993641871182664,"6":0.07158102439686495,"7":0.0741747586666394,"8":0.07598003895335581,"9":0.011901517780815786,"10":0.020298297266220164,"11":0.02007192642087183,"12":0.02513047758502905,"13":0.025379120509572497,"14":0.02593265700376063,"15":0.18092253676875159,"16":0.18848702267188752,"17":0.1869570586756468,"18":0.13155871167814936,"19":0.13928524022706418,"20":0.14397291084347272,"21":0.11321079524996643,"22":0.10529744749167733,"23":0.10453619499577133,"24":0.06710773585204464,"25":0.06503602894841974,"26":0.06378429567763552,"27":0.05398791998624503,"28":0.06917474746385928,"29":0.06271236573282286,"30":0.006387435352457344,"31":0.011442371559971104,"32":0.006303044877526435,"33":-0.044620854575193915,"34":-0.04097951116453359,"35":-0.0349429482508834,"36":-0.06310405406980073,"37":-0.05923465165623639,"38":-0.05922561325865632,"39":-0.10452876185619317,"40":-0.09573382087159478,"41":-0.09820412482461661,"42":-0.09685253710548078,"43":-0.10227752647262572,"44":-0.10528393561639467,"45":-0.03047303624637216,"46":-0.030649521751019,"47":-0.022128005854775146,"48":-0.07319480183969478,"49":-0.08156716105748286,"50":-0.0776813851598589,"51":-0.13247986481590066,"52":-0.1345094013293316,"53":-0.12884399971763308,"54":-0.1535112446847347,"55":-0.16296335923592004,"56":-0.15839142597890643,"57":-0.18639969493444872,"58":-0.1773560528573248,"59":-0.17000876736542775,"60":-0.024729253057360717,"61":-0.017172421627611144,"62":-0.014529973798246403,"63":-0.040443744019466404,"64":-0.03884164602158214,"65":-0.04616177180369131,"66":-0.06110824486375093,"67":-0.06210056403362495,"68":-0.06026233417422595,"69":-0.09992157219554686,"70":-0.09103528445223258,"71":-0.09341247098067895,"72":-0.06331853495636468,"73":-0.07577484662165657,"74":-0.06700211628336099}},{"sx":5,"sy":5,"depth":3,"w":{"0":0.10724524742437953,"1":0.10490752954175263,"2":0.10531843143725848,"3":0.1579272500394742,"4":0.14262650619173103,"5":0.14764025756443297,"6":0.20940420789638964,"7":0.21563426874835054,"8":0.21175129393942738,"9":0.17550012919545846,"10":0.18095355757385376,"11":0.18095366383044073,"12":0.10311345522812848,"13":0.10448004602935783,"14":0.10730789290911215,"15":0.05648987867963622,"16":0.053933821888494264,"17":0.0495413902916793,"18":0.11935250701531838,"19":0.11927345833504797,"20":0.11907500254255862,"21":0.17872149801936055,"22":0.17656620786315103,"23":0.1761383768370089,"24":0.17044362366304786,"25":0.17893875930124037,"26":0.17405306546101498,"27":0.07956721351943905,"28":0.070496136976433,"29":0.06326559892162478,"30":-0.15214651310015387,"31":-0.143554073477532,"32":-0.1500656263703653,"33":-0.06460980586645952,"34":-0.06593374074165458,"35":-0.06307274050334852,"36":0.03759067007377721,"37":0.0351515456105602,"38":0.031331976122291584,"39":0.09700892373958989,"40":0.09088273743741257,"41":0.09944641623804869,"42":0.07623445225528523,"43":0.07118944320535381,"44":0.07400221394491029,"45":-0.1937065423918331,"46":-0.1886969649542264,"47":-0.18402421507595693,"48":-0.11626393112380425,"49":-0.1147716049711431,"50":-0.11120917138762733,"51":-0.045233339620668174,"52":-0.04183260498421098,"53":-0.048631041456016634,"54":0.0662414733044792,"55":0.07873688222664553,"56":0.06966028751390554,"57":0.0900319919646913,"58":0.09367291516676428,"59":0.08838888246781962,"60":-0.1271395889405289,"61":-0.13539889951129958,"62":-0.12964347378421745,"63":-0.10290390791996454,"64":-0.10108622687256986,"65":-0.10687290112593952,"66":-0.04847382028618536,"67":-0.0571506907100014,"68":-0.05484299383940322,"69":0.055999611068826824,"70":0.04941885398594585,"71":0.05335192392058754,"72":0.082770800324404,"73":0.08330526977946066,"74":0.0850514943553998}}],"biases":{"sx":1,"sy":1,"depth":8,"w":{"0":0.6496562074665009,"1":0.17780531311215533,"2":0.1283157703203357,"3":0.41916269090812236,"4":0.5442729755751474,"5":0.6290799513624229,"6":0.3543730471308418,"7":-0.02714567051005713}}},{"out_depth":8,"out_sx":64,"out_sy":128,"layer_type":"relu"},{"sx":2,"sy":2,"stride":2,"in_depth":8,"out_depth":8,"out_sx":32,"out_sy":64,"layer_type":"pool","pad":0},{"sx":5,"sy":5,"stride":1,"in_depth":8,"out_depth":8,"out_sx":32,"out_sy":64,"layer_type":"conv","l1_decay_mul":0,"l2_decay_mul":1,"pad":2,"filters":[{"sx":5,"sy":5,"depth":8,"w":{"0":-0.059949837298471906,"1":-0.10342678407928388,"2":-0.03477210256876815,"3":0.046612869195569985,"4":-0.0982254345426287,"5":-0.13833069982073776,"6":-0.10152868675525963,"7":-0.0029124604355198125,"8":-0.1366223475727818,"9":-0.12159729428603597,"10":-0.08673356636986791,"11":0.06620505709172536,"12":-0.12289992825053472,"13":-0.15553727711168278,"14":-0.127601758245221,"15":-0.04178772045044483,"16":-0.11643003419745829,"17":-0.1294006433690409,"18":-0.09755461156820446,"19":0.0643896377033251,"20":-0.13626475519501902,"21":-0.17086815659501087,"22":-0.10106004849736278,"23":-0.06243295676070726,"24":-0.1855059223163454,"25":-0.23711667828963517,"26":-0.1629248970444503,"27":0.0628313635766419,"28":-0.21132312929510594,"29":-0.19906371780164928,"30":-0.005908153180809253,"31":-0.15984253316815294,"32":-0.1890924105299334,"33":-0.23499108308806704,"34":-0.21562221888667138,"35":0.04737094653577109,"36":-0.080420929163384,"37":-0.09369515971516437,"38":-0.022387201827404724,"39":-0.18890469881746386,"40":-0.036366874382191584,"41":0.23858481028897938,"42":0.16451040525158003,"43":-0.18675231543156098,"44":-0.03500756311388588,"45":-0.022744485977331322,"46":0.10843668087002627,"47":0.039477127992265576,"48":-0.09265435871368005,"49":0.2580859166624551,"50":0.1691948747462823,"51":-0.1608062798241638,"52":-0.033036045454662516,"53":-0.0316507017555671,"54":0.12360270846216898,"55":0.08379161505646712,"56":-0.13197627329067266,"57":0.1837364341761829,"58":0.12711952965301462,"59":-0.12779774487316448,"60":-0.10407547080542498,"61":-0.11226695181364262,"62":0.05072364039086698,"63":0.12230746115201808,"64":-0.08341882684132278,"65":0.04673471340568133,"66":0.020634887335671252,"67":-0.11057600230337408,"68":-0.12677166670078108,"69":-0.14412493253143482,"70":0.024394463192802456,"71":-0.024773890087717656,"72":-0.11296039999539789,"73":-0.07544669757692131,"74":-0.09128443168781836,"75":-0.08470019614635298,"76":-0.061300600100773595,"77":-0.026218338246833332,"78":-0.008656334370826054,"79":-0.07855327121762874,"80":0.09138727744666461,"81":0.15883535222309791,"82":0.06790523725334421,"83":-0.0883716714396169,"84":0.1302788163224798,"85":0.15692710208319233,"86":0.22641353016665136,"87":0.022744652083658362,"88":0.06464757478273062,"89":0.242804539621836,"90":0.12497990555285406,"91":-0.1298331119635349,"92":0.14977222066739915,"93":0.13444770938225029,"94":0.22280673956371636,"95":0.10127557836931889,"96":-0.0008361023575600404,"97":0.3085179887651413,"98":0.20762535562506612,"99":-0.03338851724283022,"100":0.01365692573003455,"101":0.013330096700066341,"102":0.13410038081864462,"103":0.17971492737778513,"104":-0.07874148132992918,"105":0.15834978044487572,"106":0.12789215217445493,"107":0.0104463755014775,"108":-0.08755611498099027,"109":-0.061649287541842665,"110":0.02598714841146596,"111":0.14622659299810586,"112":-0.05943608569191738,"113":-0.01328548567305578,"114":-0.016889150039220896,"115":0.061755643815258054,"116":-0.05862788160508872,"117":-0.036586301070022476,"118":-0.05691047587197045,"119":0.008271577887536278,"120":0.13265709307789206,"121":-0.1801166122824912,"122":-0.16172452558883313,"123":0.09349774084464232,"124":0.0753668826282411,"125":0.11555567722137165,"126":0.0016356651032127197,"127":-0.15014118609617455,"128":0.057083464105779226,"129":-0.16221684607100306,"130":-0.11623121640109729,"131":0.16800130096890842,"132":0.07828232943752662,"133":0.1166787211045843,"134":-0.10387779589850253,"135":-0.14239389004263991,"136":-0.10963467069604814,"137":0.02783377416280966,"138":0.03866736615587851,"139":0.145520068145263,"140":0.014199473297558456,"141":0.06906442358094736,"142":-0.19922017200030395,"143":0.019619052355246306,"144":-0.15814594876133545,"145":0.12151784370866024,"146":0.10584848978475496,"147":0.09348779720692603,"148":-0.08813151665472486,"149":-0.06263632550239707,"150":-0.1251545516697239,"151":0.09920317664915215,"152":-0.054143053669438536,"153":0.02912089649307337,"154":0.0678521383904273,"155":0.03372690594221052,"156":-0.09111944866343834,"157":-0.09957228470280771,"158":-0.11054329517323501,"159":0.017204364432415072,"160":0.06685940898930029,"161":-0.035651701589364294,"162":-0.08709774285808163,"163":0.0032580604856245303,"164":0.012947853836484398,"165":0.05329494166574888,"166":-0.017552178505567177,"167":-0.11991180541323776,"168":0.018882991341186872,"169":0.04873366722127255,"170":-0.017016904136065554,"171":-0.026212700109727417,"172":-0.05868830228570365,"173":0.0014573423130863998,"174":0.006522512236993253,"175":-0.019183065538815127,"176":-0.0717323536341588,"177":0.21644378092527938,"178":0.12333565401235393,"179":-0.08625119248500614,"180":-0.09454118143596844,"181":-0.04046127966914177,"182":0.0054385724495627655,"183":0.07355093871040981,"184":-0.16997492726078844,"185":0.27452124356395885,"186":0.2164743236025956,"187":-0.15548356661388413,"188":-0.09768491487226719,"189":-0.06108238485484373,"190":0.06437304072716991,"191":0.1719703234696554,"192":-0.14226556000050933,"193":0.27462405637682724,"194":0.23984258567081235,"195":-0.15409724588821508,"196":-0.0736469804102424,"197":-0.07822559886217938,"198":0.03587570250886155,"199":0.16038566634997914}},{"sx":5,"sy":5,"depth":8,"w":{"0":0.09433858144689182,"1":-0.03721343337810451,"2":-0.04296269753677595,"3":-0.12723475640616103,"4":0.07739407960817547,"5":0.04009833657411205,"6":0.049792534068155585,"7":-0.0273776411442402,"8":0.1488496732230745,"9":0.023915052549820206,"10":-0.018386375084783756,"11":-0.14864650982119829,"12":0.09877992165793997,"13":0.06803832222789133,"14":0.16757115841779519,"15":-0.05303423779977753,"16":0.0832677976866018,"17":0.21565363793251766,"18":0.14011492621983515,"19":-0.07902862631004831,"20":-0.027229300458854074,"21":-0.017037035560359796,"22":0.0699525205372229,"23":0.11740017666454755,"24":-0.13429317477893246,"25":0.24700261339662996,"26":0.18584137777363952,"27":-0.07992287011551465,"28":-0.17420576121758796,"29":-0.16383870975678602,"30":-0.08115457376518458,"31":0.18891833223612772,"32":-0.18094852772421396,"33":0.05300374781320887,"34":0.09339159479673166,"35":-0.016926998735984043,"36":-0.1309476880493037,"37":-0.0986381465181968,"38":-0.057987318365783455,"39":0.05572128091338408,"40":0.08337625540817757,"41":-0.19336724917730916,"42":-0.13064763109824132,"43":0.040954292857121086,"44":0.04321479535138666,"45":0.05881682744581593,"46":-0.0618380350488069,"47":-0.09256912660367715,"48":0.1694633871377675,"49":-0.16360110045333215,"50":-0.1658630153009468,"51":0.06815123373834675,"52":0.14484948147604465,"53":0.1488199506347425,"54":0.06085733978760947,"55":-0.18382200300633375,"56":0.0903556795530188,"57":0.07875341047699097,"58":0.014741070423876927,"59":0.09645625975804206,"60":0.01290001684351879,"61":0.040929359463014084,"62":-0.002132864621602619,"63":-0.026346547068621873,"64":-0.17484924512294817,"65":0.2031263690169325,"66":0.16094060934529178,"67":-0.058008334185205075,"68":-0.207084340886199,"69":-0.14143423036072764,"70":-0.08010669475243837,"71":0.16320245992549626,"72":-0.2076256875700964,"73":0.17374369381647045,"74":0.18519514513067906,"75":-0.1873819522377342,"76":-0.12619938033831093,"77":-0.1058741342582587,"78":-0.08227059023578542,"79":0.12719395402080722,"80":-0.006139473920708929,"81":-0.033916845542214365,"82":-0.01781873574888296,"83":-0.05871039221571997,"84":0.09462995939891736,"85":0.06859334128420723,"86":0.02457261769607702,"87":0.0039443561456858605,"88":0.1452201062277898,"89":-0.1924384395105157,"90":-0.16915093868390366,"91":0.03072868415803386,"92":0.16668177483577698,"93":0.17570856501434245,"94":0.10488161610306482,"95":-0.14293324973371968,"96":0.18214368045882706,"97":-0.12291013959719195,"98":-0.17740132244895168,"99":0.10004822006708658,"100":0.10730910088845601,"101":0.10640793551809728,"102":0.047764196620940294,"103":-0.16352929591956608,"104":0.0015601127638177883,"105":0.04948339343628519,"106":0.004174729513478199,"107":-0.011303777916107746,"108":-0.08437566437938515,"109":-0.0670778839212851,"110":0.015555941480879909,"111":-0.010177788388117965,"112":-0.10876378477401258,"113":0.07511939028522664,"114":0.043753391673591255,"115":-0.12374094244386387,"116":-0.1192949915672437,"117":-0.14427980317714748,"118":-0.02445830314216473,"119":0.05279921533716818,"120":0.03760797578372243,"121":-0.005393690717161694,"122":0.042368090171381406,"123":0.023292660274951756,"124":0.07922527805556637,"125":0.056375916266317896,"126":-0.024551775171746247,"127":0.08778857623579273,"128":0.15624320276468118,"129":-0.10261501993173033,"130":-0.09279924819968705,"131":0.11499096087083593,"132":0.14756845410537162,"133":0.1266255802486818,"134":-0.027344913889079746,"135":-0.06466919452001721,"136":0.17047258412219837,"137":-0.18881813518025622,"138":-0.15436204638157366,"139":0.19778501520903607,"140":0.1205917348384609,"141":0.09909982258311684,"142":-0.08256012157987226,"143":-0.17826493338074148,"144":0.121680347247232,"145":-0.0608692468835087,"146":-0.07925719446505478,"147":0.14857412294189545,"148":0.027727730972221053,"149":0.04665860372663849,"150":-0.043921264134447774,"151":-0.11040381877948069,"152":-0.10281380591354128,"153":-0.004253795898930999,"154":-0.016007118832886146,"155":0.07150881967630435,"156":-0.11395002588502083,"157":-0.10831170210314553,"158":-0.05000198800438731,"159":-0.018472059598165887,"160":-0.09244095554878409,"161":0.09355987314044463,"162":0.13939680808538213,"163":0.08987890568355617,"164":0.007524533790186998,"165":-0.0037365871220133877,"166":-0.07593213838223388,"167":0.15496679087824403,"168":-0.006962926810090029,"169":0.04408227292715079,"170":0.06511197616472825,"171":0.1031042509325897,"172":0.024210033665458413,"173":0.016653574137823084,"174":-0.036525157662882085,"175":0.07388195389784755,"176":0.06386741566658931,"177":-0.030455301158764065,"178":-0.02245252921046072,"179":0.16555744378475,"180":0.03232337114810425,"181":0.008753769128309361,"182":0.0459913284383681,"183":-0.01873436762979533,"184":0.06847259588935822,"185":0.05255267363176868,"186":0.0019670524028949487,"187":0.15786184402623482,"188":0.014981592765160215,"189":0.012316198359119306,"190":0.012398618654421364,"191":-0.028611765798501446,"192":-0.09360560715904112,"193":0.048661819658768174,"194":0.053014224558800345,"195":0.07664679555807476,"196":-0.09972571318123036,"197":-0.06480539462356104,"198":-0.05288455042914466,"199":0.03668842340428768}},{"sx":5,"sy":5,"depth":8,"w":{"0":-0.003688208372640745,"1":-0.00039438879139588726,"2":-0.0011287393013717393,"3":-0.0012912275382508183,"4":-0.002132564931269894,"5":-0.002116398796882988,"6":-0.0030430218516813764,"7":-0.00257342266492543,"8":0.0008045360530901292,"9":-0.00043634694783431673,"10":-0.0010635040740625313,"11":-0.0010932656987913203,"12":0.0007730804745670349,"13":-0.00048185975776711713,"14":-0.003445248633229559,"15":-0.0015022997165072198,"16":0.0009907044820380401,"17":-0.00133166678656037,"18":-0.002297553209868837,"19":-0.0024088684224718693,"20":-0.0022716734487544525,"21":-0.0011925638859698864,"22":-0.0062731724719754965,"23":-0.002906648144210116,"24":-0.0025850347629371496,"25":-0.00022716439671726106,"26":-0.0003407132431140875,"27":-0.007457920807123248,"28":-0.0029170083253685056,"29":-0.0036096475290152744,"30":-0.0026150539823700703,"31":0.00010869768408588542,"32":-0.0037164646728563063,"33":-0.0005508316494987097,"34":-0.00032926813618331654,"35":-0.007462209570884101,"36":-0.003908573411934967,"37":-0.0042406340201209735,"38":-0.004965571536015036,"39":0.00037961642844005946,"40":-0.005399004745038328,"41":-0.002332641424766191,"42":-0.0017230382964932589,"43":-0.0016029731285869971,"44":-0.0033145516088276365,"45":-0.0033301853825878852,"46":-0.00429892125860113,"47":-0.0019553656686483608,"48":-0.0038115579197964197,"49":-0.006029320482696159,"50":-0.00205307104125897,"51":-0.0009974595922664403,"52":-0.0036197929696093686,"53":-0.003818044286570375,"54":-0.004920274193911942,"55":-0.0007349134145508196,"56":-0.0005791018686241412,"57":-0.004859542762693831,"58":-0.004074754511150969,"59":-0.0015152899316437552,"60":-0.001404171405973563,"61":-0.0024014455828577307,"62":-0.007526493810323301,"63":-0.0037466707130429486,"64":-0.0016321649757342013,"65":-0.0032299930966340176,"66":-0.002424184609353939,"67":-0.0038540034890773562,"68":-0.0008643406766523669,"69":-0.002732432046494793,"70":-0.0035231355789436384,"71":-0.0010146177491150538,"72":-0.0027261174441491932,"73":-0.0008774096142544763,"74":-0.0007826200350821867,"75":-0.0030246135537158807,"76":-0.004364458006585243,"77":-0.005828202347919773,"78":-0.007451752049565544,"79":0.0002695455830087989,"80":-0.00912290133689098,"81":0.0006960209240792011,"82":0.0016457976451391897,"83":-0.0015838697195707302,"84":-0.004259055552026883,"85":-0.003265671516902758,"86":-0.006056613514219861,"87":-0.0006785323680844024,"88":-0.0074176252092885775,"89":-0.0018159647841135946,"90":-0.00018031552086540152,"91":-0.0024377525467480336,"92":-0.0031753772020265717,"93":-0.0024120454865941333,"94":-0.0058548100761870924,"95":-0.0008207968386138803,"96":-0.004561985591286406,"97":-0.0058800429171206575,"98":-0.002892327740878179,"99":-0.0034863143136343207,"100":-0.004681158122542071,"101":-0.0046497676158279615,"102":-0.0068246540568076145,"103":-0.0011690298524693456,"104":-0.00472219668320491,"105":-0.002253237146134692,"106":-0.0014527477198104692,"107":-0.005693605916560689,"108":-0.0027297520597819253,"109":-0.003362029744516844,"110":-0.003136459572834229,"111":-0.000981266838388116,"112":-0.00560615866006072,"113":-0.002184903955654804,"114":-0.0016612432501648586,"115":-0.003917518091876977,"116":-0.006269493439843041,"117":-0.00686460246683959,"118":-0.0063712222851943015,"119":-0.001297904103955437,"120":-0.009259220784063278,"121":-0.005097651318183822,"122":-0.006207525678004692,"123":-0.0038955637540919654,"124":-0.0052528481421704794,"125":-0.0044782450018228635,"126":-0.0035281097552181564,"127":-0.005599479810634644,"128":-0.007619484630630239,"129":-0.004135770160449975,"130":-0.005297339299187682,"131":-0.0018866117616208587,"132":-0.004433189497855961,"133":-0.0037682519491008394,"134":-0.0020204598014631563,"135":0.0001087583733421711,"136":-0.004354991166339268,"137":-0.003172496780702287,"138":-0.0044408547737586875,"139":-0.003444139675099777,"140":-0.004122242858506056,"141":-0.004007080515199315,"142":-0.006390594322703129,"143":0.00034755322362042644,"144":-0.004369454681072215,"145":-0.0019837497003794852,"146":-0.0020968436733718007,"147":-0.005208111083853373,"148":-0.004091710797301604,"149":-0.006315049352810861,"150":-0.0026756812842875285,"151":-0.0006870571968026715,"152":-0.005422095408156469,"153":-0.0024565803086673233,"154":-0.0027651238090407445,"155":-0.0035246846488927027,"156":-0.00609092943972522,"157":-0.006502866330342401,"158":-0.0035616496794385207,"159":-0.0011377997699917048,"160":-0.0064755938713851645,"161":-0.0034794882225640885,"162":-0.003864207026745854,"163":-0.0020091279648193627,"164":-0.005105079153028727,"165":-0.004638825124583463,"166":-0.005123449957975506,"167":-0.005450352649293021,"168":-0.005223919466354596,"169":-0.004690918411643836,"170":-0.004039643591603762,"171":-0.001123856073647283,"172":-0.003639230074128164,"173":-0.0036424640152306555,"174":-0.004172951915338752,"175":-0.0031294701131218978,"176":-0.0033091303347389527,"177":-0.00481908838477303,"178":-0.005341935549160656,"179":-0.0018474849238304934,"180":-0.0033308227735351164,"181":-0.003461907336062961,"182":-0.007048425030561208,"183":-0.0035274735245640395,"184":-0.0042190005904645346,"185":-0.003090643960342968,"186":-0.0059394125483273105,"187":-0.004397557957183225,"188":-0.005356660015155742,"189":-0.0057771174708857,"190":-0.006891021427603984,"191":-0.0006948417479437555,"192":-0.005417483496249782,"193":-0.002138443125691312,"194":-0.0020070458271381044,"195":-0.005290668558041501,"196":-0.0056910698464396866,"197":-0.006267953591637102,"198":-0.006730760937425068,"199":-0.0009300825665955981}},{"sx":5,"sy":5,"depth":8,"w":{"0":0.014608698236725615,"1":0.12003272398720768,"2":0.07001476522404686,"3":-0.14361188999971256,"4":0.09563496042254702,"5":0.06683499839413809,"6":0.15950696672311243,"7":0.03839361635497871,"8":0.05981014273982614,"9":0.23371998405140923,"10":0.16111475031500844,"11":-0.12567807687503957,"12":0.11923105651080447,"13":0.0765058408262675,"14":0.14247938714907127,"15":0.11927648412422334,"16":0.09136887862837104,"17":0.17862258674678447,"18":0.1503652616642877,"19":-0.1159329079626493,"20":0.0538115669022403,"21":0.04535579636185201,"22":0.17935583356696788,"23":0.12121219481666788,"24":0.0012519375421110122,"25":-0.005148999093447953,"26":-0.0018860687165165105,"27":-0.09321281259190918,"28":0.026506384059683665,"29":0.02268117478723189,"30":0.09743120759516365,"31":-0.013286763027908467,"32":-0.009423035795718477,"33":-0.032568858930450556,"34":-0.04729478954629436,"35":-0.07196055779666502,"36":0.010116720528588181,"37":0.01891904999999876,"38":0.038961257259036035,"39":-0.050709123727602716,"40":0.014840733141227304,"41":-0.12304648532430244,"42":-0.05737481040988231,"43":0.13177267062298867,"44":0.127032503796405,"45":0.1293614802843637,"46":-0.03725692852186571,"47":-0.05299777036991322,"48":0.07840187545104067,"49":-0.09680583054489006,"50":-0.06368418658099428,"51":0.22787294278406287,"52":0.12074738450559994,"53":0.1144164487251916,"54":-0.1360016802165555,"55":-0.019909814987975127,"56":0.06004863696864374,"57":-0.10718398957576565,"58":-0.061238881882498465,"59":0.21054077748995592,"60":0.07666880957330385,"61":0.06895198769601137,"62":-0.12952176741729693,"63":-0.009351700160205144,"64":0.015245553636494625,"65":-0.13469001838950453,"66":-0.11736664833969992,"67":0.15765478244760966,"68":0.047355298523062445,"69":0.05151085585828339,"70":-0.12371394473886489,"71":-0.07511160432504813,"72":0.00018252688156456562,"73":-0.13456082521996987,"74":-0.1217316585095488,"75":0.12915575903048598,"76":0.03874828446865459,"77":0.023797242421038742,"78":-0.058055794062402064,"79":-0.10031835662136836,"80":-0.0656569203266444,"81":0.08882597959148962,"82":0.09885189698669913,"83":-0.008419555206713471,"84":-0.06132448726646461,"85":-0.04561963271939028,"86":-0.011670262033811106,"87":0.07582059179284481,"88":-0.08043978043564454,"89":0.0960764339609386,"90":0.08739756455321131,"91":0.027600616356483317,"92":-0.06730400455279814,"93":-0.04714817279475893,"94":-0.008913801710206328,"95":0.02738848510536191,"96":-0.033775732647585606,"97":0.10156326164190844,"98":0.09203175422745781,"99":-0.025426313373204546,"100":-0.0014808753823605937,"101":-0.036335447283175254,"102":0.0333732150197659,"103":0.07205113372129128,"104":0.0038548179408228996,"105":0.049797659458616264,"106":0.08248161338798592,"107":-0.06299211925220256,"108":-0.04003386022279016,"109":-0.05750862066965786,"110":-0.04513656258886213,"111":0.057837671904446886,"112":-0.03681532980834717,"113":0.00914185045768524,"114":0.020338492608665427,"115":-0.08147500987613727,"116":0.010347502121436251,"117":-0.0014573223387133762,"118":-0.017517294476791605,"119":0.0014125453605992998,"120":-0.0201181981428339,"121":0.011210189959886716,"122":0.01259316802018441,"123":-0.04875486189917704,"124":-0.048200724204965156,"125":-0.06266948241489367,"126":0.004845928964647366,"127":-0.005972420846781971,"128":-0.03643396279271708,"129":0.0036843901023044363,"130":0.0008785667173468,"131":-0.09759851044427667,"132":-0.028942249498643054,"133":-0.045565213078187346,"134":0.003920655897101087,"135":-0.003950405775949438,"136":0.0032250991815843144,"137":0.032536613970287426,"138":0.014762660283902381,"139":-0.09797377731682427,"140":0.011147314224878012,"141":-0.008208245968594034,"142":0.0030361689040629878,"143":0.025136687957308515,"144":-0.0009717063972738664,"145":0.050371981946189054,"146":0.03386318766614495,"147":-0.09763770948613268,"148":-0.007264567030990629,"149":-0.022892511267042507,"150":-0.051899545046741394,"151":0.030667630917982663,"152":0.01635308597194161,"153":0.036825292448314687,"154":0.019429539168347817,"155":-0.08908645826143805,"156":0.02853978528203789,"157":0.006643919069267998,"158":-0.020585222397728708,"159":0.02848267645710597,"160":-0.0535825943779632,"161":-0.06341425326576194,"162":-0.04634246837754167,"163":-0.00595403198659904,"164":-0.04819658717946265,"165":-0.036217505687137656,"166":-0.1293011383558183,"167":-0.03695386677830074,"168":-0.03404619563170037,"169":-0.10923426577976449,"170":-0.08619908197721232,"171":0.0033352485624157614,"172":-0.052160647931978006,"173":-0.0470709078081258,"174":-0.10317384933485585,"175":-0.09292691908198501,"176":-0.0037805569332401284,"177":-0.040968421778906965,"178":-0.05089305706570511,"179":0.0369223132821839,"180":-0.04209004199174258,"181":-0.029565393480816576,"182":-0.059664115901232426,"183":-0.05940837762155736,"184":0.019071838483446884,"185":0.012570614409120415,"186":-0.0011608511134592215,"187":0.028002873130554645,"188":-0.019234147864965894,"189":-0.02934797948197138,"190":-0.06446749222211133,"191":-0.004696096812252268,"192":0.004549454955108657,"193":0.0651094650784031,"194":0.06056453506075666,"195":0.01098303698588125,"196":0.01846215663790375,"197":0.01685168979177042,"198":-0.043998771817786185,"199":0.024400871130832176}},{"sx":5,"sy":5,"depth":8,"w":{"0":-0.09924610462018402,"1":0.01123358881838319,"2":0.018933278216776886,"3":-0.008118942879657464,"4":-0.06103796746881643,"5":-0.07317507921771634,"6":0.01378747608492953,"7":0.005163609567702473,"8":-0.08666306113320936,"9":-0.04054802747306118,"10":-0.0183115679673693,"11":0.013480374513684024,"12":0.004630848839860128,"13":-0.008687658724228756,"14":0.029387926740744235,"15":-0.00758532754649657,"16":-0.007392887809710917,"17":-0.05484532834995107,"18":-0.04144679921725546,"19":0.020798860200214722,"20":0.05850777380871961,"21":0.07350008494538907,"22":0.0659587806859279,"23":-0.07155794234762203,"24":0.026351896569294618,"25":0.011362815401544718,"26":-0.012552806330304717,"27":0.03822237027665615,"28":0.00033097836049272974,"29":0.03846565451201016,"30":0.04395332422947409,"31":-0.02220669808296344,"32":-0.052144922005020064,"33":0.010729026168587513,"34":0.0003392109580100702,"35":-0.019653727390016817,"36":-0.05578398866915189,"37":-0.03695204502163906,"38":-0.032602433665727515,"39":-0.00015983083231970233,"40":-0.1224456539209371,"41":0.04971028719298453,"42":0.020695701001564527,"43":-0.022708806938521647,"44":-0.06235315866125205,"45":-0.05495632194588938,"46":-0.013531970734140189,"47":-0.004798887352166611,"48":-0.07817050924743109,"49":0.018045811209883272,"50":0.056539315125337136,"51":-0.041252920474277026,"52":0.005890035821412089,"53":0.009851024381139434,"54":0.03847708537551335,"55":-0.03777426255952214,"56":0.02383285430050209,"57":-0.024748860876640896,"58":0.020087588488484524,"59":0.0034886040183825925,"60":0.0852035734343981,"61":0.07496139658597498,"62":0.0877302675394192,"63":-0.06693357956086425,"64":0.06944302243250111,"65":-0.01074357002452904,"66":-0.022300183121374165,"67":0.06591288420726796,"68":0.03353553799640276,"69":0.028971550935261044,"70":0.10534141655748998,"71":-0.04184788001645943,"72":-0.011003559997479791,"73":-0.021769113331045618,"74":-0.0019942471474125173,"75":0.023562118169968473,"76":-0.04324788481649621,"77":-0.046860440386570876,"78":-0.0037915046692060706,"79":-0.005285295783709988,"80":-0.11474611298849517,"81":-0.014265809379722988,"82":-0.03887702238965402,"83":-0.039004932331236385,"84":-0.13516952495916676,"85":-0.10210123308940842,"86":-0.013130940424945624,"87":-0.0770507556002569,"88":-0.04261325355248151,"89":0.020295158938457993,"90":0.03171707893412528,"91":-0.15406863150725586,"92":-0.01583420262717662,"93":-0.006002451771778378,"94":0.05042152259526068,"95":-0.0015164121554361093,"96":0.08426198147112522,"97":-0.0035385754869854953,"98":0.01087639316772825,"99":-0.08039082092420602,"100":0.1096605623301753,"101":0.11295058204483396,"102":0.09763888136808542,"103":0.0032615982904098057,"104":0.1039977292536221,"105":0.07485103308508038,"106":0.04565617610711892,"107":0.036014026545425536,"108":0.07390021092178439,"109":0.0817918042640654,"110":0.014054396689319909,"111":0.06629379328857656,"112":0.02153421774209442,"113":0.07984145606506765,"114":0.05603402059971788,"115":0.008925162675412055,"116":-0.019847503207908346,"117":-0.016687315270344567,"118":-0.09744379380179212,"119":0.05113799353905792,"120":-0.05092740342700092,"121":-0.016881842167132347,"122":-0.06905369384328805,"123":-0.04437788002828297,"124":-0.015447962170075578,"125":-0.043980021356925525,"126":0.0573649474245357,"127":-0.04100778021864752,"128":-0.00006931747980990443,"129":-0.019641753634763146,"130":-0.022901483163532767,"131":-0.0044816955502240755,"132":0.07771127783258991,"133":0.06641080738074778,"134":0.061431028636731055,"135":-0.03548393990529503,"136":0.07958537417617943,"137":-0.05575017440032127,"138":-0.05371693344485744,"139":0.07395677396127577,"140":0.11503473531655807,"141":0.11890049795406649,"142":0.06498369402478932,"143":-0.051768318158410334,"144":0.11628896387179832,"145":0.04179992472988477,"146":0.01331067704233572,"147":0.12775275138096878,"148":0.08936503057634333,"149":0.0797069663927368,"150":-0.009913459232016432,"151":0.021087556912773333,"152":0.0005206915256166384,"153":0.08362940086636861,"154":0.07372708941206982,"155":0.08192811269892177,"156":-0.0323953668465508,"157":-0.0011984043455239685,"158":-0.06934460022175776,"159":0.06533807860977855,"160":-0.03391574832750567,"161":-0.08817774939331752,"162":-0.08100830697949443,"163":0.20925917410282546,"164":-0.015616781005555762,"165":-0.0029557537078071967,"166":-0.18772753524903638,"167":-0.05262290814565211,"168":-0.04173799779089698,"169":-0.19533165984973397,"170":-0.13461392397130725,"171":0.15274303513428214,"172":0.008447616518461749,"173":0.012245392877996248,"174":-0.1721479069831485,"175":-0.09360779902644906,"176":-0.008704083552920445,"177":-0.16350314701311178,"178":-0.14190093082975547,"179":0.14309444356897497,"180":0.03266384850651393,"181":0.05854926134524344,"182":-0.15151276027924843,"183":-0.08772111764989464,"184":-0.03970765130698724,"185":-0.0749139486304055,"186":-0.07332443154413815,"187":0.21151126424985112,"188":0.024975513186250624,"189":0.031109733663312013,"190":-0.15210553433820356,"191":-0.022638688207196195,"192":-0.06621075875209052,"193":-0.018488034465276235,"194":-0.01660118617173382,"195":0.17221741515907202,"196":-0.03768243259660644,"197":-0.041106475285094035,"198":-0.15224473513233233,"199":0.009124299021888157}},{"sx":5,"sy":5,"depth":8,"w":{"0":-0.0383764177576015,"1":0.06257220461983551,"2":0.005003471551270994,"3":0.015541629341665017,"4":-0.021634470053545962,"5":-0.04116708869686246,"6":-0.036614905257498435,"7":0.020543186594303185,"8":-0.08535301104894476,"9":0.051753815581142656,"10":0.009558711904530727,"11":-0.001608722796716699,"12":-0.03195868128527907,"13":-0.042051062043643846,"14":0.025442377436023154,"15":0.022282071303373643,"16":-0.06959579357945066,"17":0.07546150045888214,"18":0.020731687646982185,"19":0.09430862431785034,"20":-0.05213447705683683,"21":-0.039270548791540856,"22":0.0044328253173202626,"23":-0.01092083821166783,"24":-0.09224732638226178,"25":0.040865612392119256,"26":0.00883854764595655,"27":0.05161498475219022,"28":-0.0009042144587663294,"29":-0.006923388050474838,"30":0.044075061422343575,"31":0.006941710348151908,"32":-0.054373945744569135,"33":0.034097274390604955,"34":-0.006859806740807021,"35":0.06089098087091394,"36":-0.029153068517554254,"37":0.03009544074658364,"38":0.03620690798482395,"39":0.014385661193115427,"40":-0.04401726769474718,"41":0.061619390383436126,"42":0.029762973796792287,"43":0.0944279593732613,"44":0.022753553600591548,"45":-0.010167150713156445,"46":0.01766903128483344,"47":0.04505422010578835,"48":-0.12663682588300554,"49":-0.005897299612051948,"50":0.032256824673219234,"51":0.06405083560346134,"52":-0.05222271464538645,"53":-0.06024163911286357,"54":-0.005681094917176563,"55":0.001631164437406867,"56":-0.1274162200289123,"57":-0.047547769016299604,"58":-0.0396226634644048,"59":0.014664522830630765,"60":-0.007373181721789306,"61":-0.0002984146223503841,"62":-0.0034531529686454127,"63":-0.07873587341130502,"64":-0.10153840286946979,"65":-0.030599231327460605,"66":-0.02220542592195803,"67":-0.057112075608042344,"68":-0.03120017049142335,"69":-0.005236361210760812,"70":0.01626643080334985,"71":-0.06183212661107565,"72":-0.0613864298995531,"73":0.00938036290431427,"74":-0.009745866415659972,"75":0.026660447869289377,"76":-0.05129709924401945,"77":0.0013599787914482092,"78":-0.04807720265190195,"79":-0.026355981267122304,"80":-0.10751794760262183,"81":-0.05454956829232111,"82":-0.02061721646432186,"83":0.1342780477478585,"84":-0.09134646714681414,"85":-0.047097494819374204,"86":-0.14018575217150023,"87":-0.024939946831548068,"88":-0.1345412442707403,"89":-0.14735772561034757,"90":-0.08753765029851784,"91":0.08661150210233183,"92":-0.06036617277254477,"93":-0.049360355980293064,"94":-0.07114541845505602,"95":-0.13965370015648074,"96":-0.07641129117515255,"97":-0.11268878970353936,"98":-0.07354812019215062,"99":-0.04468944417323435,"100":-0.019931124882661362,"101":0.027233235723713625,"102":0.04046829634858005,"103":-0.1351470931086987,"104":-0.012932892695111277,"105":0.017547690253123863,"106":-0.0069174294353904,"107":-0.1620971523084169,"108":0.016128351204318422,"109":0.04941430340123586,"110":0.08361866586049062,"111":-0.0446469275188359,"112":0.030129083038360784,"113":0.17855153726691997,"114":0.10621525925233259,"115":-0.1330053985455502,"116":-0.0007025694467871108,"117":0.051124979546298764,"118":0.08943744959707399,"119":0.06285950986441313,"120":-0.12737478537279368,"121":0.08770888564833376,"122":0.07502779965108777,"123":-0.11864562617410779,"124":-0.12470890130311313,"125":-0.11241867174658667,"126":0.029192572538633648,"127":0.05188535042646841,"128":-0.07694466034150807,"129":0.017593014539639677,"130":0.005617341499812319,"131":-0.15929105806954127,"132":0.0014050028292950955,"133":-0.04238957807765817,"134":0.10985834060792511,"135":-0.02547480394417827,"136":0.02102096010639821,"137":-0.046455332213595955,"138":-0.0377005415195237,"139":-0.1493936269252864,"140":0.1127991535865925,"141":0.08746906148598045,"142":0.165475142246393,"143":-0.09870035291604652,"144":0.07570813573585264,"145":-0.01620581269485413,"146":-0.05279330090118514,"147":-0.09252053193118402,"148":0.23120852911615306,"149":0.19320448095520426,"150":0.17482614638656735,"151":-0.04926493938155857,"152":0.15916261153641345,"153":0.08039555659552027,"154":0.034161724478976634,"155":0.013644055624039376,"156":0.18436105664951513,"157":0.1804446007036918,"158":0.12432811960835637,"159":0.01993941616706755,"160":-0.08234968129036944,"161":0.11917712945137678,"162":0.14338404264811086,"163":-0.11932874322040772,"164":-0.04291991529491931,"165":-0.05050761770836106,"166":0.029696672262570594,"167":0.10007491565704027,"168":0.005380459372432734,"169":-0.003720603321464556,"170":0.043319965635305824,"171":-0.050752927493058396,"172":0.02311724392079074,"173":0.024911150519196075,"174":0.03963569603143105,"175":0.027343934243082603,"176":0.08141713347223686,"177":-0.2044519325183633,"178":-0.1281503309140141,"179":0.08637697233246307,"180":0.09782186749844969,"181":0.1530623203298523,"182":-0.003948381863698266,"183":-0.10778941611886085,"184":0.1286987079935749,"185":-0.23760724587503612,"186":-0.21461148129430785,"187":0.22455423837144012,"188":0.19803042611642507,"189":0.21350296493531795,"190":-0.06684542632402057,"191":-0.13344505521890637,"192":0.18361032966840282,"193":-0.16110086850540448,"194":-0.1620482359356457,"195":0.26618793403058516,"196":0.16051832580086914,"197":0.1902647424474573,"198":-0.1322933613251936,"199":-0.08410085597554735}},{"sx":5,"sy":5,"depth":8,"w":{"0":-0.08072704912273937,"1":-0.06582012484444079,"2":-0.06279082319680468,"3":-0.009649307791690175,"4":-0.036615254912638534,"5":-0.058411937218678746,"6":0.023747536503392546,"7":-0.04112559958778971,"8":0.04461447520295233,"9":-0.06486489673460676,"10":-0.054424001617280345,"11":-0.04529216011144917,"12":0.05336900178054615,"13":0.01526650095044394,"14":0.008611401926749869,"15":-0.004485081582846691,"16":0.1252740884676169,"17":-0.06837501967883318,"18":-0.056719218946799176,"19":-0.05936056668216921,"20":0.04403090868235463,"21":0.026473055560146508,"22":0.046535311220507566,"23":-0.06716693899850935,"24":0.21178695594681954,"25":-0.06986984782974064,"26":-0.06907106553529996,"27":-0.06133493700979427,"28":0.1128024490990007,"29":0.08088090542565998,"30":0.059403608259788035,"31":-0.10320063399405087,"32":0.2687109962283401,"33":0.005673279007413352,"34":-0.0527808354016435,"35":0.01803253633699174,"36":0.10232848706832702,"37":0.0889439482875031,"38":0.08022306648298262,"39":-0.08550388924438061,"40":-0.08851271847940337,"41":-0.05025266058038335,"42":-0.0412240853704545,"43":-0.008597782503265579,"44":-0.024992300834179096,"45":-0.015522519870539197,"46":0.008853399179495562,"47":-0.05580786638665789,"48":0.02343262377939389,"49":-0.05306633513335498,"50":-0.060322942190287394,"51":-0.006865597751240229,"52":0.04038062519541238,"53":0.03301643380143452,"54":0.015843110345841606,"55":-0.030109888431126147,"56":0.14393031002495713,"57":-0.1105355002288004,"58":-0.11638478023080022,"59":0.01947866597595698,"60":0.11189113258745775,"61":0.07626299391795847,"62":0.03275387546734076,"63":-0.11012626733969078,"64":0.26657350626941567,"65":-0.04818196814215857,"66":-0.0709856751344632,"67":0.05710608008459444,"68":0.12718495946890565,"69":0.1067361574253011,"70":0.04871368049533079,"71":-0.0721112362255051,"72":0.27556994742054847,"73":-0.08736753810258442,"74":-0.09364055122142632,"75":0.0861086931362668,"76":0.09055743929116823,"77":0.07080357025577315,"78":0.007250280831907383,"79":-0.08797857892697503,"80":-0.07592546077458358,"81":-0.13749344148621556,"82":-0.09643213883796407,"83":0.00030684094522151907,"84":-0.012255457804274242,"85":-0.03862289889294252,"86":-0.0468040858688905,"87":-0.08998319411466488,"88":-0.012725849526183582,"89":-0.13430966048511842,"90":-0.10005688779748739,"91":0.027146282010237326,"92":0.06098802605695076,"93":0.06455998997745185,"94":-0.002465190030450233,"95":-0.05777847151063832,"96":0.11282429683976179,"97":-0.23738876266816425,"98":-0.17587213893768777,"99":0.03614273765651606,"100":0.16244590750561302,"101":0.14119237646917693,"102":0.0072598940301773374,"103":-0.143627946728802,"104":0.273736484112614,"105":-0.20586643868096363,"106":-0.20734663750965218,"107":0.08898625902556385,"108":0.16725364500484344,"109":0.11630469207546093,"110":-0.019058504344934085,"111":-0.14262370786129877,"112":0.28241844107733205,"113":-0.146245962256955,"114":-0.1568850878299522,"115":0.1395243050565024,"116":0.09728966004828857,"117":0.06330859369497271,"118":-0.04126344989950238,"119":-0.12966708743945682,"120":-0.021618644202333802,"121":-0.09243302842760247,"122":-0.04893465011390896,"123":-0.07755726079935711,"124":-0.018174927749393933,"125":-0.014957799762756225,"126":0.020831981502807524,"127":-0.022731435278122575,"128":0.017934604080150223,"129":-0.08240223347510243,"130":-0.0517774917276928,"131":-0.0558250182677869,"132":0.024103766912718753,"133":0.01879566514048457,"134":-0.008967478853957675,"135":-0.0054953860635344525,"136":0.02103122317411017,"137":-0.08761089029271775,"138":-0.06760287147104585,"139":-0.023168776789812193,"140":0.08482011765263507,"141":0.0828413528684959,"142":-0.022767803959339684,"143":-0.052186700798283726,"144":0.11520574620362779,"145":-0.01596312990328978,"146":-0.043021862093647584,"147":0.05854157369458608,"148":0.08446992805465742,"149":0.07201129573075411,"150":-0.0384928668627828,"151":-0.041499372753890776,"152":0.10519350134730213,"153":-0.045258997125306254,"154":-0.04956457356056622,"155":0.0924302579537783,"156":0.026553968982218137,"157":0.00933315956438814,"158":-0.03296178573941357,"159":-0.08579562616060929,"160":0.02742639370912986,"161":0.022698042329584098,"162":0.03071042340586333,"163":-0.11220475696399619,"164":0.038446887269221956,"165":0.033682001725962134,"166":-0.0024146952069409124,"167":0.030117906823829112,"168":-0.019898426986437234,"169":-0.015169789786368898,"170":-0.0001666969222216606,"171":-0.02929447154496534,"172":0.013887415527527563,"173":0.020428035139746354,"174":-0.04132490124204208,"175":0.0017869099090938438,"176":-0.004811324534489176,"177":-0.014487391660587939,"178":0.009748745337820617,"179":0.0004219382715312952,"180":0.04043521837696507,"181":0.04093856513936628,"182":-0.06220986526769184,"183":-0.014241034151399422,"184":0.007612343896823075,"185":0.004884127104002646,"186":-0.00892029510783411,"187":0.05331722771922024,"188":0.014404700613094932,"189":0.03285907352580017,"190":-0.07841127275364754,"191":-0.009447877041461245,"192":-0.019549752460829982,"193":-0.010650005628789457,"194":0.006874811561738707,"195":0.03527631461278386,"196":0.002945557232585901,"197":-0.020657125739483886,"198":-0.07707988111405027,"199":-0.03418829815990475}},{"sx":5,"sy":5,"depth":8,"w":{"0":-0.02179377082665722,"1":-0.009792890677660572,"2":-0.015917401203913696,"3":0.010077228337113393,"4":0.006564094190055678,"5":0.009514968295945465,"6":-0.01712125515715237,"7":-0.02888371973102521,"8":-0.014591266966362506,"9":0.01859127035226346,"10":0.008326635823921982,"11":-0.00127942326494795,"12":-0.0015304002659548303,"13":0.007485365217584991,"14":-0.012486041173923726,"15":-0.01622235316386218,"16":-0.008972769516569216,"17":0.028377597994151574,"18":0.014034384994234317,"19":-0.014780202582685259,"20":-0.007197946320885529,"21":-0.001093158180288854,"22":0.0001045147360396291,"23":-0.0005618153311870957,"24":-0.022270229668800826,"25":0.016944165594120975,"26":0.010363944206296102,"27":-0.023489205763939872,"28":-0.01181674336017795,"29":-0.011691139863234994,"30":0.014705770141713138,"31":-0.013718176462866157,"32":-0.021082962473108233,"33":0.012707395470913317,"34":0.005821468545791106,"35":-0.027615320820144174,"36":-0.018531407282834613,"37":-0.01588785577876241,"38":0.028235346745854432,"39":-0.012255623260613949,"40":-0.04927008308794114,"41":-0.0016186474253851247,"42":-0.013668351220536555,"43":0.00982023182013349,"44":-0.0072171283056223215,"45":-0.004046852682580704,"46":-0.005678419638220823,"47":-0.028793949581569424,"48":-0.03457319989347242,"49":0.031248203878417896,"50":0.016624824142779965,"51":-0.0119329588659631,"52":-0.009116489497766276,"53":-0.0009049848215828412,"54":-0.008234770360496694,"55":-0.009255137278733058,"56":-0.054243087159647554,"57":0.008733729721978813,"58":0.009854630634214837,"59":-0.022223157995614314,"60":-0.018742295503166792,"61":-0.005536795756954691,"62":-0.004280600175805659,"63":-0.003054216706562531,"64":-0.0856873593546994,"65":0.001916835074500815,"66":-0.00018029984850984518,"67":-0.0393670804821621,"68":-0.01809262653366442,"69":-0.010629521184390348,"70":-0.020407440026071144,"71":-0.021575266433680018,"72":-0.07433674298429571,"73":0.005394338200134433,"74":-0.0015557034896487576,"75":-0.036524700813577185,"76":-0.03271381943160478,"77":-0.025507532174453423,"78":-0.03863931799238712,"79":-0.018646275929052887,"80":0.0031039109764210053,"81":-0.04280310164584846,"82":-0.04534877134902219,"83":0.02857961127438877,"84":0.03712886886093036,"85":0.04333727381869862,"86":0.009233778186689664,"87":-0.032021132194807095,"88":0.0021342046033302558,"89":-0.05219899720943173,"90":-0.05978460247037738,"91":0.028001082911726212,"92":0.03649007724889406,"93":0.0486733471180165,"94":-0.001975292708576797,"95":-0.04266841808767635,"96":0.01227972745782741,"97":-0.07713806671481468,"98":-0.05899286107519639,"99":0.03195859247930966,"100":0.03532814685747243,"101":0.04867743027980079,"102":-0.008635032685989459,"103":-0.04455058520182849,"104":0.00452728638766816,"105":-0.06889488659569833,"106":-0.05717944215255481,"107":0.01503122826635333,"108":0.047292153311240585,"109":0.06533160322317803,"110":-0.008190576090346059,"111":-0.04587131296986555,"112":0.007964386217305826,"113":-0.06492670974189536,"114":-0.060678900063312,"115":0.010445645590763553,"116":0.041065828762284574,"117":0.04163364489554026,"118":-0.02646970956509855,"119":-0.04505809335348076,"120":0.002558121368644381,"121":0.0018991930039854068,"122":-0.0004472191380564981,"123":0.09151122880294296,"124":0.005511411384823686,"125":0.022339032224494376,"126":-0.02121468501319199,"127":-0.005540766697598424,"128":-0.009774036207823238,"129":-0.020654073620594897,"130":-0.027360605016941774,"131":0.114415914762126,"132":0.0006775697004276124,"133":0.00773428733769286,"134":-0.05563360086825968,"135":-0.03524516306501986,"136":-0.024802318805921493,"137":-0.022673928370416152,"138":-0.0340092040395466,"139":0.10818583937786082,"140":-0.0021290398945203563,"141":-0.009908380593105625,"142":-0.0592941817454754,"143":-0.045574527195240265,"144":-0.022173291922199842,"145":-0.015306996039300833,"146":-0.02014650088868139,"147":0.10004425654334204,"148":0.0006251957067017784,"149":0.03834670766430903,"150":-0.05978176302635092,"151":-0.04428752478198979,"152":-0.014701116520501925,"153":-0.013736347984704246,"154":-0.019667263214014095,"155":0.07863277107562568,"156":-0.007464402693060557,"157":0.02407504608615944,"158":-0.06971417691404155,"159":-0.04579921349632387,"160":-0.016672401537090976,"161":0.07709487191947628,"162":0.07001991378262896,"163":0.0227876794195823,"164":-0.03091366449200493,"165":-0.03557859246090206,"166":0.08022702122605115,"167":0.05153867115361358,"168":-0.017122873872417843,"169":0.0724781368067117,"170":0.057524682592039716,"171":-0.012234914884069203,"172":-0.04486016748933793,"173":-0.04685381161259638,"174":0.06568310303626167,"175":0.04744323407626182,"176":-0.02659087016650869,"177":0.0508121105995381,"178":0.042541005222069175,"179":-0.022616786950241618,"180":-0.02478317041648284,"181":-0.028686385539307958,"182":0.03608210929273745,"183":0.01853254097578726,"184":-0.009975377652324353,"185":0.03807754830725878,"186":0.03878577349273945,"187":-0.04495873866377793,"188":0.008763973414509787,"189":-0.007848994780948443,"190":0.01455072202006635,"191":0.014022995754470328,"192":-0.009851963638210118,"193":0.025667066578992887,"194":0.025865732796629865,"195":-0.06088256900405046,"196":-0.013566158429707266,"197":-0.035073030229491535,"198":0.00801472655391859,"199":-0.0015576192115563862}}],"biases":{"sx":1,"sy":1,"depth":8,"w":{"0":0.13309840401266937,"1":-0.12380710812239629,"2":0.0950133765486495,"3":0.02716056444145421,"4":0.05119042803689162,"5":0.33447083740509675,"6":-0.14030589551631373,"7":0.1312562100469386}}},{"out_depth":8,"out_sx":32,"out_sy":64,"layer_type":"relu"},{"sx":2,"sy":2,"stride":2,"in_depth":8,"out_depth":8,"out_sx":16,"out_sy":32,"layer_type":"pool","pad":0},{"sx":5,"sy":5,"stride":1,"in_depth":8,"out_depth":16,"out_sx":16,"out_sy":32,"layer_type":"conv","l1_decay_mul":0,"l2_decay_mul":1,"pad":2,"filters":[{"sx":5,"sy":5,"depth":8,"w":{"0":0.1473874650826251,"1":0.053932209849192225,"2":-0.006296506275145047,"3":0.09957874651221506,"4":0.05499639468755346,"5":0.01779406727834291,"6":-0.11764792323425166,"7":0.028910710000498496,"8":-0.07620609992958143,"9":0.045315170418029356,"10":-0.005965835641765996,"11":0.007722714497588116,"12":-0.04951155042123295,"13":-0.08547164506760636,"14":-0.13383687596529348,"15":0.022797218690101956,"16":-0.019542932721495508,"17":0.17812163409101656,"18":-0.005777264857415068,"19":-0.0781826630064428,"20":-0.007612870518691904,"21":-0.013848212782828103,"22":-0.04052310927609502,"23":0.014845834574034496,"24":0.18184203029209717,"25":-0.04958117166509213,"26":-0.003967923835331058,"27":-0.011271873046628723,"28":0.04932358569827242,"29":-0.03445471637879413,"30":-0.014301968906949016,"31":0.07251994863694837,"32":-0.02459730190926505,"33":-0.021541134418011587,"34":0.0033007886923190665,"35":-0.062291787383967366,"36":0.008379483149978195,"37":0.008812980072815804,"38":0.0936783230051725,"39":0.028973824225411254,"40":0.036222174766676836,"41":-0.07421340058800051,"42":-0.00542208712673524,"43":0.005408577061402188,"44":-0.02361095670580803,"45":0.02287602526666546,"46":-0.06764141256729693,"47":-0.044825430564523504,"48":0.06014799464314866,"49":-0.1606673140045417,"50":-0.005822683010127952,"51":-0.0008826773650479126,"52":-0.06733133059479364,"53":-0.08951411404755903,"54":-0.07399768142692514,"55":-0.044674410106311756,"56":-0.2540250007547699,"57":0.03963933891038402,"58":-0.00528423581853355,"59":0.024667038001777414,"60":-0.09250812582111374,"61":0.028210915790057398,"62":-0.03168661623829109,"63":-0.028215867460577877,"64":-0.0007165982194115897,"65":0.008745249666461662,"66":-0.0010596277707535548,"67":0.06097146006199118,"68":-0.0903923288729858,"69":0.2116316567372772,"70":0.011379695717542647,"71":-0.01685115893527484,"72":0.02344210694562547,"73":-0.07145370866396195,"74":0.004618248938774194,"75":0.029087619896416797,"76":-0.018452815902723206,"77":0.1691065467874956,"78":0.08119334564810259,"79":-0.03418931697115416,"80":0.004277247600899582,"81":-0.0769867345597413,"82":-0.005574027066060617,"83":-0.017808910025052947,"84":-0.06239527150859351,"85":-0.01965346561502191,"86":-0.050353297813178884,"87":-0.01503473571682639,"88":0.04149428747275728,"89":-0.0811984435920135,"90":-0.005134368952974916,"91":-0.03899481567708683,"92":-0.04092346079971687,"93":0.03728991908435822,"94":-0.0283555307402802,"95":-0.00607134710952865,"96":0.015254128536215807,"97":-0.05886279967503159,"98":-0.004538631972873972,"99":-0.08208362971112745,"100":-0.034115695961043975,"101":0.013501853703141652,"102":0.002116025854480057,"103":0.03939650833240472,"104":-0.1593098041452731,"105":-0.056879118364753324,"106":-0.0005082915345367104,"107":-0.09467913503218593,"108":0.04934664037390215,"109":0.0804010442984616,"110":0.17640826955896433,"111":0.01122462663774558,"112":-0.11661202390035251,"113":0.10363539140715285,"114":0.0015031862844314093,"115":-0.036223339267224576,"116":0.10209803439226338,"117":-0.041893882753873866,"118":0.09651731023548205,"119":-0.010802188168217984,"120":-0.0246074235639897,"121":0.06588385196565696,"122":-0.00964163844392411,"123":-0.13437218938423487,"124":0.04037755181413706,"125":0.1334207358390906,"126":-0.050465559658530036,"127":0.015785805536920567,"128":0.046769465030812654,"129":0.029551049417184755,"130":-0.00544977326238868,"131":-0.008656221827886947,"132":0.003054151122535451,"133":0.20065299332634526,"134":0.027439530329139806,"135":0.02633407825878131,"136":0.1651733442608467,"137":-0.011328610481038483,"138":-0.005356007918611416,"139":0.03682944239217849,"140":0.0922454201909414,"141":0.11442309173521677,"142":-0.008422789955461113,"143":0.013009923290262375,"144":-0.10802049192001853,"145":0.00015254335862020603,"146":-0.0005956536245924617,"147":0.012526204573091738,"148":0.11117540664397065,"149":0.035550160010716814,"150":0.06537714853437537,"151":-0.017361929533224716,"152":-0.06642160759703356,"153":0.0009941095698820803,"154":0.00006607260315415375,"155":0.07902903367602505,"156":0.051214130609937986,"157":-0.2207717671011031,"158":0.07839067583549073,"159":-0.029431094722085393,"160":0.06320719774034825,"161":-0.026946130474977372,"162":-0.009311141433929247,"163":0.04353957909658263,"164":-0.02954524214660568,"165":0.14103730768435188,"166":-0.06585846032547608,"167":0.02052000675465188,"168":0.06607241730279609,"169":0.06757416474162106,"170":-0.0063883228777866195,"171":0.04027256394118502,"172":0.12048935894036526,"173":0.08152933400383394,"174":0.051204139658838375,"175":0.05456327329674722,"176":0.1374263542381256,"177":0.028705441370936582,"178":-0.00498145678968241,"179":0.03806049669832909,"180":0.11468215938622563,"181":-0.1175465505279186,"182":0.14594583985573892,"183":0.04885681995687162,"184":-0.08212091263850094,"185":-0.00425268975850686,"186":-0.00015685293037099297,"187":0.05413487607913562,"188":0.009239734420245884,"189":-0.13459807314147335,"190":0.032720065924472304,"191":-0.02671234298247429,"192":-0.11201601324301187,"193":0.014614025917643691,"194":0.001173373382593902,"195":-0.047375814314894286,"196":-0.16140146623585797,"197":-0.11430122725237343,"198":-0.010346746613056922,"199":-0.029243003866434764}},{"sx":5,"sy":5,"depth":8,"w":{"0":-0.0005499958254113372,"1":0.00018346113148105518,"2":0.00003214187692480127,"3":-0.0002356814511085097,"4":-0.00034613162781176726,"5":-0.00035404870301475224,"6":0.000039664208224554906,"7":-0.00007263318911843639,"8":-0.00016262886811415616,"9":-0.0010093771624194961,"10":-0.0000022994533324637525,"11":0.00021059318618067208,"12":-0.0000884803255249806,"13":-0.0005299746660124181,"14":0.0006732746962442452,"15":0.00017324332688281154,"16":-0.001320603623121448,"17":0.00012988384770812095,"18":-0.00009097763780193496,"19":-0.00033750867137751254,"20":-0.00001668879968805012,"21":-0.000050920635313431624,"22":0.00009737875036393859,"23":0.000034298089077080784,"24":-0.00032305510485038406,"25":0.0003451263393622136,"26":-0.00004422788621022134,"27":-0.00012730442709863054,"28":-0.000550548485889721,"29":-0.0002173826946627066,"30":-0.0002979429813509751,"31":0.00018502952199686397,"32":-0.00037108040724332113,"33":-0.0006594890059011871,"34":0.00006557326892092576,"35":-0.0005831006492916587,"36":-0.00014263712397632816,"37":-0.0005389105388773638,"38":-0.00017500717527849785,"39":0.00019101642291799247,"40":-0.0005368075432577629,"41":-0.0002622434294284855,"42":0.00004729725641127331,"43":-0.00039312285955037167,"44":0.0005608091811886508,"45":-0.0005778921420569858,"46":-0.00016452936377182775,"47":0.00002912708324737578,"48":0.00006986536176425241,"49":-0.0004369726492184828,"50":-0.000035558865534168637,"51":-0.00022926525469235207,"52":-0.00009190509903252238,"53":-0.0011681974224432275,"54":-0.0004133099613628532,"55":0.00031252072773091345,"56":-0.0008449000216013252,"57":-0.0006848365733723814,"58":-0.00003512970078277458,"59":-0.00039413197463274564,"60":-0.00003986238057239348,"61":-0.0003100813280985811,"62":0.00025754351528452864,"63":0.00014395230492705513,"64":0.00017323710595112008,"65":0.00019449308017154286,"66":-0.000029215198195449765,"67":0.000512274445751189,"68":-0.0005225924905042253,"69":-0.0000995310729296051,"70":-0.00018004793575368628,"71":0.00018871425591742352,"72":-0.0003791155189081495,"73":-0.0004784199642945007,"74":-0.00005570349418106583,"75":-0.00006792163896957014,"76":-0.00032237811675946306,"77":-0.0004383061795921635,"78":-0.0002461513830422502,"79":0.00012736516364203633,"80":-0.0009807720839067828,"81":-0.00021545249249102586,"82":-0.00001556518528117737,"83":-0.00010481447542825249,"84":-0.0007995433227381322,"85":-0.0002608715590310355,"86":-0.000706609626629484,"87":-0.00026389354546065545,"88":-0.000005609991758559971,"89":-0.0007040304821417362,"90":-0.0000026869078767227637,"91":0.00009197177843240503,"92":-0.0012383928933353845,"93":-0.0007920791897193988,"94":-0.0006087098730265881,"95":-0.00011636504156191797,"96":-0.0003337926034000846,"97":-0.0007059612841478129,"98":0.000004749468505907215,"99":-0.0006508020484510365,"100":-0.0008525243316793494,"101":-0.0005481508499331068,"102":-0.00036115911539549817,"103":0.00017336838129028848,"104":-0.0002173775753886515,"105":-0.0003273708456685,"106":-0.000012026106453984643,"107":-0.0006209114564036229,"108":-0.0005893183884667037,"109":-0.0002501308928670032,"110":-0.0005630705820386471,"111":0.00041658135520464376,"112":-0.0000667946822994557,"113":-0.0006583836769983359,"114":-1.3409669191605655e-7,"115":-0.00024489626925815937,"116":0.00006957226795003853,"117":-0.00049125615928582,"118":-0.00006899729015079699,"119":0.0004427664670321979,"120":-0.0007503505516641941,"121":-0.0001263408391569819,"122":-0.0000520980948906765,"123":-0.0005498159477339571,"124":-0.0005501428616435931,"125":-0.0004224717113398985,"126":-0.0013336368395427565,"127":-0.00038987936567761355,"128":-0.00022674197005701565,"129":-0.0005650550910978835,"130":-0.000045187780023410784,"131":-0.0003376037973356915,"132":-0.00024642653147242797,"133":-0.00019714150608921878,"134":-0.0007070288146305877,"135":-0.00033010397415594113,"136":0.000334475704372443,"137":-0.0009495027838785449,"138":-0.000026709034428685388,"139":-0.00035726362775572183,"140":-0.0005198609542275494,"141":-0.0007097349731727106,"142":-0.0008007717764030513,"143":-0.00012173461331797011,"144":0.0006217565076713485,"145":-0.0000949106581030283,"146":0.000028134673212652232,"147":-0.0002598133712212678,"148":0.0000387832769979354,"149":-0.0004905183782922082,"150":-0.0008438418917885012,"151":-0.00016285789131102803,"152":-0.0004902147428161639,"153":-0.0001479535500993433,"154":-7.650169805776645e-7,"155":-0.00002529809751903931,"156":-0.00023767817348839518,"157":-0.001067366610920019,"158":-0.00028388120621142515,"159":-0.00013240864977672202,"160":-0.0013352128028622078,"161":0.00017206950527155423,"162":-0.000018905518486421192,"163":-0.00013956721273416438,"164":-0.0005047478924675048,"165":0.00017808035482535188,"166":-0.000846455088543089,"167":-0.00010037998331820793,"168":-0.0005680984810742374,"169":0.00021825415184396083,"170":-0.000014692217328253666,"171":-0.00034235691446605284,"172":-0.00028803737216891135,"173":-0.00014221286071808517,"174":-0.0003184966311052481,"175":-0.0002495763549575993,"176":-0.0006121700201262595,"177":-0.000702005678823162,"178":-0.000026790103065716924,"179":-0.0002638699690731912,"180":-0.0009744121325214689,"181":0.0002239425698635363,"182":-0.00034010355325288146,"183":-0.00045397358168985377,"184":-0.0005930746790244986,"185":-0.00014317541831625815,"186":0.000004255971338154109,"187":-0.0003177722791320051,"188":-0.0008498934105964853,"189":-0.0002116081237289581,"190":-0.0009515671086437501,"191":-0.00033779509288801466,"192":0.0005832714956415103,"193":-0.0011013482657251082,"194":0.000028829754561811726,"195":-0.0008720956430574358,"196":-0.0006181382361624808,"197":-0.0010290978125093856,"198":-0.00037940585926948296,"199":-0.0001595179629540871}},{"sx":5,"sy":5,"depth":8,"w":{"0":0.18051579350335387,"1":0.011555804899341967,"2":0.0015934877284219193,"3":-0.023980501218418413,"4":0.12062239592193391,"5":0.022343535755537023,"6":-0.11983958974506558,"7":0.08434607708819664,"8":0.1266684357016074,"9":-0.2233503821793956,"10":-0.002528094596689596,"11":0.0075586052062565495,"12":0.081550163607839,"13":-0.04312913056336217,"14":-0.18338594314440193,"15":0.06865922863606952,"16":-0.127713513639272,"17":-0.08241763261699386,"18":-0.005520885279166141,"19":-0.08615930889074139,"20":-0.07814286284367411,"21":-0.04461102552255271,"22":-0.1270625426722474,"23":0.03961963368398627,"24":-0.16284645027628053,"25":0.06539289490921432,"26":-0.006579056882174693,"27":-0.12537200830504103,"28":0.09246012383313988,"29":0.07024014755438197,"30":0.05833380648986665,"31":-0.0035907027572845093,"32":-0.03418203422184327,"33":0.0774249485342004,"34":-0.0010800269226222668,"35":-0.06657192219581301,"36":0.1041621495540254,"37":0.16261331053656214,"38":0.039294753039892355,"39":-0.006827561225192774,"40":0.14186028318433794,"41":0.11873641829200626,"42":-0.0003768978069000254,"43":0.03501738050105083,"44":0.06555912857771237,"45":0.05850662216375451,"46":-0.06835993778022255,"47":0.010945049216204634,"48":0.26948962909940566,"49":-0.019697174299194233,"50":-0.003039500908504501,"51":0.020051273267647496,"52":0.14006001846306795,"53":0.16293373549469206,"54":-0.08178318448920807,"55":-0.014027789392847304,"56":0.1622308510620436,"57":-0.06264844303492417,"58":-0.0005462283948057375,"59":-0.022469705398406592,"60":0.0740805988020199,"61":-0.02548491425337111,"62":-0.17511631469792613,"63":0.011602435376762506,"64":0.10917698819117654,"65":-0.12462526542237809,"66":-0.003023551579695414,"67":0.0657505680329868,"68":0.03468245699834229,"69":-0.1099666659516537,"70":-0.03810056907964268,"71":0.03516094518355457,"72":-0.12936140825249112,"73":0.03238236076802428,"74":-0.005399186803752616,"75":0.11234516401248416,"76":-0.023854467605831656,"77":0.04627811070997296,"78":0.12474364909094932,"79":0.02905758078247396,"80":-0.013258939847465455,"81":0.009549203033671917,"82":-0.0010892757380772673,"83":0.04243274465493879,"84":-0.02077173052797756,"85":-0.043562979825732186,"86":-0.1877037850430355,"87":0.03431643034919404,"88":0.10597082435912264,"89":0.027825747787584,"90":-0.0003881456114975017,"91":0.04044862941432048,"92":-0.06939645969015873,"93":0.011727514571138074,"94":-0.06866757277968188,"95":0.016231489638641527,"96":-0.11084927607322252,"97":0.15731730072736047,"98":-0.004102385232008543,"99":-0.015679013378044414,"100":-0.07543240031128719,"101":0.17760689143138095,"102":-0.16000729072282172,"103":-0.02332798138272686,"104":-0.12760750164733553,"105":0.10446184158749021,"106":0.0004258151882149605,"107":-0.010266008791079284,"108":0.0450020257548892,"109":0.06983499570475514,"110":-0.20611107451777913,"111":0.003477260427529885,"112":0.05755654419223236,"113":0.0004924007620735817,"114":-0.001170440408727,"115":0.0067216045524819005,"116":0.0975525223839838,"117":0.05062414548285794,"118":-0.05943584469469264,"119":0.006363608876282128,"120":-0.11017334786009439,"121":-0.012734605482841502,"122":-0.000032353113352805014,"123":-0.028831674861692844,"124":-0.030481547497683167,"125":0.03932867934300097,"126":-0.11704062327066199,"127":-0.015681251130002793,"128":0.07538623057860293,"129":-0.09563836385723172,"130":-0.004480772422385802,"131":-0.0007641860610570277,"132":0.009085983061972669,"133":0.02472413568189053,"134":0.0830111513989609,"135":-0.05136010217627019,"136":0.09761340907133356,"137":-0.09089570752789768,"138":0.0014351652485922108,"139":-0.052475004149657264,"140":-0.030009193186533542,"141":0.07267131360837757,"142":0.09790801751451558,"143":-0.038123902828406296,"144":-0.02127323872757099,"145":0.15419553962597504,"146":-0.00043774345339114785,"147":-0.1646925193887178,"148":0.04315577673607807,"149":0.012539977768707071,"150":-0.023890454726975627,"151":0.0029390963005410087,"152":0.014839487206714507,"153":0.04126019062178119,"154":0.0017202151446626505,"155":-0.1019989561591497,"156":-0.07145282365121515,"157":-0.0582538351869976,"158":-0.10974049437658588,"159":0.023046649776379026,"160":-0.03587781269050034,"161":0.00974506868738024,"162":0.0026077544157329345,"163":-0.07278563853530515,"164":-0.05184849517686798,"165":0.023251120312427768,"166":-0.07351436940396439,"167":-0.015184087511516233,"168":-0.10373398051289999,"169":-0.04464229523861999,"170":-0.0032653589966799923,"171":-0.04090396623226159,"172":0.0488768945956871,"173":0.02931575623840048,"174":-0.06417160846224351,"175":-0.012052343404945013,"176":0.025671869864286143,"177":-0.22527508280812558,"178":0.0002232897700716326,"179":0.09804029777266662,"180":0.07624845213330833,"181":-0.12833689315437255,"182":0.02915356258961254,"183":-0.041626512656516686,"184":0.15271317984851415,"185":-0.14082200385315366,"186":0.001308080026038822,"187":0.17965609225075746,"188":-0.04907595265889527,"189":-0.179812540950065,"190":-0.017569447623902588,"191":-0.039557790879448856,"192":0.04372244229226116,"193":-0.04666102595171367,"194":0.0009321567427743259,"195":0.09225046032358875,"196":-0.1058079001562136,"197":-0.07931563700408813,"198":-0.12653543213907578,"199":-0.02201509151275075}},{"sx":5,"sy":5,"depth":8,"w":{"0":0.07103964281374077,"1":0.03310798661106477,"2":0.0018011947543662811,"3":0.014477868893531096,"4":-0.0022637842221435176,"5":-0.07915773430036843,"6":-0.01672254084348587,"7":-0.0141376295059036,"8":0.028790288493213592,"9":-0.09253622376711938,"10":0.002106027603627364,"11":0.09002719739526703,"12":-0.10007919227232746,"13":-0.04171930908626483,"14":-0.008763341098527989,"15":0.022733331222350814,"16":-0.15556280591602456,"17":-0.11271667953793674,"18":0.003977806810547234,"19":0.10946330426601605,"20":-0.013912894347821,"21":0.11908663932629407,"22":0.06917922326948084,"23":0.07839478694564068,"24":-0.1569859194143134,"25":-0.02225786100050058,"26":0.006125733469851936,"27":0.06496624187789177,"28":0.07407940233557381,"29":0.02235920895053459,"30":-0.04270123412549659,"31":0.04968069819364289,"32":-0.16505451460029796,"33":0.18178994189993747,"34":-0.003649577533978233,"35":-0.051069429763055584,"36":-0.00956053606787198,"37":-0.03594633881002579,"38":-0.15686773391272837,"39":0.0191442636640149,"40":-0.0003585343922649417,"41":0.09055972003406293,"42":-0.0004184510165092241,"43":-0.08496379944284965,"44":-0.050055676196201014,"45":0.061058362691919374,"46":-0.12644191685452147,"47":0.06654616747474433,"48":0.11675503470997219,"49":0.017118402571324753,"50":0.006262744300929033,"51":-0.04237996659642562,"52":-0.05848375521601176,"53":-0.020852661259811188,"54":-0.1540496242222701,"55":0.0052009306967969295,"56":0.0015804693947853664,"57":-0.11445500861201592,"58":0.0012994254935473723,"59":-0.18528458522639502,"60":0.11677601330003251,"61":0.0916620129570058,"62":0.06023658671837805,"63":-0.00552705195571795,"64":-0.15756216313982455,"65":0.04015664806890827,"66":-0.0027506344677921983,"67":-0.008915682224547042,"68":0.11593646951547784,"69":-0.06847454050695287,"70":0.03387734856099263,"71":-0.05004983172817352,"72":0.0036378986481902277,"73":0.09628757778046766,"74":-0.004484374893501383,"75":0.011873055875913387,"76":0.056656401808703266,"77":0.018405795607260786,"78":0.11420445918454279,"79":-0.04379296792306848,"80":-0.06093686757814061,"81":-0.0905879201157781,"82":0.004542090945027018,"83":-0.032392158622301145,"84":0.013674088440913905,"85":-0.09222724785250669,"86":-0.043003906188438974,"87":0.004722417483765812,"88":0.21470627383120644,"89":0.1338521045810498,"90":0.005114818558143138,"91":0.0008205061538000789,"92":-0.11603255626202708,"93":-0.08375152396603104,"94":-0.15744042013757562,"95":0.04877761264149835,"96":-0.022834910976656048,"97":-0.1999869402311848,"98":-0.0013606379952656382,"99":-0.03270053156571121,"100":0.01741278918448535,"101":0.01193149647940773,"102":0.14940028315987222,"103":0.024257495714961445,"104":-0.08951311966593971,"105":0.1560959359736574,"106":-0.00010937971253841298,"107":-0.07950575803987478,"108":0.00761856034729754,"109":-0.14088614967683497,"110":0.002878460415978211,"111":0.039903528199107724,"112":-0.2060647098987036,"113":0.042638816066100566,"114":-0.007509629816353236,"115":0.05400189309500469,"116":-0.01739937056039591,"117":0.022883707645863144,"118":0.044843047299499596,"119":0.04568769541836399,"120":-0.03815348461647717,"121":0.11781802204739915,"122":0.007171289439350418,"123":-0.05592446841976746,"124":-0.11107786379465437,"125":0.017923982576331255,"126":-0.012389627309680105,"127":-0.016894316326217455,"128":0.14045904818639188,"129":0.10476701592148736,"130":0.007939724363737449,"131":-0.04374635059173368,"132":-0.08504961753728409,"133":-0.012812583911354902,"134":-0.15690135172367312,"135":-0.015106947248351762,"136":0.21973712049483107,"137":-0.015452008948194632,"138":-0.00042816905881849906,"139":-0.03714364085725924,"140":-0.0729562575487372,"141":-0.11125322463134837,"142":-0.10781838753376377,"143":-0.009063738264649911,"144":0.1498259422661509,"145":-0.12227257510936021,"146":-0.002109889992664448,"147":0.016581782487653896,"148":-0.010098896075458962,"149":0.015496533770217572,"150":-0.08598115368801627,"151":-0.03474513468379521,"152":0.1644220878380217,"153":0.1424578926058767,"154":-0.006882586056259368,"155":-0.03984781281682803,"156":0.03113723280400692,"157":-0.06255944340717484,"158":-0.1337673357526778,"159":-0.02484336263360212,"160":0.01233297376182033,"161":-0.1302795737221275,"162":0.006926134044510902,"163":0.1388115372355392,"164":-0.009801536314508197,"165":0.06631168999653478,"166":0.025798304689602952,"167":0.0114681949261618,"168":-0.3483138804589205,"169":0.09508187462249092,"170":0.006699593725019991,"171":0.03456236525540115,"172":0.08972493260145788,"173":0.04568310491966997,"174":0.02137969831113533,"175":-0.02635564046614594,"176":-0.07226296236277957,"177":0.15151423148943105,"178":0.005663427932382662,"179":0.04647937872663879,"180":0.0021491726796306933,"181":-0.07238373452797851,"182":0.014517603636584556,"183":-0.004523703309692481,"184":0.12546654236655352,"185":-0.05244426948278175,"186":0.0016437292089385535,"187":-0.0233722700958431,"188":0.014908400674139812,"189":0.06019323668173143,"190":-0.07521188951347245,"191":-0.036758570083031065,"192":0.22332189391199211,"193":0.024979417627879454,"194":-0.0020134454268987715,"195":0.03744234750293757,"196":0.028515334436864964,"197":-0.07328628143183796,"198":-0.1347987722424627,"199":-0.05760119190891454}},{"sx":5,"sy":5,"depth":8,"w":{"0":0.20244198514987777,"1":0.06971199057448858,"2":0.0005487483450280632,"3":0.1648761521556759,"4":0.08227407693921848,"5":0.10181514240596155,"6":-0.026463790121464003,"7":-0.007120648238787196,"8":0.027348709649735986,"9":-0.0752309900476493,"10":-0.0004330073879041638,"11":0.11009382965145136,"12":-0.007664343365202035,"13":0.0023754442704921183,"14":-0.009905623474577486,"15":0.005817635722972621,"16":-0.023449433590321964,"17":0.24103140714850327,"18":0.0030768581659139957,"19":-0.05694582603623824,"20":-0.04200462920588607,"21":0.15904404214145024,"22":-0.08825043189620935,"23":0.041822809882324403,"24":0.05123664709006802,"25":-0.025422120457682534,"26":0.0006299487649692387,"27":-0.0412697952296789,"28":-0.07591469876565553,"29":0.08923240457156888,"30":-0.024501728349498198,"31":0.03271144530742163,"32":0.02621850613512078,"33":-0.032608965486886146,"34":0.001433697230116941,"35":-0.05793517652328917,"36":-0.03838806752858735,"37":-0.015179861459676381,"38":-0.011484733954307422,"39":0.03702736970137137,"40":0.007247517546682638,"41":-0.045223549890071706,"42":-0.00020665884022825156,"43":0.05529916062150294,"44":-0.05589033360359895,"45":-0.08222797652300527,"46":-0.1357336100101591,"47":0.04846386154978142,"48":-0.01535679405250579,"49":-0.0427333848269667,"50":0.00019412602938401912,"51":-0.070086924564766,"52":-0.05266651432866212,"53":-0.09043007723009033,"54":-0.10110976802884789,"55":0.04066525771879523,"56":-0.04877498279500075,"57":-0.008992305744749214,"58":0.0003398947921657094,"59":-0.10809514323556038,"60":-0.06453266104342581,"61":0.10958137414906052,"62":-0.05961735282708125,"63":0.004609917942658166,"64":-0.17988756683981136,"65":-0.024618354106147475,"66":0.0017038206904220119,"67":0.005600495775451737,"68":0.05582411603449112,"69":0.26279728960266446,"70":-0.03867183842396104,"71":0.022457684453000292,"72":0.053705521971024156,"73":0.12989939977472112,"74":0.0016295602516961931,"75":-0.08827531341803527,"76":0.15244719902222262,"77":0.1331130032047171,"78":-0.04327063501517175,"79":0.002590690917430404,"80":0.12587576802014838,"81":-0.02168408550124454,"82":-0.003947621134637065,"83":-0.012205122697142124,"84":0.05301941727860464,"85":0.018746287056266648,"86":-0.1651052684419148,"87":0.03346068320970073,"88":0.0725634168709696,"89":-0.003618026807756332,"90":0.0013884237955724653,"91":0.17602022600264466,"92":0.017382189980476165,"93":-0.08482499641483492,"94":-0.18832277109019208,"95":0.04871460628842085,"96":-0.05157950178284916,"97":-0.05340651288509313,"98":0.0020658348766973925,"99":0.13415611709723096,"100":-0.017374779144675168,"101":-0.1110784429291262,"102":-0.04601720661380247,"103":0.01398119878806869,"104":-0.2012692886836572,"105":-0.15007261544591782,"106":0.00036156693169504594,"107":-0.006237829954430197,"108":0.047448034778270955,"109":0.051418506563395354,"110":0.17319356730737634,"111":-0.0055828785951979355,"112":-0.04083308082808584,"113":0.13464191570279926,"114":0.0006081177038445031,"115":-0.015674751722908234,"116":0.11487899638157292,"117":-0.09829280124722523,"118":0.18261882322607376,"119":0.005533967699393419,"120":0.028529728530913425,"121":0.05203120422013624,"122":-0.00023731918313581833,"123":-0.051071488710478945,"124":0.018812245864647335,"125":0.1036180060591304,"126":-0.10823897893566665,"127":0.01796730376418239,"128":0.0695083673553879,"129":0.07255485579166787,"130":-0.004008132334013269,"131":0.01700194321544866,"132":0.03521874653426979,"133":0.013014117110154155,"134":-0.07645927898964264,"135":0.05576425645458603,"136":0.2258957193208537,"137":-0.06048152798500296,"138":0.0018763377325206317,"139":0.0690444501814732,"140":-0.024892376711277565,"141":-0.17330151387634976,"142":-0.17002308696262416,"143":0.03776583976621709,"144":-0.008941218776490189,"145":-0.04843860427755251,"146":0.001869554700747587,"147":0.048656474644274327,"148":0.09800000264985223,"149":-0.06740403312243644,"150":0.1419761117994281,"151":0.005267645015398406,"152":-0.10182412210472463,"153":-0.03636487313016414,"154":0.002714270279043355,"155":0.13465630210451307,"156":0.026028356822010126,"157":-0.14887183156726735,"158":0.08259701532118321,"159":-0.0350877252602441,"160":0.11389740327977362,"161":-0.035298585271906324,"162":0.00023038756748268893,"163":-0.0021539061266534804,"164":-0.06859213421788965,"165":0.049923492581142294,"166":-0.04039970220713139,"167":-0.013384427902330747,"168":0.032869229305621264,"169":0.07427814900802703,"170":-0.0030539948797141192,"171":-0.10021378225529533,"172":-0.0027648314452866263,"173":0.01216296404502189,"174":-0.12544431569475759,"175":0.020641845807802456,"176":0.2833534860321041,"177":0.004613574768036407,"178":-0.0025740651221981947,"179":-0.04925949600778741,"180":-0.04858518925339899,"181":-0.08131529662197227,"182":-0.18672881548433082,"183":0.018238095294757235,"184":0.04868681873013409,"185":-0.058233053885820174,"186":0.0016877515235721463,"187":-0.04353324792435236,"188":-0.15877925974627433,"189":0.046946716609664554,"190":-0.03626352835642237,"191":-0.015124804373985565,"192":-0.17513241516594974,"193":-0.05931141694112206,"194":0.002897705275747775,"195":0.011525444641647589,"196":-0.1561968445570595,"197":0.1379145211741365,"198":0.04371836926290342,"199":0.006226080525033616}},{"sx":5,"sy":5,"depth":8,"w":{"0":0.029670436547997694,"1":-0.004266944946442185,"2":0.004260701117827887,"3":-0.02678371725233499,"4":-0.002098705021080388,"5":-0.024087729137296215,"6":-0.10773566389351255,"7":-0.04282313788648425,"8":0.08401762776949684,"9":0.03443375371677895,"10":0.0004465190831417145,"11":-0.07377874732908672,"12":-0.0613900799096911,"13":-0.04007671637751544,"14":-0.06310965301988114,"15":-0.0023203208801193887,"16":0.18742645663375948,"17":0.16485509485804165,"18":-0.002606781335204065,"19":-0.08174199956555867,"20":-0.07995101822828417,"21":0.00939420787414878,"22":-0.058565077283712984,"23":0.042834445282471274,"24":0.016987396818128643,"25":-0.0032240545802238734,"26":-0.0017263411727744655,"27":-0.017050408108266305,"28":-0.04487609693575911,"29":0.04072532886340884,"30":-0.023151412210180522,"31":0.04215584790796959,"32":-0.008944951335020266,"33":0.13219599155250003,"34":0.001651679652614134,"35":-0.021989368525434844,"36":0.12728081305198183,"37":0.054005363753325264,"38":-0.003576499363601854,"39":0.005571347473895927,"40":-0.11626667767839798,"41":-0.042033211764261474,"42":0.004752755320979288,"43":-0.008551250597566394,"44":-0.028731502528679287,"45":0.20948695531853448,"46":-0.05457181647547078,"47":-0.0001119894812783217,"48":-0.24988132959065856,"49":0.033742541960718735,"50":0.0005197175179046179,"51":-0.04452234014476155,"52":0.05517227749983113,"53":0.18123975106344337,"54":0.06528399767656469,"55":0.010715169970431355,"56":0.05679348457885058,"57":0.15029364866673614,"58":-0.0011419834375725518,"59":-0.04474443851935117,"60":0.18555567399885478,"61":0.049376651692144356,"62":-0.03146252285622728,"63":-0.03952785187877945,"64":0.005152600765334779,"65":-0.10860721733381706,"66":-0.002450768781953383,"67":-0.013437490361452309,"68":0.001348632241432809,"69":-0.1518991819955937,"70":-0.005223411206263715,"71":-0.023658603569275814,"72":-0.2011502216741417,"73":-0.010443566673242415,"74":-0.000465399523009063,"75":0.0928851633399107,"76":-0.030017096064036,"77":-0.10328066399889395,"78":0.055676148406678054,"79":-0.011591149651546985,"80":0.11135276743876986,"81":-0.011252759138145513,"82":0.006874676107557334,"83":-0.06804440959072065,"84":0.0016421841041610364,"85":-0.01531361136961313,"86":0.05889783606252987,"87":0.04699477873392694,"88":-0.03131329676111655,"89":0.00021608560284763987,"90":0.004330228258117673,"91":-0.0580088056509443,"92":-0.04178428613071535,"93":0.04444191901177566,"94":0.09409921293930446,"95":0.07810543271079969,"96":-0.078292539679454,"97":0.23997916295384655,"98":-0.002692221098563319,"99":0.07239940942816286,"100":-0.04244123173972167,"101":0.012980091574152527,"102":0.004286743464059141,"103":0.06939282942506741,"104":-0.1141151751041093,"105":0.03536795411719563,"106":-0.002462162201391499,"107":0.009200170309872087,"108":-0.09822424850146483,"109":-0.05042198523456594,"110":-0.04503776914289674,"111":0.02504306270135597,"112":-0.08046448604227441,"113":-0.0077933194775333964,"114":-0.001361451366431128,"115":-0.12050954882537035,"116":0.11503704314423537,"117":0.04835385272535521,"118":-0.022014517546883588,"119":0.019459004085115875,"120":0.094162228616673,"121":0.08248462135189256,"122":0.000281733144079882,"123":0.05517709112729879,"124":0.07631554213703709,"125":-0.03799776372485079,"126":0.0062685462346499495,"127":0.02301471448747548,"128":0.0029209079835437572,"129":-0.16245597519943333,"130":0.0011426699688051546,"131":-0.0027427463516242197,"132":-0.01299656521961528,"133":-0.04361041078236653,"134":0.008718074630960849,"135":0.039039433738684425,"136":-0.0016034952196059865,"137":0.03357766757305719,"138":-0.0018578660144308301,"139":-0.06217677327499896,"140":-0.0034517521100802377,"141":0.0259207579811431,"142":0.013069634816018815,"143":0.00150752517785189,"144":0.1262367308142281,"145":-0.012984356772320722,"146":-0.006796493942529982,"147":-0.021670379094988097,"148":-0.07402745419233617,"149":-0.05138309747317337,"150":-0.03544532143719686,"151":-0.008156444871693381,"152":0.012513352478296673,"153":-0.10782635612990756,"154":-0.005736886453486789,"155":-0.06249818042779551,"156":-0.013099793676955785,"157":0.021964945354610833,"158":-0.0033013529838873306,"159":-0.01680904483734795,"160":0.11090732447449637,"161":0.05393115297699095,"162":0.000145052400497695,"163":-0.04807696583492755,"164":0.014100977441594659,"165":-0.033571690272375755,"166":0.010724816381357081,"167":-0.00854134485434333,"168":0.09288941878136739,"169":-0.16031499318057085,"170":0.0004240474771512542,"171":-0.0014680424741073154,"172":-0.011279694622850011,"173":-0.12808168066204365,"174":0.0025166788511141657,"175":-0.009341047823155132,"176":-0.05515202890657207,"177":0.04986743224038381,"178":-0.0009120171547388347,"179":0.019853622482738795,"180":-0.09459040631650217,"181":-0.01212673555589415,"182":-0.02760252097826937,"183":0.031035959986362587,"184":-0.10590047325956754,"185":0.038331472850659715,"186":-0.006319897850876743,"187":0.11671431358180472,"188":-0.01733714804982708,"189":0.07908762730945029,"190":-0.04684042795863475,"191":0.0419026388881512,"192":-0.010033793251149023,"193":-0.03811846498613543,"194":-0.007622936487647704,"195":0.06199075591704315,"196":-0.060368902807425,"197":0.07499537989142259,"198":0.025964037317548348,"199":0.012480198186866862}},{"sx":5,"sy":5,"depth":8,"w":{"0":0.07575432265721545,"1":0.09989442741751245,"2":-0.001042012545235258,"3":-0.07684893990442537,"4":-0.06632607715890242,"5":-0.028598883725722772,"6":-0.006258219986423467,"7":-0.018338192224393726,"8":0.14542111251689618,"9":0.16892163328101278,"10":-0.0002628948927267522,"11":-0.0941167460141183,"12":0.0249774128507648,"13":-0.015133045466415385,"14":-0.06984674674144223,"15":0.04708616457750365,"16":0.3382279484458966,"17":0.22494329899342863,"18":-0.0030554102301505585,"19":-0.07729628129620238,"20":0.0035116834292797526,"21":0.014414556590740124,"22":-0.20127885097310635,"23":0.06814563170004403,"24":0.1391019898785966,"25":-0.3062320060549641,"26":-0.006859266017804974,"27":-0.04775316737305205,"28":-0.05832131908858338,"29":0.07582520803910142,"30":-0.18839229532705712,"31":0.043460872086980136,"32":-0.2273997904398204,"33":-0.14275014551425294,"34":-0.005695192990871724,"35":-0.11226989638352719,"36":0.05988038467222522,"37":0.0632678514781237,"38":-0.018137815846870697,"39":-0.026346280135541886,"40":0.019469508413999984,"41":-0.10634591869954912,"42":-0.0037204743687526665,"43":-0.03924345842259656,"44":-0.004268084442460296,"45":0.02332349343209329,"46":-0.04678682763190244,"47":-0.010517866921013483,"48":-0.1330820029542593,"49":-0.01587072937227718,"50":-0.006979408094730103,"51":-0.01106508896670166,"52":0.05035608731391244,"53":0.08872605684555629,"54":-0.08010706051710696,"55":-0.019610916473363802,"56":-0.10492836981597287,"57":0.11514254015195302,"58":-0.002705536335419351,"59":0.06235313263374396,"60":0.0466138758661232,"61":0.1290565158563844,"62":-0.06566715313613633,"63":-0.004931420712391147,"64":0.09546239104836243,"65":0.03369189784228342,"66":0.00003265294486047,"67":0.053320818241450046,"68":0.13746589375509818,"69":0.10508837258020934,"70":-0.07281125465754135,"71":0.026875644005716858,"72":-0.08586780635244898,"73":0.010263496269434692,"74":-0.0067619932680139565,"75":-0.13918124764252834,"76":-0.012592251707572001,"77":0.012625366106348221,"78":-0.11219089765044403,"79":0.03846864522888695,"80":-0.07017561271400173,"81":0.08303973840706644,"82":-0.0040918919395068415,"83":-0.07752451511528663,"84":0.10382232750778633,"85":0.16530307778626366,"86":0.039818903879925684,"87":-0.06939746395196947,"88":0.07893918850918412,"89":-0.03470871695139692,"90":-0.003845102919182767,"91":-0.043538717482145634,"92":0.07898550191459701,"93":-0.031294707963859456,"94":-0.0928839127213909,"95":-0.031712225711237337,"96":-0.027934644500202645,"97":-0.1647087379205395,"98":-0.0041798434739460134,"99":-0.0013122382382956311,"100":0.02958326698446732,"101":0.01579555194767799,"102":-0.030098685595183704,"103":-0.005536955221158698,"104":-0.1345732052603456,"105":0.03879808655889304,"106":-0.0038144297497159823,"107":0.11180037816857102,"108":0.04446791784855021,"109":-0.04781332203874182,"110":-0.0836542978170539,"111":0.009194306490413189,"112":-0.1400358757740054,"113":-0.1730767906165852,"114":-0.009694364599968532,"115":0.13304275749985214,"116":-0.17883362791679885,"117":-0.02829944698738908,"118":-0.10455419860493916,"119":-0.004095949902724967,"120":0.008144197490262711,"121":0.1686893642429506,"122":-0.0029730919528043287,"123":-0.06179314032449036,"124":-0.04547826811024965,"125":0.01233756762678622,"126":0.12746253181166384,"127":-0.009509221402048004,"128":0.11229649885979237,"129":0.20065472820983607,"130":-0.003125486942623917,"131":-0.04913246029665658,"132":-0.04565382194226928,"133":-0.19417456796186694,"134":-0.06448410566987119,"135":-0.0029467317683422476,"136":0.21903224803127383,"137":-0.10451455763498813,"138":-0.004311797187653962,"139":0.009504610472323096,"140":-0.049539061238043504,"141":-0.05446544077857569,"142":-0.17588482902862648,"143":0.005112441439029342,"144":0.044735450761338544,"145":-0.07766187921358196,"146":0.000142298736925912,"147":-0.08158459374496763,"148":-0.019822622960831034,"149":0.08952645156338955,"150":-0.09059909915110001,"151":0.006343814065237098,"152":0.163427864754769,"153":-0.16636507864010244,"154":-0.007501435495137929,"155":-0.10457778413893405,"156":-0.0526495063413085,"157":-0.0353194107393134,"158":-0.07822685447119626,"159":0.0034561999865986856,"160":-0.028004472652778625,"161":-0.12355640142627065,"162":-0.0037136135768780195,"163":0.12557565151146102,"164":0.06935997338987267,"165":0.021955721907476057,"166":0.17844075719655197,"167":0.0019181238315249122,"168":-0.04487211862434499,"169":0.23521759847485746,"170":-0.0021236637614797326,"171":0.17320843837704356,"172":0.03928277413603299,"173":-0.019671087216442843,"174":0.0726505264908952,"175":-0.019505716147503585,"176":-0.0072369774252743725,"177":0.12517881750635498,"178":-0.001787897122505844,"179":-0.027370314136529548,"180":-0.004448667841704532,"181":-0.09856183426963352,"182":-0.18547591830602325,"183":-0.02153472599037218,"184":0.06548446328531489,"185":-0.07115191685695035,"186":-0.0032524245755664646,"187":-0.06865010488187127,"188":0.0869800641565424,"189":0.048142129249294535,"190":-0.028769057954417844,"191":-0.0380100590728043,"192":0.14683646918014123,"193":-0.13984523777238553,"194":-0.006835765771282532,"195":-0.03544886131809988,"196":-0.050221674684339926,"197":-0.06868009239712441,"198":-0.058369772694765544,"199":-0.04716910475678783}},{"sx":5,"sy":5,"depth":8,"w":{"0":0.04839919634115635,"1":-0.01751364108297948,"2":0.003768480113720927,"3":-0.005031541128140263,"4":0.007922769787553262,"5":0.012527371478451822,"6":0.11449657928570114,"7":-0.013098558362128856,"8":0.0002774343843450776,"9":0.06994040207921923,"10":0.005416725052151993,"11":-0.029247139845969064,"12":-0.012359177610399731,"13":-0.04502278912978246,"14":0.10126945888764431,"15":-0.009490492928618177,"16":-0.051163261314142866,"17":0.02119861744813759,"18":0.0015240323403278553,"19":-0.08756025252199072,"20":0.0507294508753206,"21":0.08466911177416332,"22":0.07210590421423359,"23":-0.003002858515255645,"24":-0.0705352727479417,"25":0.2046283881256141,"26":-0.0008575061772404153,"27":-0.0019317418788202443,"28":0.06101434764634583,"29":0.04845518527002959,"30":-0.03399613543378693,"31":-0.043312434464261335,"32":-0.021625525564498985,"33":0.07991343562327087,"34":-0.004404377048802434,"35":0.10867112235157719,"36":-0.06381415581472169,"37":0.14471006311497756,"38":-0.051068537545840384,"39":-0.016790802541571247,"40":0.016950408049732156,"41":-0.07877694895924779,"42":0.006110579378489703,"43":-0.11485302460677088,"44":-0.0265867918098796,"45":-0.09187800066684715,"46":0.12358371290543607,"47":-0.026805612807390366,"48":-0.1317644598611057,"49":0.10010475939081244,"50":0.00552141684802589,"51":-0.013235642221529937,"52":-0.06973359949429293,"53":-0.04091282600668673,"54":0.12795110782024435,"55":0.00946535049864095,"56":-0.02659421670081267,"57":-0.0019780753852665814,"58":0.0048356465012936055,"59":-0.007905750856410501,"60":0.04608367032167624,"61":-0.0341194757459388,"62":0.1357654565429218,"63":-0.027460409875018226,"64":-0.061023548981578316,"65":0.15212938339916895,"66":0.00012449424423227213,"67":-0.020733032669595804,"68":0.08837209804954703,"69":0.07293897474871044,"70":0.01677731160828012,"71":-0.04055353530548815,"72":-0.08741755680635466,"73":-0.06379205698066158,"74":-0.0038063716923643553,"75":-0.05810677721420338,"76":0.07843287868418387,"77":0.192272323428726,"78":-0.04304705330183597,"79":-0.05254144365414343,"80":-0.060063235641832184,"81":-0.051481346109395906,"82":0.0033561364991386024,"83":-0.08500285565738765,"84":-0.00030174500491163297,"85":-0.04519244876681675,"86":0.09064161133293676,"87":0.008987133908811671,"88":-0.01651114321311672,"89":0.14276396284727957,"90":0.006937901845860764,"91":-0.027400108638625957,"92":-0.039631918797814206,"93":-0.17838794628026003,"94":0.04071261951881553,"95":-0.023369240448665715,"96":-0.09871401495339907,"97":0.01591324140819296,"98":0.009616611637079794,"99":0.05751047740782365,"100":-0.08898467242589583,"101":-0.09124160198443226,"102":0.019442332856469822,"103":-0.003044665518306724,"104":-0.04997817037303609,"105":0.017028852136122985,"106":0.000960833719538303,"107":0.17731845150536193,"108":-0.07953411552038944,"109":0.07980236647562974,"110":-0.059699723270987104,