[{"network":{"layers":[{"out_depth":3,"out_sx":64,"out_sy":128,"layer_type":"input"},{"sx":5,"sy":5,"stride":1,"in_depth":3,"out_depth":8,"out_sx":64,"out_sy":128,"layer_type":"conv","l1_decay_mul":0,"l2_decay_mul":1,"pad":2,"filters":[{"sx":5,"sy":5,"depth":3,"w":{"0":0.20803078024078478,"1":0.08373123331879102,"2":-0.08940016827681528,"3":0.04813486234566377,"4":0.07015928549325104,"5":-0.11965890463922398,"6":-0.22650542927735856,"7":-0.09789493926182513,"8":-0.07795698717396787,"9":-0.031510128222931644,"10":-0.20151709351430977,"11":0.10418275624623521,"12":0.02252419936593537,"13":0.09877156073488479,"14":0.06184185262094111,"15":-0.0011758066906681574,"16":0.08608975806210419,"17":-0.1906640766169827,"18":0.02414818055833114,"19":0.006953743064351887,"20":-0.04269666834773869,"21":0.07469889017085504,"22":-0.12424043972528896,"23":-0.06952197094143923,"24":0.23993565981433543,"25":0.083595922485144,"26":0.02427329817307875,"27":0.1607500173113161,"28":0.07456233500579368,"29":0.17491345005612466,"30":0.0467059993305501,"31":-0.001407833182609706,"32":-0.010097344412353448,"33":-0.1691466892639547,"34":-0.05577206004561201,"35":-0.02251945639137789,"36":0.010476298107450209,"37":-0.13430439370374628,"38":-0.12892837824946526,"39":0.03658592945266579,"40":0.018740544888415075,"41":-0.08704055218437566,"42":0.256975756742242,"43":0.06875570662468443,"44":0.06854790654815456,"45":-0.14717959586410045,"46":-0.05452495989253098,"47":-0.24514315509466808,"48":-0.10272043903720102,"49":-0.15907524834475534,"50":-0.1369036461029238,"51":-0.028867875664524492,"52":-0.13731733702327065,"53":-0.20110025060553732,"54":-0.09559927100284764,"55":-0.034051050180472386,"56":-0.2180602986206379,"57":0.018041074154203075,"58":-0.047510175123012255,"59":0.014285390296995012,"60":-0.24477054022077196,"61":-0.2462374037142543,"62":-0.2674992274644956,"63":-0.015517406295124728,"64":-0.2131393407878776,"65":-0.11526797024975964,"66":-0.08859148234747734,"67":-0.2905323476452253,"68":-0.16293830377878174,"69":-0.1454880113643134,"70":-0.08708384018823696,"71":-0.18187011314120433,"72":-0.10922002285151736,"73":0.037191364623275595,"74":0.07272616024224318}},{"sx":5,"sy":5,"depth":3,"w":{"0":0.2053433374648024,"1":-0.17698064168614425,"2":0.20732193619886355,"3":0.06294682634985584,"4":0.14488957285624843,"5":0.002757417422420007,"6":-0.03956818948016336,"7":-0.18100454575104372,"8":-0.04500877669325072,"9":0.1568762298582306,"10":0.17946028727924868,"11":0.06521992604002015,"12":0.10391411687428535,"13":0.03962066328750102,"14":0.13309106900758308,"15":-0.042811509634518144,"16":-0.035584665325604684,"17":0.12429690469721988,"18":-0.1298817364132263,"19":-0.06224695426688226,"20":0.016721750135775572,"21":0.22070580330034623,"22":0.1738839231344835,"23":0.05367531315171251,"24":0.23532506578019743,"25":-0.034843862285720055,"26":0.245938276930015,"27":0.1324669994071483,"28":-0.023278890920280616,"29":0.20613106839803463,"30":-0.2172915883054435,"31":-0.0859343684266687,"32":0.04986788830004203,"33":0.05450513416994314,"34":-0.0511874902859818,"35":0.1709160563342371,"36":0.010481330929153463,"37":-0.0844813802755286,"38":0.1397269216831003,"39":0.16886597865965103,"40":0.06987366702216129,"41":0.0028455878496401418,"42":0.006497309265899712,"43":0.05715918461315731,"44":0.23453621523932852,"45":-0.3623687808661701,"46":-0.3564102748443722,"47":-0.21937275827756372,"48":-0.14035066516826025,"49":-0.25638958029977554,"50":-0.3430890632224187,"51":0.06645221940302792,"52":0.02812173653145033,"53":-0.0874982086236034,"54":-0.02967745303508952,"55":0.03657826778859742,"56":0.10835111589554704,"57":-0.08007891137799127,"58":0.26961231231558475,"59":-0.1106305354554909,"60":-0.2797157887684935,"61":-0.2710445030873462,"62":-0.1606688073710207,"63":-0.13687418776873517,"64":0.02736773253601147,"65":-0.3674735678758265,"66":0.044462876419547895,"67":-0.14937969524669295,"68":-0.1345315930945487,"69":0.1814756099871676,"70":-0.10380360531967679,"71":-0.08481226419711214,"72":0.14330331781305877,"73":0.186875249797611,"74":0.10745242105679617}},{"sx":5,"sy":5,"depth":3,"w":{"0":0.028474290332050203,"1":-0.017333730910050995,"2":0.31448056674062463,"3":0.1525426455534977,"4":0.12661565749994474,"5":0.02221979436922623,"6":0.15198082952049846,"7":0.15435674624156392,"8":0.10277559346080231,"9":0.30358831074868253,"10":0.038905341716665626,"11":0.19151070448917845,"12":0.257980257103203,"13":0.006878214601996426,"14":0.11301566152979516,"15":0.03475035802166624,"16":0.2775980512436362,"17":0.5045259962023066,"18":0.2798563489196458,"19":0.3164465978245494,"20":0.48552915672063307,"21":0.3145867838921379,"22":0.30046821456008027,"23":0.23650661662738723,"24":0.21370749666599817,"25":0.12035367549183325,"26":0.31879062149268605,"27":0.05385712381158571,"28":0.20997992370475624,"29":0.2477455118380079,"30":-0.08329059788209184,"31":-0.03867126795213455,"32":-0.04167689383626641,"33":-0.12388824545552055,"34":-0.0031994781295439697,"35":0.02358740016216546,"36":0.05021837759692467,"37":-0.03553433761460859,"38":0.07245521180496019,"39":-0.021460569045230003,"40":0.0761747040997173,"41":-0.01981442192835326,"42":0.1896257005098909,"43":0.12993008445056042,"44":0.15678834775519523,"45":-0.18045686490216994,"46":-0.17487450816741607,"47":-0.29165314716209023,"48":0.040420270861025925,"49":-0.11771273047703239,"50":-0.24150698966655937,"51":0.142754180126789,"52":0.11298637200627508,"53":-0.04584073663874422,"54":0.008115236688418515,"55":0.050656405113851645,"56":-0.06963361356815757,"57":0.08104295761173105,"58":-0.023146467599767455,"59":0.15798064391068473,"60":-0.09501600028862019,"61":-0.22643656359262365,"62":-0.21810745811854515,"63":0.017663347640725323,"64":-0.11982654943022508,"65":-0.14563522451109343,"66":-0.07416460924205805,"67":-0.17234977113471414,"68":-0.12550680730498764,"69":-0.24747153490746454,"70":0.05589407749201374,"71":0.16436264474823006,"72":-0.016723692263621692,"73":-0.026339566426644603,"74":-0.052982457527470044}},{"sx":5,"sy":5,"depth":3,"w":{"0":-0.4340591539172966,"1":-0.35626378900464173,"2":-0.42736303962590094,"3":-0.4597233959492388,"4":-0.6657380133498673,"5":-0.558535892217932,"6":-0.6221013884517705,"7":-0.37109353510027243,"8":-0.34142425723139563,"9":-0.2504205213728899,"10":-0.10365955261073449,"11":-0.11479683205725655,"12":-0.09568282518140402,"13":-0.09818922101091354,"14":-0.12072913748781351,"15":-0.5570947946875224,"16":-0.2451491245103707,"17":-0.500635459171412,"18":-0.08852365131587195,"19":-0.21895418508247771,"20":-0.3316535119630737,"21":-0.20692622003161126,"22":-0.2035138202022036,"23":-0.28624420865369216,"24":0.0713489717555066,"25":-0.16304253021676274,"26":-0.2840315308374609,"27":0.08556352457346912,"28":0.04464478224133458,"29":-0.12140270827094742,"30":-0.2840950307712354,"31":-0.10643803853415926,"32":-0.06223975361244939,"33":-0.2515234953072371,"34":-0.30074206394282516,"35":-0.09032612293636957,"36":-0.2304838725820146,"37":-0.08820545055625127,"38":0.028457234566658277,"39":-0.08560117837752305,"40":-0.0005492809819361787,"41":-0.00949431734931595,"42":-0.04515897304436249,"43":0.14701725800102888,"44":0.13992999974764228,"45":-0.12406040685727719,"46":0.07207945195707005,"47":-0.041994342974029875,"48":0.08990706982878835,"49":0.14849546755538787,"50":-0.008289481085030996,"51":0.057830100100487204,"52":0.03906460191357198,"53":0.03749758098583079,"54":0.236705814758106,"55":0.14702511521417191,"56":0.31446355046188385,"57":0.1309941055843659,"58":0.11725488719588564,"59":0.08934204010174002,"60":-0.10629994857943667,"61":0.23427872466593674,"62":0.03488184751257961,"63":0.12834157429464033,"64":0.17716160900213407,"65":0.1441358149645017,"66":0.22419541659448963,"67":0.0905010266633846,"68":0.10544539588642156,"69":0.016618869503724237,"70":0.06555487940988838,"71":0.12022600923094759,"72":0.17663162074156896,"73":0.1873916088352191,"74":0.114549645338971}},{"sx":5,"sy":5,"depth":3,"w":{"0":0.02105021886555723,"1":-0.15914292408094882,"2":-0.11347992466318015,"3":-0.09570941972808832,"4":-0.19945030341286343,"5":-0.15679485130637041,"6":-0.2140233488215495,"7":-0.03331886286789492,"8":0.08159452997168197,"9":-0.1910872727049397,"10":-0.010196455603399504,"11":0.00012965642194566135,"12":0.07835353323877196,"13":0.14442341157372732,"14":0.13787191033632235,"15":-0.11904182480013888,"16":0.13333277774960342,"17":0.07869486015192258,"18":-0.21464295028173325,"19":-0.25999558654635524,"20":-0.23916686165674655,"21":-0.06954468424458744,"22":-0.06818542184251372,"23":-0.06093780094251734,"24":0.016258349875748618,"25":0.10795348818937789,"26":0.12602947693484,"27":0.2150834690562245,"28":0.18789290601140465,"29":0.15616891338369596,"30":-0.13798235594352695,"31":-0.0691563148768977,"32":-0.19401232689537135,"33":-0.28448903838139467,"34":-0.20784342102721948,"35":-0.10944515759925187,"36":-0.22574454164864016,"37":-0.16909911242610884,"38":-0.26186057393237966,"39":-0.022145703254974097,"40":0.027402921466434492,"41":-0.059807354629370944,"42":0.05807032555012116,"43":-0.053205434696431714,"44":0.16319066410049665,"45":-0.12119585006671674,"46":-0.12061420958441145,"47":0.036139926368751685,"48":-0.01058844360257421,"49":-0.1451656175328726,"50":0.0894532359492348,"51":-0.07342385145262663,"52":0.05788066402545876,"53":0.0029980487663336494,"54":-0.1655350952129356,"55":-0.006278180637252466,"56":0.06738173927002687,"57":0.19250183240122326,"58":0.10733594567543425,"59":0.1884652526640568,"60":0.020759227402679565,"61":0.10739501947505692,"62":0.005007183679652105,"63":-0.04227626403342602,"64":0.0972117913108673,"65":0.12639098045745656,"66":-0.11772619161670199,"67":0.01975757137061435,"68":-0.17082705890117666,"69":0.14060275666203936,"70":0.056394953121575504,"71":-0.011706871031099637,"72":-0.03200452128993997,"73":0.043440191297719186,"74":0.20090712361262889}},{"sx":5,"sy":5,"depth":3,"w":{"0":0.015231942159177662,"1":-0.15635311782484995,"2":-0.23057227799559926,"3":-0.005606977534229502,"4":-0.08431603761594708,"5":-0.17336044292193364,"6":-0.10562454315185237,"7":-0.12744215662460737,"8":-0.12274833107867161,"9":0.1056569977970053,"10":-0.08400602423555324,"11":0.028977181098978122,"12":-0.012822640117138375,"13":0.04027969604211163,"14":-0.0956307255982229,"15":-0.1552745665825402,"16":-0.31432687827830763,"17":0.06385173195794899,"18":-0.07178828006653346,"19":-0.24671894359154914,"20":-0.23263023139986402,"21":-0.28226589808865854,"22":-0.303956450749765,"23":-0.07179480152203466,"24":0.0002576435081491461,"25":-0.08802462100611347,"26":-0.17987576266428273,"27":-0.007857990425437895,"28":0.0349963870473155,"29":-0.04912401486632392,"30":-0.13574696893979443,"31":-0.19802587212165454,"32":-0.19913049273162217,"33":-0.17016223451867168,"34":-0.18355769197304247,"35":-0.18151296468009676,"36":-0.08665397485492307,"37":-0.22337605630071997,"38":-0.16607515911685902,"39":-0.08200295211268814,"40":-0.167978230990022,"41":-0.1707750315640449,"42":-0.15155790976986722,"43":-0.17611986188763357,"44":-0.02559186144524735,"45":-0.191783041986915,"46":-0.27585863944868677,"47":-0.2110177499865064,"48":-0.14663317937634995,"49":-0.25645747511394085,"50":-0.40043174052911484,"51":-0.25366340194653764,"52":-0.3247534943268411,"53":-0.14071601748927728,"54":-0.3047580376943619,"55":-0.09452523198060087,"56":-0.011458556240585439,"57":-0.3087479411905291,"58":-0.05863418352374499,"59":-0.23802787596041555,"60":-0.1792352963768735,"61":-0.2129511009770462,"62":-0.08065769466499277,"63":-0.12653076252814377,"64":-0.17142275012371763,"65":-0.27692964987801777,"66":-0.13124629969421933,"67":-0.2957039367010158,"68":-0.24280890376005573,"69":-0.1909587169390629,"70":-0.1772890852555452,"71":-0.11559773783185041,"72":-0.047853078411517556,"73":-0.0073346957723860184,"74":-0.09305355257981579}},{"sx":5,"sy":5,"depth":3,"w":{"0":-0.17308654636268958,"1":-0.24133017454918151,"2":-0.30906224155064893,"3":-0.4662616967381687,"4":-0.12701837905233151,"5":-0.3403121590266552,"6":-0.21247846390662542,"7":-0.3430038083546056,"8":-0.11636253487866102,"9":-0.1704114668867682,"10":-0.012851510842104742,"11":-0.27948299940934196,"12":-0.08355723138812443,"13":-0.17542502716547614,"14":-0.07485783555655509,"15":-0.1855696341491547,"16":-0.02600229904226612,"17":0.02091424934072872,"18":-0.23158486827824504,"19":-0.1819582154568208,"20":-0.26503199006586586,"21":-0.16473498124366218,"22":-0.05823666464613986,"23":-0.32210647582224594,"24":-0.3327978209879874,"25":-0.2146700404245864,"26":-0.23235416534438513,"27":0.06880735216223573,"28":-0.21917119930468745,"29":-0.19712727824384835,"30":-0.226443768685221,"31":-0.21156224596096726,"32":-0.09245582526033852,"33":-0.24440943110396138,"34":-0.22276006715384916,"35":-0.09972784279017205,"36":-0.10860303891517205,"37":0.06645375654184639,"38":-0.28056368413245114,"39":-0.15806798780900397,"40":-0.18301421936919465,"41":-0.20838587416351953,"42":-0.04583634947193,"43":-0.013582578333818379,"44":0.10311663304272285,"45":-0.2933297321124651,"46":-0.10131911116470994,"47":-0.03380985288395024,"48":-0.07440497898618732,"49":-0.20738648438147098,"50":-0.2574219448853339,"51":0.018384385014063052,"52":0.04434720577954349,"53":-0.14458639448668437,"54":0.022194606918679843,"55":0.13114955572920384,"56":0.12963868384023283,"57":0.11983942564428252,"58":0.05341955421504716,"59":0.21648028336760383,"60":-0.15758975156787766,"61":-0.06014291407144715,"62":0.07620215202364423,"63":-0.0433450551430738,"64":0.04603250796408253,"65":0.1039151968137931,"66":-0.15966883628273698,"67":0.016806412348494205,"68":-0.21983901281142482,"69":0.17038575123246374,"70":0.21454108133251779,"71":0.14079684624006644,"72":0.20661381427744135,"73":0.09528071214221483,"74":0.252639096286681}},{"sx":5,"sy":5,"depth":3,"w":{"0":-0.26989250374651275,"1":-0.2136672549817324,"2":-0.23727379618339045,"3":-0.09434666917517577,"4":0.021779928099399673,"5":-0.171755742680275,"6":-0.15782599530963376,"7":0.037588682476783104,"8":-0.07176766621532704,"9":-0.015047111664847694,"10":0.0101691630193849,"11":0.015406111010132116,"12":0.17700194912773828,"13":0.00838241511519678,"14":-0.011638410949344667,"15":-0.26454975153273985,"16":-0.15815839562021683,"17":-0.06789705507075672,"18":-0.08049849403701538,"19":0.024135212442214643,"20":-0.08590663131356717,"21":-0.25985717461693597,"22":-0.17236840317736407,"23":-0.015302715665436048,"24":-0.17579359675382347,"25":-0.02154487058334806,"26":0.0143374198398238,"27":0.15573734193121164,"28":-0.10511485336213035,"29":0.03365463639622093,"30":0.010432027913693907,"31":-0.046438015590312534,"32":-0.21807748268159088,"33":-0.015278558308993865,"34":-0.05253528281730142,"35":-0.07770801942717309,"36":-0.15872754155740113,"37":-0.03944064095706021,"38":-0.11283997340452766,"39":-0.0016650869115171498,"40":-0.19777689615277086,"41":0.0998616197976833,"42":-0.1711444664488718,"43":0.02609106539447948,"44":-0.09717854856091764,"45":0.12132564128452814,"46":0.07767975350890052,"47":0.1675064176457663,"48":0.1453148973000236,"49":-0.03402565583350228,"50":-0.06183647854894376,"51":0.22682008204471302,"52":0.1308269628208818,"53":0.2057378623858645,"54":0.0970993654953438,"55":0.10747047710930387,"56":0.20228848252908607,"57":0.022163943181029332,"58":0.1670487536566793,"59":0.2653432267554691,"60":0.17107896342223705,"61":0.12087627182602163,"62":-0.1871412030998437,"63":0.25005909600017723,"64":-0.040106731243945426,"65":0.08893211821347233,"66":-0.010028006857910847,"67":0.031938488599141564,"68":0.15514681828673138,"69":0.02091780840159179,"70":0.04639497408684026,"71":0.0453659154238582,"72":0.1389800161892707,"73":-0.03484560575374086,"74":0.0759462919482686}}],"biases":{"sx":1,"sy":1,"depth":8,"w":{"0":-0.14137870871308775,"1":-0.05878441401688209,"2":-0.11012458525202237,"3":-0.0017158470969910419,"4":0.05933592718026132,"5":0.1054925015347391,"6":0.136725839152287,"7":-0.0003164737785673235}}},{"out_depth":8,"out_sx":64,"out_sy":128,"layer_type":"relu"},{"sx":2,"sy":2,"stride":2,"in_depth":8,"out_depth":8,"out_sx":32,"out_sy":64,"layer_type":"pool","pad":0},{"sx":5,"sy":5,"stride":1,"in_depth":8,"out_depth":8,"out_sx":32,"out_sy":64,"layer_type":"conv","l1_decay_mul":0,"l2_decay_mul":1,"pad":2,"filters":[{"sx":5,"sy":5,"depth":8,"w":{"0":0.013926029140537038,"1":-0.111921421235624,"2":-0.1416023870820447,"3":-0.0954607387948641,"4":-0.2278519462216846,"5":-0.07470815346047398,"6":-0.20410520399093116,"7":-0.047311312267508794,"8":0.17409440589890615,"9":-0.0939439528675449,"10":-0.011707451551037178,"11":-0.12621709104269271,"12":-0.16178790386160888,"13":0.037322675952249786,"14":0.05720600323741338,"15":-0.1402285061299792,"16":-0.030645498451579396,"17":0.12347616936730062,"18":-0.006274334380379098,"19":-0.06015505968229643,"20":-0.08590153010107747,"21":0.1153636736186521,"22":0.022476863932175475,"23":-0.14487827186397134,"24":-0.005415890859922278,"25":0.18527704921690205,"26":0.05490095737436594,"27":-0.12336016935351979,"28":0.04312742474873,"29":0.03969642755276134,"30":0.053960432306380535,"31":-0.07264996720758789,"32":-0.18423722031206763,"33":0.04613949501017794,"34":-0.056705429826738464,"35":-0.21949910539039763,"36":-0.15727233415271005,"37":0.033165734526251114,"38":-0.11895184918425045,"39":-0.0783652106325419,"40":-0.0891941031912426,"41":0.029809885900205797,"42":-0.06260705175316446,"43":-0.10063698546910876,"44":-0.17569065787727026,"45":0.19362798916708054,"46":-0.028109259039138575,"47":-0.15163502031110582,"48":0.2004632911655935,"49":0.06382269673160648,"50":0.25318769335213226,"51":0.047929808604439114,"52":0.0555674743688262,"53":0.14769680807745247,"54":-0.07820400798289766,"55":-0.06377186904178594,"56":0.17134527784723885,"57":0.1357271840289195,"58":0.05542595774004469,"59":0.021967597052871837,"60":0.04589473704422612,"61":0.030978484375026857,"62":0.11831938480519458,"63":-0.01635065827848601,"64":0.009565277968535721,"65":0.3957969239124895,"66":0.07020651183026236,"67":-0.07401614141763502,"68":0.1462664434034452,"69":-0.04915201188467669,"70":-0.1470995748480605,"71":-0.08266131521535094,"72":-0.23223200896855156,"73":0.026159198915035438,"74":-0.10675930724476826,"75":-0.11335311071810066,"76":-0.016560280103726524,"77":-0.0736547778814401,"78":0.05268364198325187,"79":0.06335278237123543,"80":-0.0886067193032905,"81":-0.014209807276403917,"82":-0.315416490294569,"83":0.01039259881744155,"84":0.015774341874494082,"85":0.05689180707980361,"86":0.02669154432864751,"87":0.0973875322136264,"88":0.26479727186097424,"89":0.07916191557596265,"90":-0.19697194754849282,"91":0.2517335796243533,"92":0.2103166744960006,"93":0.3526453228428038,"94":0.12971967261402909,"95":-0.03799907663191561,"96":0.07696088863928717,"97":0.19467962400749378,"98":-0.15102795090206833,"99":0.16764800567313018,"100":0.2815595053598719,"101":0.23042682495785793,"102":0.08660664264938549,"103":0.06708582019342764,"104":-0.032625845979659514,"105":0.1600158137841587,"106":-0.11052724106731429,"107":-0.06819787029820712,"108":-0.03658865675568674,"109":0.11023436665427257,"110":-0.029934161276313518,"111":0.27647607313672434,"112":-0.19250762955258177,"113":-0.13856971570237617,"114":0.05145377931289758,"115":-0.11561759533951733,"116":-0.1472372704070079,"117":-0.07942661130366183,"118":-0.11796432785451122,"119":0.017041667551717495,"120":0.2262085187025953,"121":0.0024139053005523994,"122":0.08496006270095187,"123":-0.015483490203342694,"124":0.014392518784156079,"125":0.2477132037981943,"126":0.1440972590730973,"127":-0.015886714460780896,"128":0.11695361317191715,"129":0.14522299953442802,"130":0.04563624679365736,"131":0.22703477083322116,"132":0.08442726389296046,"133":0.12711354977901235,"134":0.17905849067058788,"135":0.07092191820511555,"136":0.13234111412997024,"137":0.0839498941964788,"138":-0.16017123662882912,"139":0.17656037656335855,"140":0.356198734792221,"141":0.05340271976556727,"142":0.046211149161078414,"143":0.030610378508272865,"144":0.07455515428648103,"145":0.07944387251211953,"146":0.05957978822754452,"147":-0.035226971650667176,"148":-0.012327906372852759,"149":-0.07517498985911802,"150":-0.08838791706651954,"151":0.13833695661018225,"152":-0.04427822058932889,"153":-0.0026073066831992803,"154":0.08641062250478937,"155":-0.05160729320613342,"156":-0.1583374256362273,"157":-0.04724893214396266,"158":-0.2412825939925014,"159":-0.10445614154593925,"160":-0.24258666595557585,"161":-0.13876876668206925,"162":-0.04286729917794623,"163":0.020045147530629054,"164":-0.03633538350187542,"165":-0.14975751782178026,"166":0.07344004401328283,"167":0.03071147602355045,"168":-0.1331101069823339,"169":0.03570105797626675,"170":-0.16976573526765604,"171":0.14789407650988368,"172":-0.15114619343983882,"173":-0.0052540584950361196,"174":0.15030532707022615,"175":0.22350018162793847,"176":-0.07148216549675541,"177":-0.1811466163685647,"178":-0.06725913253994042,"179":0.22769883593634976,"180":0.05904402669484743,"181":-0.14406131025954808,"182":0.022033054995473096,"183":0.16738672930003906,"184":-0.2134165916833969,"185":-0.059568253227222354,"186":-0.026225505128277708,"187":-0.062431434211044565,"188":-0.12711657553529915,"189":-0.0005966237296314406,"190":-0.12490154177781752,"191":0.1630875656053833,"192":-0.08853345705812865,"193":-0.2847703814303475,"194":-0.018854813808342294,"195":-0.19166131971715952,"196":-0.16113490401227218,"197":-0.00556414332221302,"198":-0.05679099522875038,"199":0.20144202582038342}},{"sx":5,"sy":5,"depth":8,"w":{"0":-0.09410115325792126,"1":-0.2786533705951657,"2":-0.2380622010760454,"3":-0.2540404563327369,"4":-0.17864771900984291,"5":-0.2085784561720815,"6":-0.2928030831060379,"7":-0.1640762091442269,"8":0.1092659926640792,"9":-0.3024028400222573,"10":-0.15793831773826264,"11":-0.1302299909602666,"12":-0.07828998399755117,"13":0.036354751398300696,"14":-0.06276149285533357,"15":-0.17221818189061305,"16":0.13116639622088908,"17":0.03935918389052577,"18":-0.0006135659464681446,"19":-0.10567813681405779,"20":-0.038322082751341864,"21":0.09431251217927568,"22":-0.09726268893992163,"23":-0.040944696911805904,"24":-0.05953560502135797,"25":-0.013319630310006395,"26":-0.05310247706800758,"27":0.07014502699909868,"28":-0.07659636357034144,"29":0.06254610356271935,"30":0.10114453610469706,"31":-0.02338328226054973,"32":0.09310923403245516,"33":-0.14186998448198446,"34":-0.11359103044503603,"35":0.18900559744264267,"36":-0.11647830176657957,"37":0.10157036114793344,"38":0.05759590489718711,"39":-0.035712004238645664,"40":-0.0853760142410463,"41":-0.03905429662051789,"42":-0.1408298480346111,"43":-0.14274250326946725,"44":-0.17097608301348263,"45":-0.20367484306079336,"46":-0.1651804171653287,"47":-0.002347721230035126,"48":-0.08544130445743087,"49":-0.22347138810836226,"50":-0.21621813572800203,"51":-0.10339966387218785,"52":-0.09286787163291536,"53":0.0695803820647847,"54":0.023276866214491366,"55":0.004162315564493466,"56":0.023835669515249777,"57":0.03861866130583808,"58":-0.07966556093205333,"59":0.15089170574753977,"60":0.0638514156267418,"61":0.013527529087183847,"62":0.005313964591104119,"63":0.13792790413891606,"64":-0.0002688474242864748,"65":-0.005486271869945985,"66":-0.15803758616651895,"67":0.042282357232817945,"68":0.07865788509283178,"69":-0.09646737010678232,"70":0.130460092402196,"71":0.048526859958100466,"72":0.042606008830592075,"73":0.09260667033769503,"74":-0.12596065326212608,"75":0.09556237320594449,"76":0.09577944022980871,"77":0.05903858858745974,"78":0.22093366122019764,"79":0.19678468886786746,"80":-0.035948860442125634,"81":-0.20715284830184072,"82":-0.053072512433723844,"83":-0.16483886389883567,"84":-0.17195590944719114,"85":-0.12435526845733717,"86":-0.10088859252751534,"87":0.15501758695658022,"88":-0.10620165531501645,"89":-0.01761679501966691,"90":-0.20133623881750426,"91":-0.020847093311300774,"92":-0.06954664010203619,"93":-0.03460265367856429,"94":0.048685748074298804,"95":0.2042777166559213,"96":0.0025939228943110022,"97":0.23805626555475942,"98":0.024279425051672562,"99":0.18567613784066062,"100":0.12706170789987972,"101":0.1599050205534442,"102":0.08133631780852317,"103":0.32203558721238995,"104":-0.09951145457233843,"105":-0.11319206019781167,"106":-0.023338972342470607,"107":0.18847328007318723,"108":0.0015331699981756307,"109":0.027636627592941766,"110":0.009055305450125069,"111":0.16349016314337475,"112":-0.08912000735163152,"113":-0.2061830321607542,"114":-0.19899763773469825,"115":0.005379860086692465,"116":0.058329272960800364,"117":-0.17843923705792594,"118":-0.18404747097269228,"119":0.08983314545783312,"120":-0.07638730889727757,"121":-0.003551979079134531,"122":0.1848119956854266,"123":-0.13851124075873258,"124":-0.12679467674344547,"125":0.028724696650361255,"126":-0.1269268862415119,"127":-0.08325366616935283,"128":0.11780005590972274,"129":0.016378089427323477,"130":0.052419620021618714,"131":-0.07971583722389637,"132":0.01900608647796987,"133":0.09188965689224662,"134":-0.12165055135129148,"135":-0.11837725614235892,"136":0.0338071985815689,"137":0.16380489908493678,"138":0.23606055619306748,"139":-0.007318172604212275,"140":-0.0949045865744527,"141":-0.05898263803014021,"142":-0.15338875971023758,"143":0.0464049283466053,"144":0.012176345494977288,"145":-0.09897438164341041,"146":0.15259805057350942,"147":-0.1118234139440687,"148":0.049093195717778995,"149":-0.10023583451987923,"150":-0.057780628560702416,"151":-0.0005598200307313532,"152":-0.039582843237112544,"153":-0.11655109266471166,"154":-0.020997845726553412,"155":-0.07665204586731414,"156":0.10599048568490921,"157":-0.04492811749532697,"158":-0.12307403533755591,"159":0.10462324550658461,"160":-0.08535490792148738,"161":-0.07050385290014022,"162":0.016899012854052486,"163":-0.013633323089549117,"164":0.019447654170947428,"165":-0.07231634238748597,"166":-0.008312403227362623,"167":-0.00670357697682009,"168":-0.06238068444047086,"169":0.042704377858403225,"170":0.19432625323196173,"171":0.020968368610588477,"172":-0.038995084636321856,"173":-0.09649710832557774,"174":-0.12170628652279777,"175":0.05003334341487209,"176":0.009797997906569555,"177":0.13811944267825668,"178":0.3388856765656478,"179":-0.028116188760718346,"180":0.061057452425942904,"181":-0.030693391511259233,"182":-0.19992011681909683,"183":0.07090953644245317,"184":0.07059763116486814,"185":0.01897743302680662,"186":0.2809637516144062,"187":-0.21452109113986745,"188":-0.1833142521008559,"189":-0.06105372309639092,"190":-0.11010446492799597,"191":-0.12310781983252632,"192":0.057989706051907376,"193":-0.09274643956807938,"194":0.145620547586619,"195":-0.035192336022559376,"196":0.08047004881516007,"197":-0.006661376828548792,"198":-0.14987185725273278,"199":-0.19793568577855994}},{"sx":5,"sy":5,"depth":8,"w":{"0":-0.01650974796831935,"1":-0.05761655350500127,"2":-0.04389260841343449,"3":-0.0282658008198126,"4":0.016648112176610996,"5":-0.13318608108366062,"6":-0.011337384304030397,"7":-0.043125264753841736,"8":-0.0781403477119455,"9":-0.19007393956498345,"10":-0.0267480749931462,"11":-0.15272008952746272,"12":-0.08323236255167908,"13":-0.09052350289114983,"14":-0.19562569562972468,"15":-0.09332007399358161,"16":-0.06118075785758803,"17":-0.12699711842894398,"18":-0.19850365579591048,"19":-0.015900114224079415,"20":0.011013143401460293,"21":-0.10225141765268343,"22":-0.13138480743826209,"23":-0.0018893052683391083,"24":0.0024411656824254264,"25":0.009443381437482586,"26":-0.1445828086068491,"27":-0.21315519352434206,"28":-0.06967617804751279,"29":-0.11150479383560735,"30":-0.16177293579755866,"31":0.024684296489255082,"32":-0.023900511145981632,"33":-0.09348800283998068,"34":-0.08535594238482014,"35":-0.18648478351612002,"36":-0.007064870028732143,"37":-0.12182792149442512,"38":-0.18923298293694002,"39":0.1851075979539869,"40":-0.08091171256736754,"41":0.0006853834402745735,"42":0.06184915554176204,"43":-0.20902275899046124,"44":-0.047689714962907186,"45":-0.0204367710201417,"46":-0.23011480851870317,"47":-0.16385426819101231,"48":-0.11252220552017637,"49":-0.08512844544718624,"50":0.0032008373346197622,"51":-0.21683920184141697,"52":-0.12600154382878728,"53":-0.030332175212260733,"54":-0.08286600407740453,"55":-0.11425129951884135,"56":0.06419331385943361,"57":-0.08095942493407418,"58":-0.140636500099574,"59":0.00038118469785362657,"60":-0.018312972590616997,"61":-0.03358539724338203,"62":0.03227638841349852,"63":0.07695931863117257,"64":-0.02994547490136872,"65":0.03741572810235616,"66":-0.2585984446388783,"67":-0.10844041778292013,"68":0.020032834347283746,"69":-0.051585560740879007,"70":-0.06600062736811908,"71":0.2893397915737267,"72":-0.03273636999404481,"73":0.013346685535375123,"74":-0.08869936466150855,"75":-0.25189778197844487,"76":0.0009178507181709908,"77":-0.0017239492770514597,"78":-0.15961761485863768,"79":0.11949261317387423,"80":0.049636917152173124,"81":-0.10665654083733099,"82":-0.11112384417867513,"83":-0.11896777670910584,"84":-0.11408166580286186,"85":0.04168276787819001,"86":-0.05691445910277086,"87":0.05888721397568872,"88":-0.09975987956042007,"89":-0.025514880413756526,"90":0.017731794276126023,"91":-0.04233685525249884,"92":-0.005268671794272156,"93":-0.04824894290385323,"94":-0.05548603091209516,"95":-0.030948126053183592,"96":-0.01214993041126624,"97":0.0807944185514401,"98":-0.002475258463022326,"99":0.03177681782400144,"100":-0.04319616868156822,"101":0.09693582216854324,"102":-0.0011212872308572213,"103":0.029653647657741332,"104":-0.010367007836211273,"105":-0.05497834790825552,"106":0.06625698203373202,"107":0.03717050374356371,"108":0.0885929203179064,"109":0.08189796397122748,"110":-0.03209332241605351,"111":0.17598407007500222,"112":0.020426681356917595,"113":0.03378727686463955,"114":0.08189443810752371,"115":0.1525879618929185,"116":0.03114127495209863,"117":0.09652253626891255,"118":0.18506687679364894,"119":0.1414572315013593,"120":-0.043954203654810904,"121":-0.04134726204486554,"122":0.06205557991642647,"123":-0.06266757695896866,"124":-0.07454955512196994,"125":-0.06418761541389531,"126":-0.15646412787698774,"127":-0.0009873175850758132,"128":0.041282643459620065,"129":0.07622391845805061,"130":-0.008072207604602014,"131":0.045399590693680325,"132":0.04922141633215925,"133":-0.023487425758346944,"134":-0.06685773425914948,"135":0.1056669852417122,"136":-0.08793618454414412,"137":0.05612759427107106,"138":-0.015363800078392723,"139":0.016705610347136305,"140":-0.058945732390528686,"141":0.11895750632319693,"142":0.12349015577257966,"143":-0.07496582576620467,"144":-0.11043302011037753,"145":-0.02077690930033329,"146":0.0897493071142137,"147":0.1728282138273147,"148":0.019684080992308232,"149":-0.01245818480787888,"150":0.1746230438725646,"151":0.017174547196256648,"152":-0.011151204648546272,"153":0.060118358439705984,"154":0.17768764837130063,"155":0.13775895991355122,"156":0.023713753002091387,"157":0.07428162954203228,"158":0.06806540032762552,"159":0.09364947227082172,"160":-0.06559165006305656,"161":-0.030731154706560855,"162":-0.15490396251749272,"163":-0.08922237717621526,"164":0.01542047925057829,"165":-0.018592329842641805,"166":-0.014294317458027526,"167":-0.05512601585839963,"168":-0.05502538133852216,"169":0.029248758823161705,"170":0.008427048771508542,"171":0.01528729761906557,"172":0.07435064827403554,"173":0.11754190648888312,"174":-0.12801890216471948,"175":-0.047909730975475975,"176":0.00088383079501448,"177":0.023756835528577325,"178":0.12291329037091402,"179":0.0716641747350603,"180":0.11192606909603434,"181":-0.009482245821400693,"182":0.04380154400336669,"183":0.07404919915189216,"184":-0.021818294292746575,"185":0.11209734504512102,"186":0.2127006319779059,"187":0.0481448240832182,"188":-0.06988561899315311,"189":-0.028746813469091897,"190":-0.07902200241369191,"191":0.06409137766122777,"192":0.03466772943875621,"193":0.17392303650582197,"194":0.29485107181853926,"195":0.023645043821121304,"196":-0.06341937427339772,"197":-0.11353114056988582,"198":-0.0348102181478412,"199":0.001893628092595081}},{"sx":5,"sy":5,"depth":8,"w":{"0":-0.08864062249426656,"1":0.19045893125428878,"2":-0.03975387460968749,"3":-0.014148008736962855,"4":-0.026255837867751073,"5":-0.03796616996188603,"6":0.13198673181768555,"7":0.1431918040047316,"8":-0.16799519268763374,"9":-0.02621929272289505,"10":-0.019180607783617278,"11":-0.009493006795423968,"12":0.006588131030834599,"13":-0.11070230370655709,"14":-0.026523392166995233,"15":-0.03942592646897145,"16":-0.0064418106670965395,"17":0.033937294905467014,"18":0.06383955658642168,"19":0.024311861950444935,"20":0.04141101139766771,"21":0.09357208208450159,"22":-0.027694800213954856,"23":-0.03943858604232234,"24":-0.024060024015971234,"25":0.16239027735983572,"26":0.06634157080905552,"27":0.024506763975959318,"28":0.1013095458265231,"29":0.2547148633581859,"30":0.1464276259541705,"31":-0.008274236526859144,"32":0.062395555600869755,"33":0.06143388437151977,"34":0.08200122347473786,"35":0.3285097173299845,"36":0.1314035963353476,"37":0.36206797858126366,"38":0.19046373289898064,"39":0.10367440676893977,"40":0.03082111369410077,"41":0.06182206469605956,"42":0.06481409462182874,"43":-0.1425711218572116,"44":-0.14783467701433736,"45":-0.1293042203869146,"46":-0.15546006584393757,"47":-0.0019660112109245367,"48":0.011785099967100891,"49":-0.017751271523293432,"50":-0.02587894010005142,"51":-0.19639635175604836,"52":-0.11920219490716383,"53":-0.10792394662632011,"54":-0.08244900639018762,"55":-0.04981653555814777,"56":0.0370310294674411,"57":0.02823736293554669,"58":0.036948477189577944,"59":-0.15636507701341448,"60":-0.11517749137452932,"61":-0.08762803641335395,"62":0.018551768566531075,"63":0.05453434915621062,"64":0.0840452744034749,"65":-0.008065706598502852,"66":-0.08469438069910394,"67":0.021605096869517306,"68":0.11270820541293104,"69":0.0744464427325486,"70":0.06602958241880655,"71":-0.009234647790986948,"72":0.07622945057923523,"73":-0.03380830558546925,"74":-0.12080959771375868,"75":0.17241315708235447,"76":0.06525263960294844,"77":0.12012145700143846,"78":0.19750511021777353,"79":0.09452767647602525,"80":-0.18949640028186976,"81":0.028918563531869952,"82":-0.01204613121310642,"83":-0.29178313825375646,"84":-0.12956820301516994,"85":-0.16548197313262922,"86":-0.18940802311315194,"87":-0.09711603135377374,"88":0.050676794182741555,"89":0.02518769801852743,"90":-0.12151376417173157,"91":-0.0831370540717205,"92":-0.08037693982326206,"93":-0.15003616520523078,"94":-0.04755271621958547,"95":-0.015069440587695819,"96":0.071247567872325,"97":-0.12480304567549753,"98":-0.06784764605577688,"99":0.055525375173038294,"100":0.13400589661784804,"101":-0.06338570873695679,"102":0.06901293660024475,"103":0.10928844437118883,"104":-0.04608258493489209,"105":-0.03934032702528266,"106":-0.12389848682846365,"107":-0.03158788563607916,"108":0.19239927987611485,"109":0.008281171061287618,"110":0.11853496060998847,"111":0.09065329750560808,"112":-0.07428445908176921,"113":-0.18378465946214112,"114":-0.18499489443644615,"115":0.03631811129865352,"116":0.06909745154706208,"117":0.08702214906871589,"118":0.21465563705520485,"119":0.07057997513324024,"120":-0.07667783076155543,"121":-0.0915263314873448,"122":0.008337977374244892,"123":-0.0862186633630574,"124":-0.201481022835529,"125":-0.18537732705360835,"126":-0.13568224157709263,"127":-0.013735535923085905,"128":-0.04390379428912016,"129":-0.025455181832931478,"130":-0.14275709741549875,"131":-0.022059507612652685,"132":-0.12252167988816212,"133":-0.0832397377492011,"134":-0.17240850328021057,"135":0.017092380972412183,"136":-0.07610172367152142,"137":0.04359160023203659,"138":0.0081066866758323,"139":0.028934899782421353,"140":-0.09121581669107631,"141":-0.14495052218197066,"142":0.06635690571484881,"143":0.09066128274805535,"144":-0.04974281770222334,"145":-0.22076600927573603,"146":-0.025562612974541495,"147":-0.0629163958648497,"148":-0.02387881211725628,"149":0.01473795324053971,"150":-0.026314395041972923,"151":0.041977902943949506,"152":-0.0485612964573574,"153":0.029899416588473643,"154":-0.06952026835533254,"155":0.027880034731892184,"156":0.009012538505080896,"157":-0.04703188859208131,"158":0.10126240309092353,"159":0.10511181721556655,"160":-0.1778169590350203,"161":-0.18770728504744721,"162":0.030282191514659964,"163":-0.11987789525935441,"164":-0.1016387067443569,"165":-0.21707896906329685,"166":-0.22719518994019106,"167":-0.004195520612919668,"168":-0.13253914770614628,"169":-0.17030171379909606,"170":-0.039661596223963015,"171":-0.09100590339328636,"172":-0.16686890715801556,"173":-0.25126013329823216,"174":-0.28416696640711336,"175":-0.025284833487771285,"176":-0.14923139898075827,"177":-0.021135946389465973,"178":0.09379606294962672,"179":-0.08177699199880584,"180":-0.08500947380800775,"181":-0.12419655558908128,"182":-0.18993019358960037,"183":-0.10841162687964667,"184":-0.027881400580569784,"185":-0.07838043077725967,"186":-0.024792200126333912,"187":-0.09177875141803045,"188":-0.14948261215494055,"189":-0.042927804758252155,"190":-0.15399088266145308,"191":0.008560507236854361,"192":-0.06853664817944412,"193":-0.06935624178599369,"194":-0.019531527424966715,"195":-0.005436317791620921,"196":0.04869814259129166,"197":0.046784409228681836,"198":0.0030620444755904384,"199":-0.023523223256088636}},{"sx":5,"sy":5,"depth":8,"w":{"0":-0.03841822739397096,"1":-0.06797844347817407,"2":-0.017706355325197036,"3":-0.1506401958124027,"4":0.011196659751740341,"5":-0.11826151564790534,"6":0.003031517630450708,"7":-0.06845319439977336,"8":-0.06897730933624532,"9":-0.04715264407229199,"10":0.018852698811745658,"11":-0.18971977904840678,"12":-0.047999273881535735,"13":-0.009402526991605195,"14":-0.10463591985181457,"15":-0.034026107980961104,"16":0.0128794168700089,"17":0.04426428965650588,"18":-0.02303685385695565,"19":-0.16456597201548898,"20":0.016972149843845246,"21":0.03142709486811078,"22":0.06717500036977452,"23":-0.01051972017752813,"24":-0.05458858072466862,"25":0.16258429715735306,"26":-0.04762006438851237,"27":-0.049953938892566156,"28":0.19041213823358627,"29":-0.0047023462531584894,"30":0.08717486296050196,"31":0.0394851712552654,"32":0.00957890038909814,"33":0.26609081571719173,"34":0.08722252585856982,"35":0.08943874283592938,"36":0.18721322451729366,"37":-0.24324079263242987,"38":0.054536249228097806,"39":-0.025092734483716062,"40":-0.09214776447495596,"41":-0.12560072272590073,"42":-0.11469764385520367,"43":0.056883869216378155,"44":0.14205449435125145,"45":-0.019673848430065408,"46":0.1769233999710409,"47":0.13456696324869624,"48":-0.013123904604203433,"49":-0.13570723797812242,"50":-0.08150133555756273,"51":0.040636618459391975,"52":-0.000454881659639926,"53":-0.14774810705175243,"54":0.0847549147891923,"55":0.1613354602131713,"56":-0.001839085482229982,"57":-0.11561917084142,"58":-0.12060212995039346,"59":0.18224155760209695,"60":0.15060829251374122,"61":-0.17719289128009838,"62":0.06604764942421296,"63":0.13146561446631405,"64":0.023693097584451924,"65":-0.27259060871854623,"66":-0.1694139855731631,"67":0.16562389656528287,"68":0.10919903543152563,"69":-0.16438291763941668,"70":0.020078460916162423,"71":0.15747969216619292,"72":-0.10910812373328552,"73":-0.15574254778882227,"74":-0.057309525805504975,"75":0.08279142884356694,"76":-0.10469628731693682,"77":-0.20727821773702962,"78":-0.11453096512697207,"79":0.13798200180766224,"80":0.024503301757724784,"81":0.11613790927576893,"82":0.07966328421774996,"83":0.07092129116643213,"84":-0.083662085469976,"85":-0.21075237931542834,"86":-0.08741663986210273,"87":0.21339591364670463,"88":-0.006901243693547347,"89":0.12038700799736218,"90":0.043028392286917676,"91":0.049275553437265016,"92":-0.16073315586920647,"93":-0.1473619154177362,"94":-0.19868820578935148,"95":0.005993630373862195,"96":-0.02159245810286817,"97":0.05362425029364244,"98":0.16219528659105042,"99":-0.06756077668172601,"100":-0.05516059468557406,"101":-0.09082728447155394,"102":-0.17931475349492945,"103":-0.07623755937021968,"104":-0.09690440599974892,"105":0.13975897450497834,"106":0.056369653977106825,"107":0.105141228512874,"108":-0.13185640044309088,"109":-0.21606956304266606,"110":-0.18291560753547798,"111":0.021322101185848593,"112":-0.1161721725318708,"113":0.20511169161319476,"114":0.2103168770712193,"115":-0.04476736174232103,"116":-0.16178015018870454,"117":-0.10206593203385618,"118":-0.22987876325333512,"119":-0.05544813189003544,"120":0.031195783805152724,"121":-0.1321653046706872,"122":0.16457524612717098,"123":-0.034839695814467,"124":-0.15435063124500725,"125":-0.1757893840578939,"126":-0.016872327485697388,"127":-0.17222997687338729,"128":-0.024311035112159367,"129":-0.036170589316859805,"130":0.15035073001438756,"131":0.038156556947901085,"132":-0.0034897490364848255,"133":-0.04723371835459414,"134":-0.07237892180632868,"135":-0.23131975688268924,"136":-0.07506094480889478,"137":-0.1499804412132211,"138":0.0548140949211994,"139":0.039128738490440254,"140":-0.13157678902716985,"141":-0.09203166577492043,"142":-0.0598521263324833,"143":-0.223901258773255,"144":-0.09625357221159321,"145":-0.09987843222184833,"146":0.12709150899532567,"147":0.019192433082773207,"148":-0.05357628909728306,"149":-0.14860272439868602,"150":-0.11853273260354438,"151":-0.09204090752436271,"152":-0.0904545736789659,"153":-0.042753334168699586,"154":-0.11659474594679063,"155":0.035799253912101626,"156":-0.04695782617979151,"157":-0.11302538234621676,"158":0.03846751276441299,"159":-0.042112162563223796,"160":-0.04394898142951153,"161":-0.20891930933587646,"162":0.07355265956575747,"163":0.08126381423318288,"164":0.02574316567786934,"165":-0.06296137627653794,"166":0.045825383820722175,"167":0.10643787522069557,"168":-0.027321724984023348,"169":-0.21576163025510386,"170":-0.09352525347796772,"171":0.06845296923966399,"172":0.08410211855346943,"173":-0.10833947219002153,"174":-0.03378414079824177,"175":0.0668072455255746,"176":-0.04406417894892804,"177":-0.09651114490657517,"178":-0.12472770176202741,"179":0.07270395897388039,"180":-0.0004227262387051776,"181":-0.1205139625010466,"182":-0.03794593746164961,"183":0.1753544064341663,"184":-0.09045195994880599,"185":-0.32309737365898,"186":-0.13756962685572108,"187":0.14331613244059843,"188":0.08134096717760327,"189":-0.11785670871170119,"190":-0.007107226446433213,"191":0.1489148341844463,"192":-0.09089021514405951,"193":-0.07937331461994418,"194":-0.2758486415459364,"195":0.13911070213685223,"196":0.045656944347210925,"197":0.013455502299208026,"198":-0.022122061227631547,"199":0.15461115085500024}},{"sx":5,"sy":5,"depth":8,"w":{"0":-0.0021327876270821047,"1":0.02962604415234995,"2":0.07827555575818868,"3":-0.1190832138233616,"4":-0.0010171047340389297,"5":-0.10023212481758285,"6":0.01902586625075739,"7":0.01679652166791345,"8":0.0038204501729424746,"9":0.04357941480613669,"10":-0.08493851067667903,"11":0.017924633644546824,"12":0.08028325092097037,"13":-0.048718838842806374,"14":-0.020242359111618327,"15":0.18305167339086986,"16":-0.05221021990069634,"17":-0.06738772084291844,"18":-0.2964815911001121,"19":0.2528122951682694,"20":0.1569938659557038,"21":-0.016005099727071863,"22":0.03698937824962409,"23":0.14768463676807422,"24":-0.017831283573087862,"25":-0.2122919661710411,"26":-0.2607486521250227,"27":0.06300090899357837,"28":-0.01617444867407029,"29":0.08109084307844276,"30":0.053600111156802,"31":0.054004134661533094,"32":-0.10222465195602405,"33":-0.06499338556748521,"34":-0.20962668028615283,"35":0.1172170062846797,"36":0.2311244983173172,"37":0.09473035354105437,"38":0.03387446432951469,"39":-0.040144480685286345,"40":-0.12311903576638958,"41":-0.0622161983068836,"42":-0.04500248414177284,"43":-0.1144274787697174,"44":0.02827533903747796,"45":-0.08193721162625477,"46":-0.18431029573937133,"47":-0.020562275120609496,"48":0.09016227660278008,"49":-0.042836278235046356,"50":0.030689001262346072,"51":-0.06579988763819475,"52":-0.15553978833602933,"53":-0.03736402145982607,"54":-0.04226482438811452,"55":0.01322195777266988,"56":-0.04806707110810457,"57":0.030830419542940368,"58":0.07185466009169394,"59":-0.07290421859186212,"60":-0.16136310473373755,"61":-0.11376659610121763,"62":-0.13888042820078159,"63":0.009303842989627326,"64":-0.010436299340852818,"65":0.010302486601161731,"66":-0.018506239293261482,"67":-0.024390274707279728,"68":-0.25273335763481064,"69":-0.11993672070850477,"70":0.02396556333526665,"71":0.11284082504856556,"72":-0.012654630639261533,"73":0.1481941783368172,"74":0.09536381605134837,"75":0.12874321552638424,"76":-0.059279051815792926,"77":-0.000530567680528487,"78":0.029335983595860034,"79":0.00757392381407262,"80":-0.024056005194113758,"81":0.037320690492285896,"82":0.16493732352502613,"83":-0.0188918871422488,"84":-0.036481978965228604,"85":-0.1020817905170614,"86":-0.2303024151412674,"87":0.026784723390863106,"88":-0.1060586454615028,"89":0.07362420369556667,"90":0.0921912765140513,"91":-0.039565189452867834,"92":-0.13259731337228256,"93":-0.1049073582367694,"94":-0.250699304970633,"95":-0.10262897168631496,"96":-0.05796609981172288,"97":0.07062978510967241,"98":0.1558075147839592,"99":-0.11619795006479934,"100":-0.10145714489525952,"101":-0.023324702417266342,"102":-0.23107746937959875,"103":-0.17226356311306695,"104":0.13783953519960054,"105":0.21118805134696111,"106":0.24691664218928883,"107":-0.23073049401932685,"108":-0.16352007000366825,"109":-0.10315666429341476,"110":-0.23302327232996312,"111":-0.34347065732717247,"112":0.03252792898484784,"113":0.2134729011996925,"114":0.17759894771085716,"115":-0.215725049364902,"116":0.010198597575451092,"117":-0.12253923156306613,"118":-0.10071955306126178,"119":-0.26156947413225645,"120":-0.016998125704249408,"121":-0.19415470862886539,"122":0.01746453943125522,"123":-0.021156715288304446,"124":-0.02618611620349132,"125":-0.04199729413691245,"126":0.02069171027077118,"127":-0.048850746403453965,"128":0.05436135869045303,"129":-0.19456231402868987,"130":-0.031170897793156915,"131":0.011041010011530778,"132":0.06396998581292179,"133":-0.161558047288973,"134":0.025232216807252243,"135":0.013859198725712485,"136":0.09776180012980738,"137":-0.1459484925750937,"138":-0.10049237028383479,"139":0.1482466259419122,"140":0.12482699491335214,"141":0.0616020690196209,"142":-0.009546179955156582,"143":0.1472086924077361,"144":0.06335316613233226,"145":-0.2096457720875257,"146":-0.19641458978809895,"147":0.2722202278678787,"148":0.1743925907913905,"149":-0.046511595397295,"150":0.07747528373856942,"151":0.1414664689497392,"152":-0.013644238183683833,"153":-0.06470622062326596,"154":-0.031402302367763084,"155":0.05317694947088262,"156":0.22769287350849968,"157":-0.153332798178251,"158":-0.005818221018856304,"159":0.16722764244321758,"160":-0.05689096714260917,"161":-0.031204960873037972,"162":-0.15280241774537973,"163":0.0771475907462692,"164":0.04951178960361521,"165":-0.3002265385490315,"166":-0.061155610712430857,"167":0.08883591099741805,"168":-0.04523724182558939,"169":-0.007488209112597286,"170":-0.07759904705693108,"171":0.07658293744680293,"172":-0.12982763972707567,"173":-0.35080253837083514,"174":-0.004846605350152111,"175":0.14637698457411916,"176":-0.10601992053321231,"177":-0.2385221726994366,"178":-0.16154859782703546,"179":0.10449542928998613,"180":0.1390223107740624,"181":-0.12351600102662645,"182":-0.028940117442926943,"183":0.27324608943982326,"184":-0.07311863416620824,"185":-0.05783913772658405,"186":-0.07933978172761531,"187":0.11702075884830823,"188":0.03347030529924796,"189":-0.19862685746634065,"190":0.057375583480138936,"191":0.19335064718076622,"192":-0.10525858141185457,"193":-0.05207449241062621,"194":0.010552773856840416,"195":-0.03694298171458123,"196":0.07989452521947435,"197":-0.28376707023440617,"198":-0.21915076873626183,"199":0.17674342378465233}},{"sx":5,"sy":5,"depth":8,"w":{"0":0.011652497697605879,"1":-0.04182762099975042,"2":-0.012822917101797341,"3":-0.06489373558369667,"4":-0.0042519801255959154,"5":0.03919770567412216,"6":-0.013936074507241238,"7":0.019264605584448324,"8":-0.01764058550460412,"9":-0.028409183154612095,"10":-0.020602282458456224,"11":0.012809614884419552,"12":0.027503956385685993,"13":-0.10072668000683548,"14":-0.06042303658370389,"15":0.008230435722814552,"16":-0.0007220404413650382,"17":0.05868177157483113,"18":-0.08207508827221587,"19":-0.042234764598695296,"20":0.0006164712969503478,"21":-0.03144731596087884,"22":0.027193233031200217,"23":-0.016380704255687956,"24":-0.014664483490915498,"25":-0.07553194355133874,"26":-0.0141068609173178,"27":-0.02274015802999236,"28":-0.008866851534059566,"29":0.025383705048017107,"30":-0.0635011885904136,"31":0.02473250494222365,"32":0.05808263210899907,"33":0.022132123040108524,"34":-0.04389297567287286,"35":0.0010517042889886486,"36":0.002989738918918477,"37":0.03606306573054139,"38":-0.020222657093858093,"39":-0.01977119041070197,"40":0.010661912706057592,"41":0.06197889300133016,"42":-0.015093652078527565,"43":-0.028737645355992093,"44":-0.039874842539968855,"45":0.014953120686651354,"46":-0.008984876815424267,"47":0.052667447555421076,"48":-0.041049428041740124,"49":-0.0092046528434854,"50":-0.03995867354064681,"51":-0.04806599842557553,"52":-0.04493895437458022,"53":0.011045073784411346,"54":-0.017001819263855918,"55":-0.03119196757837856,"56":0.04140949688045499,"57":-0.013129973108580896,"58":-0.0015476804918450784,"59":0.02087893246004963,"60":-0.022264943554208515,"61":-0.0034127495202482287,"62":0.06370621196006042,"63":-0.00917602892623221,"64":-0.013883420397336673,"65":0.019439630322593108,"66":0.006104234874925913,"67":-0.05483254648148383,"68":0.02199138314879127,"69":-0.06226019527817996,"70":-0.039553754883166245,"71":0.021716872867120346,"72":-0.01904851213009109,"73":-0.05005751378665195,"74":-0.019272025170447248,"75":-0.012019639614608542,"76":-0.005557763267117743,"77":0.002215332077027192,"78":0.031981710686987914,"79":0.04903263025226433,"80":0.012775342973236058,"81":-0.02263278513889516,"82":-0.04332941395575087,"83":0.01229893214862221,"84":-0.005031831049158479,"85":-0.033449391712033136,"86":-0.021341264731871236,"87":-0.0027037144911104508,"88":-0.008640697010976714,"89":0.04825751269745741,"90":0.0010138445748814856,"91":-0.012626968620842977,"92":0.004813903702596779,"93":0.027317177583457593,"94":-0.02149844983488402,"95":-0.010558793991042745,"96":-0.0041577272834019165,"97":0.002132909955428488,"98":-0.00005548212831470865,"99":-0.029184864721316178,"100":-0.0018671080850302902,"101":-0.004076143552115208,"102":-0.02388072411082656,"103":-0.031855006353338135,"104":-0.010656138173281711,"105":-0.012526183515283932,"106":-0.048665009791168036,"107":-0.05632534406738167,"108":0.010166751605906039,"109":-0.033932446381276855,"110":-0.0236715983675873,"111":0.01071820600564103,"112":0.006022669540070222,"113":0.04734292017501102,"114":0.040293797976713994,"115":-0.004765173711902717,"116":-0.03923193458585218,"117":0.015593123654226743,"118":-0.027596407207778045,"119":-0.023368779078967672,"120":-0.012544098737250552,"121":0.011483013890338142,"122":0.011968082410902182,"123":-0.01885895034070599,"124":-0.01786763227740468,"125":0.0030690285623755304,"126":-0.03788619957800319,"127":-0.0023143015241773703,"128":-0.010523368589049916,"129":-0.07710877325056816,"130":-0.027139498357428047,"131":-0.009545626617078461,"132":0.008977258400310528,"133":0.006279958185115659,"134":-0.009251112919394951,"135":-0.01617595953293069,"136":-0.00754745905617345,"137":-0.000763363882494683,"138":0.005108227348558682,"139":0.047001276381009774,"140":0.024183315984771792,"141":-0.024184942281382377,"142":0.003689686680603807,"143":-0.04559023834368508,"144":-0.03545886537170054,"145":-0.006947944772606431,"146":-0.06682194740097824,"147":-0.029030598292878535,"148":0.006517009296078155,"149":0.003193602959766968,"150":-0.003596382997845437,"151":-0.02800229072073529,"152":-0.010247008546019287,"153":0.03865406837900476,"154":0.014937846475414835,"155":-0.08220842282525354,"156":-0.042953348541990496,"157":-0.03400467115886346,"158":-0.0012982927239870883,"159":0.027632607358024055,"160":-0.014344655610991202,"161":0.01798345053669039,"162":0.00976729286251622,"163":0.011701907039151646,"164":0.004191222872966565,"165":0.007885738773308625,"166":0.015082103289522558,"167":0.0028387003744928833,"168":-0.00940363381639079,"169":-0.03843456260216751,"170":-0.05121132069042988,"171":0.028300357433989325,"172":-0.0017258187583756902,"173":-0.023457117382260462,"174":0.0331458695270082,"175":-0.011689281346578375,"176":-0.01590780432683702,"177":-0.007033582190031429,"178":-0.0487003463044927,"179":0.034300314883654405,"180":-0.030717307823350644,"181":-0.044726584831067395,"182":-0.07556409639795028,"183":-0.02435679559114048,"184":-0.02784165768977939,"185":0.01865654062102794,"186":-0.018961590716279716,"187":-0.04360629025257368,"188":0.00708576084879035,"189":-0.03866326210212492,"190":-0.013127638562540334,"191":0.010013437524023406,"192":0.020455629783375045,"193":-0.014207290695998218,"194":0.013785633653665036,"195":-0.007980182199167638,"196":-0.040538935537754034,"197":-0.03958325372832237,"198":0.02824946217891628,"199":-0.037561503844566205}},{"sx":5,"sy":5,"depth":8,"w":{"0":-0.00004328871366277938,"1":-0.09379001916407002,"2":-0.06811466264240944,"3":-0.13293846589413882,"4":-0.038208588477743145,"5":0.13477258040954707,"6":-0.07910904548728583,"7":-0.17751302688179715,"8":0.17939924585591951,"9":0.003242425130694792,"10":-0.11042107832266498,"11":-0.11215019893949205,"12":-0.09090479678390807,"13":0.19156933100470505,"14":0.014448554139151932,"15":-0.09671616395688058,"16":0.13417026442049607,"17":0.040117294241437035,"18":0.04008961032836284,"19":0.06930832585051332,"20":-0.05629360677547238,"21":0.1930573621109762,"22":0.1449875357875755,"23":-0.18124148855934105,"24":0.028982309840191414,"25":0.06665252543762526,"26":0.06368548905170801,"27":0.053566514912649514,"28":0.010061135597828574,"29":0.16185343258216459,"30":0.0076399243440316775,"31":0.002112706661907512,"32":0.08703385477003851,"33":-0.015269014459010112,"34":-0.06611602415571259,"35":-0.17475312326273001,"36":-0.005196198627973043,"37":-0.019664012734446255,"38":0.016004927211783846,"39":0.11443924733337037,"40":0.17787454340460054,"41":-0.03579931005262332,"42":0.09861790554650071,"43":0.0404735744214089,"44":0.12281825833294174,"45":0.1642524378365478,"46":-0.05616002168909898,"47":-0.06904689901899956,"48":0.14071239673595787,"49":0.08927815707030383,"50":-0.016552275766102475,"51":-0.16131947963290094,"52":0.052557366230150906,"53":0.12208348227203014,"54":0.21905644205512378,"55":0.05798283355843602,"56":0.12952982034000435,"57":-0.0014828488763664691,"58":0.18652757095837136,"59":0.23362842834910058,"60":0.07247701164215335,"61":0.26711899804170197,"62":0.09663570634858239,"63":0.04367850296601442,"64":-0.09340985162461947,"65":0.141479012962232,"66":0.11432091017792433,"67":0.004315527352538573,"68":0.156229980523332,"69":0.19787334368882745,"70":-0.03184599457001901,"71":-0.12433392146794632,"72":-0.010939602958029048,"73":0.019915356081000216,"74":-0.10384826363437775,"75":-0.11538919351324511,"76":-0.036298882335829,"77":0.07412424716580131,"78":0.05924511476642798,"79":-0.02261185275369352,"80":-0.0578237690758463,"81":-0.06483096942529663,"82":-0.17177391649849272,"83":0.13021967650457494,"84":0.004631149893556039,"85":0.3317116943595588,"86":0.20403241266854227,"87":0.03811070279151746,"88":0.19702288459132594,"89":0.010511600472680904,"90":-0.19041608333083165,"91":0.2857009904258284,"92":0.2278851616850873,"93":0.4289934111163488,"94":0.25985245174020405,"95":0.10013903714380454,"96":0.05900918698682563,"97":0.1768422356126426,"98":-0.1133540504777732,"99":0.23859795920712285,"100":0.08939081023508552,"101":0.25502594357069014,"102":0.13249884583629506,"103":0.0752209765060976,"104":0.14565370725735607,"105":0.2977110085783954,"106":0.15426387105270176,"107":0.36862893751515274,"108":0.14846334565910432,"109":0.24621259144408997,"110":0.30787299105008,"111":-0.03024012436933907,"112":0.004717211335040536,"113":0.24116692233237433,"114":0.07569998184679347,"115":0.19814297531250002,"116":0.0790955113114072,"117":0.20151226183733098,"118":0.13799512570510136,"119":0.1382711529300927,"120":-0.08865042941695969,"121":-0.2060405408032577,"122":-0.1255865581556667,"123":0.07398624446408568,"124":-0.0477226721362993,"125":0.2833433625822812,"126":0.11915604327482297,"127":0.04093852339539883,"128":0.028866226123612542,"129":-0.03605286874791189,"130":-0.18848529172953288,"131":0.14511834320159958,"132":0.08828222344937021,"133":0.14975526138503908,"134":0.2708611826188348,"135":-0.0907664060926919,"136":0.11055853469988967,"137":-0.02451591412722384,"138":-0.12288744063854232,"139":0.19738496105329426,"140":0.21156679038269227,"141":0.27784498478405795,"142":0.40666574115525883,"143":-0.08031303435874758,"144":0.17816101216636962,"145":0.14737041916701699,"146":0.04162544887230144,"147":0.11307940747263934,"148":0.08235833590394229,"149":0.3115063036545893,"150":0.13631815740004302,"151":0.003824930853810721,"152":0.064942370616791,"153":0.03746439324477247,"154":-0.10067067685205085,"155":0.12516628447422729,"156":0.13928485638741797,"157":-0.013558079466881806,"158":0.10560682567797729,"159":-0.06243663979065552,"160":-0.06005536847608374,"161":-0.11255133812036347,"162":-0.09135174742526357,"163":0.1565854118985472,"164":0.072981349080474,"165":0.016762032832747725,"166":0.2268967412014998,"167":-0.15858904834253665,"168":-0.04700091403528181,"169":-0.10941570534893075,"170":-0.1486545087200781,"171":0.4217845927160868,"172":-0.1369364777751257,"173":0.06600889118694973,"174":0.20561931142161335,"175":0.11226023700665892,"176":-0.0649198252873336,"177":-0.25669633709009404,"178":-0.13152048184772278,"179":0.38125328217463567,"180":0.15770001854269206,"181":0.10832719091640546,"182":0.24940925032503694,"183":0.10573347677441486,"184":-0.1024079811374715,"185":-0.06021491085639406,"186":-0.20684506931215002,"187":0.24200889775386658,"188":0.21894247876287978,"189":0.07462096656489003,"190":0.3898706499959201,"191":0.20675589964982805,"192":-0.1991424301619809,"193":-0.06865240347031078,"194":0.039657870510168336,"195":0.21931605772555773,"196":0.18003342786990778,"197":0.06707446282958571,"198":0.13120642373981437,"199":0.09589515218209059}}],"biases":{"sx":1,"sy":1,"depth":8,"w":{"0":-0.028032955457484236,"1":-0.04436249296192831,"2":0.10463493472022178,"3":0.0550577183513285,"4":0.12144626076198405,"5":0.10049462220386467,"6":-0.0024586565693854906,"7":-0.024154693492665927}}},{"out_depth":8,"out_sx":32,"out_sy":64,"layer_type":"relu"},{"sx":2,"sy":2,"stride":2,"in_depth":8,"out_depth":8,"out_sx":16,"out_sy":32,"layer_type":"pool","pad":0},{"sx":5,"sy":5,"stride":1,"in_depth":8,"out_depth":16,"out_sx":16,"out_sy":32,"layer_type":"conv","l1_decay_mul":0,"l2_decay_mul":1,"pad":2,"filters":[{"sx":5,"sy":5,"depth":8,"w":{"0":0.12940811694532273,"1":0.10424744433309342,"2":-0.10460325550001012,"3":0.2021072372823484,"4":-0.0780089839950003,"5":-0.10899060085692386,"6":-0.005638126155479228,"7":-0.04749620662318182,"8":0.07857738600092742,"9":-0.08244624804494778,"10":0.07477147972915472,"11":0.04943035387320221,"12":-0.007715378548746942,"13":0.08543969757581213,"14":-0.03910358588610046,"15":0.04816304024922388,"16":0.09609477816545296,"17":0.03381420502164909,"18":0.11143420231804937,"19":0.1046870961850576,"20":-0.3223680300405669,"21":-0.043204957539512,"22":-0.053907577161174,"23":0.17248278241680312,"24":0.17856233123163168,"25":-0.059666586780458754,"26":0.03238615488382689,"27":-0.029947924959559252,"28":-0.26762072448220997,"29":0.05294904966272792,"30":-0.009784847306027545,"31":0.17422692705670395,"32":0.27565246708187435,"33":-0.014251085889831688,"34":-0.17465552685107666,"35":-0.08002793881699655,"36":-0.09082634704277584,"37":-0.26403077263017677,"38":-0.031672973684345615,"39":0.14749459371314574,"40":-0.0193183342123544,"41":0.07174990667715635,"42":0.035970136634088344,"43":0.06396561310583068,"44":-0.13179464050818457,"45":-0.07473798278938595,"46":-0.04049541671839872,"47":-0.05901236186010539,"48":-0.17532936018614273,"49":0.23855246123399498,"50":0.07252988726265426,"51":0.09540538131529398,"52":-0.07367339930700546,"53":-0.08174520968940263,"54":0.029567761733487567,"55":-0.07955856330713588,"56":-0.15969585447665077,"57":0.2118436422052367,"58":0.031472112194854324,"59":0.2077425592789363,"60":-0.14358449155443503,"61":0.12264904540746979,"62":0.0031226405491849335,"63":0.10070454783305625,"64":-0.07980080067466817,"65":0.19901843704296387,"66":0.017473625421889547,"67":0.03210252273809463,"68":-0.18899312997505668,"69":-0.21362890624494815,"70":-0.011757116617575069,"71":0.051370183205216594,"72":0.11555143820176217,"73":-0.05594735117762083,"74":0.08619360528200902,"75":-0.019877470800190835,"76":-0.27248141568704043,"77":-0.27648581345732987,"78":0.007053594792513647,"79":0.08240935399682285,"80":-0.17602249407156131,"81":0.05391685665680114,"82":-0.05194703556142664,"83":0.03573319854914906,"84":0.19922900865292092,"85":0.0579627880079388,"86":-0.017384106310610187,"87":-0.3345399249028919,"88":-0.0012744972390907757,"89":0.13931615458344151,"90":-0.016009744998770437,"91":-0.047460525927145426,"92":0.354742727593304,"93":-0.0022979245248690968,"94":0.02582814435971739,"95":-0.20583433944698487,"96":-0.05699409866774615,"97":0.2197553253420038,"98":0.03703009753722122,"99":0.20313051239559216,"100":0.03913836096636544,"101":-0.1991319434990595,"102":-0.04721257841678456,"103":-0.08097930002618807,"104":-0.1783551636243592,"105":-0.07354579198429795,"106":0.026590776045091892,"107":0.07183855110967576,"108":-0.06630077708077325,"109":0.09250100983512334,"110":0.022648675334722968,"111":0.03861924606210172,"112":-0.0036024894706921835,"113":0.038594003372070945,"114":0.0906968984680167,"115":0.0009652073929168289,"116":-0.21065346600966892,"117":0.030933060352527447,"118":0.004566949634847437,"119":0.13764275868591488,"120":0.05268589953652429,"121":-0.1627051951600417,"122":-0.13825247779215438,"123":-0.1195299894143302,"124":0.36786492145866245,"125":0.28928790837214535,"126":-0.05845382083724511,"127":-0.1659525623047484,"128":-0.05593648018081275,"129":-0.22007040597582464,"130":0.05587021743293329,"131":0.04435147018183155,"132":0.26298447633455707,"133":0.2810699829249517,"134":-0.03497692014201694,"135":-0.15371498030000122,"136":-0.06661613512931762,"137":-0.029783631391335236,"138":0.0087038013973675,"139":0.20577133942290868,"140":0.1544964917090893,"141":0.18784878188760246,"142":0.03656628619222757,"143":-0.09378866127423008,"144":-0.23139503968394728,"145":-0.05130853935289657,"146":-0.042809241428533935,"147":0.12166371026778695,"148":0.09270473477588961,"149":0.02163873006571348,"150":0.00041393880663036003,"151":-0.09816620609127866,"152":0.0749938942737629,"153":0.09314430053282274,"154":-0.04057757146063599,"155":0.07471665121141478,"156":0.17087289163864075,"157":-0.0001421085500663833,"158":0.0036395792625352735,"159":0.04189487271865001,"160":-0.22417923986735694,"161":-0.13349255190045878,"162":-0.031819613033486106,"163":-0.044726219036349796,"164":0.017218128399882092,"165":0.10765914671846533,"166":0.03109505279551518,"167":-0.020682913081341632,"168":-0.07963856087459738,"169":-0.13665841063146206,"170":0.0504470925806232,"171":-0.013102239430848331,"172":0.21635374079229722,"173":0.17679776259311908,"174":0.03190291807218314,"175":0.000042861194967401214,"176":-0.1528716591586314,"177":0.045194517576346904,"178":0.011741893426490303,"179":0.06394748036612709,"180":-0.06823842896884148,"181":0.20497805515640444,"182":0.027946904075174982,"183":-0.14107339052078072,"184":-0.03792979313699947,"185":0.21257828703167553,"186":-0.05083918499347813,"187":0.04159082786637372,"188":-0.0039302608501676555,"189":0.014681293406013764,"190":-0.0004130964125119108,"191":-0.07517135534656649,"192":-0.031718517354499126,"193":0.1134106168474772,"194":0.09188992113452564,"195":0.06871186818455703,"196":-0.13305793686644415,"197":-0.04143235433492956,"198":0.024539049604027318,"199":-0.11122764916802795}},{"sx":5,"sy":5,"depth":8,"w":{"0":0.0026024898743954947,"1":-0.2326768275549461,"2":-0.18362407547260892,"3":0.17163240646012606,"4":-0.04748843217262904,"5":0.22636919986112644,"6":-0.003153256513715745,"7":-0.033916830579345615,"8":-0.11954997535354846,"9":-0.20135874259189093,"10":-0.17215189880186071,"11":0.02535362092793985,"12":-0.04808184017328518,"13":0.0708562984196744,"14":0.016694582194407646,"15":-0.14282287338949412,"16":-0.14450111470510474,"17":-0.020938133855744112,"18":0.0005193495253968106,"19":0.15094616465163394,"20":-0.003927255074894973,"21":0.10563869530595378,"22":-0.028449122659666867,"23":-0.1502627798856747,"24":-0.05350069649779468,"25":-0.027732326739988364,"26":-0.10359358698050614,"27":0.1314871065376494,"28":0.06503654731248654,"29":-0.007751295714966652,"30":-0.0400472758175095,"31":0.03218614065005807,"32":0.11670116979497817,"33":0.016754690055150265,"34":-0.09454187914677406,"35":0.16556695112145975,"36":0.1228365312793399,"37":-0.0872104061516908,"38":0.006918115766980139,"39":0.10809100536346372,"40":0.1400556533610413,"41":-0.005680855310719322,"42":-0.0096597084818581,"43":-0.01266943956102237,"44":0.07431162298254024,"45":-0.024056382168333872,"46":0.055231283940204275,"47":-0.10281769517066193,"48":-0.1983486199270988,"49":-0.27897590127177446,"50":0.11021173427215535,"51":-0.17332308515001793,"52":0.07360887857526166,"53":0.21383396557072587,"54":-0.03035120526468398,"55":0.0058281771784083865,"56":-0.11272234558405922,"57":-0.23549850934637567,"58":0.12124810486273857,"59":0.05220524508153733,"60":0.17146095074779577,"61":0.2690191350414185,"62":-0.01992802428012253,"63":-0.0023747304674739894,"64":-0.13995852516520177,"65":0.018221430941431183,"66":-0.06895464756383442,"67":0.2155326424993048,"68":0.10525572106540931,"69":0.029692528898478704,"70":0.02081995526201319,"71":-0.03564503947791889,"72":0.2196097815250211,"73":0.1484710112952371,"74":-0.1025976687643782,"75":0.10663567886525313,"76":-0.01812508169389787,"77":0.03519161850303464,"78":0.033565121102933394,"79":0.011204038712706949,"80":-0.0535395587308294,"81":0.0775383893485358,"82":0.20785528415793889,"83":-0.05018431252124802,"84":0.031496263430640284,"85":0.03691933594607761,"86":0.0469353885767542,"87":-0.06536840199301301,"88":-0.23008350920295845,"89":0.12252335242112491,"90":0.19365105427008242,"91":-0.014938468073058412,"92":-0.051851677886497596,"93":-0.04411098038341396,"94":-0.0018491762559846993,"95":-0.027547439964366448,"96":0.07826701021124333,"97":0.23517722142941552,"98":0.1460337859247747,"99":0.06196555190427531,"100":0.15113987011631502,"101":0.04311842051010799,"102":0.021601970707091814,"103":0.04637279178495628,"104":0.10442484991611518,"105":0.2536782665657686,"106":0.009237769558879642,"107":0.017338484015075324,"108":0.03978116120963678,"109":0.07614199946272279,"110":0.03633664842975083,"111":-0.1968321858793394,"112":-0.09600621034339209,"113":0.16463524970354684,"114":0.06070383462269217,"115":0.06012443276568649,"116":0.0003507992942593289,"117":0.02209503886876917,"118":0.019865706592775013,"119":-0.24321057865792584,"120":-0.047190759551449746,"121":-0.08074107325669033,"122":0.16941974742543567,"123":0.006692687657845971,"124":-0.0392269720982616,"125":-0.06914842345696262,"126":-0.021240298184170444,"127":-0.058318494013597844,"128":-0.06299634933478711,"129":-0.08137776095444109,"130":0.12387803034384216,"131":0.10669858113468544,"132":-0.016807856101910237,"133":0.0953056810705657,"134":0.0328595778175416,"135":-0.07777348055427692,"136":0.1871603859323989,"137":-0.06196365501147213,"138":0.003479887136159118,"139":0.020437957573611946,"140":-0.04967794404871765,"141":0.220160769619143,"142":-0.0220450887736154,"143":-0.06337109132753613,"144":-0.001431352328809141,"145":-0.14086858753276918,"146":0.06561517768096485,"147":-0.16320066081503815,"148":-0.09082560944880072,"149":0.13355595334698786,"150":-0.009136979676594164,"151":-0.27342561691790096,"152":-0.07062817341456103,"153":-0.1277147637663653,"154":0.07821459088400912,"155":0.0027735421504884892,"156":-0.18866268923575225,"157":0.08422790006629065,"158":0.014568074875685781,"159":-0.11723928476467614,"160":-0.07361017066128621,"161":-0.016878876621032612,"162":0.03113991699131707,"163":0.10300361368098133,"164":0.1985168342794415,"165":0.05962928333183903,"166":0.01947986242626193,"167":-0.06318109789397652,"168":0.13115332416113862,"169":-0.06880060777069971,"170":-0.015502694181271074,"171":-0.11374282121827528,"172":0.07489055089395669,"173":0.022064750747746442,"174":0.012458496197823975,"175":-0.1236236720965589,"176":0.0223585297936946,"177":0.029808455214837704,"178":0.027586692672018416,"179":0.04283533415399753,"180":0.17251785583873955,"181":-0.09034447357890438,"182":-0.013602528584634326,"183":-0.07059609561475938,"184":-0.06693363162481675,"185":-0.14340753344892443,"186":0.08153961297394981,"187":-0.17611043894166442,"188":-0.09992756818440311,"189":-0.10038365982099186,"190":0.016462212930498567,"191":-0.14448996683501206,"192":-0.024067025586630243,"193":-0.12176303427984447,"194":0.09566776928038599,"195":-0.06380723772470229,"196":-0.03479697313010179,"197":-0.22968753173353643,"198":-0.007691085336744918,"199":0.0735637340551006}},{"sx":5,"sy":5,"depth":8,"w":{"0":0.004919483672652112,"1":-0.11533940093643458,"2":-0.07550000563173422,"3":0.030439264400414917,"4":-0.12813328035583174,"5":0.028882207683872847,"6":-0.01980752174986594,"7":-0.20838340954652063,"8":0.08057393239054347,"9":-0.21733153107961134,"10":-0.13523889925839885,"11":-0.010105693541839489,"12":-0.10981141571654716,"13":0.1833392133838052,"14":0.0051877298684190895,"15":0.052406908406644484,"16":-0.05622317795279244,"17":0.08397362394080982,"18":0.036656116012402394,"19":0.0064434234279199575,"20":-0.13553540836677083,"21":0.07411864333437954,"22":0.009477111336093195,"23":-0.10452840424356197,"24":-0.07756539043504221,"25":-0.021435609084587446,"26":-0.067780921453207,"27":0.15419471403237137,"28":-0.1285656341063929,"29":-0.0037034037829536542,"30":-0.008435689788973444,"31":-0.06968421118212725,"32":0.07637740487229248,"33":-0.08773236896571818,"34":-0.1751391852424265,"35":0.06886066517335468,"36":-0.046575712695413385,"37":0.04233234107827644,"38":0.030237340330549006,"39":-0.04593393932825317,"40":0.06630511506877057,"41":0.3011640489362909,"42":0.13923403529670753,"43":0.11798764655851493,"44":-0.013412305025267414,"45":-0.06443467000905427,"46":0.019463402633133283,"47":-0.09815214565111635,"48":-0.04101990380474822,"49":0.29951282432390747,"50":0.14163032581779625,"51":0.02405684747224746,"52":0.12709219844189884,"53":-0.006827818605282653,"54":-0.011415535481302717,"55":-0.11636062480355862,"56":0.15164929790413398,"57":0.1454713159070138,"58":0.009474547826031727,"59":0.030355246599454648,"60":0.037156921648479724,"61":0.019291056729268688,"62":-0.005838998627764803,"63":-0.07793370581334123,"64":-0.08816049200322876,"65":0.07840760133748044,"66":-0.10335792716882547,"67":-0.07311806648023829,"68":-0.03794587186756549,"69":-0.07713282877536239,"70":0.03251864636616769,"71":-0.09352224167087686,"72":0.009392786271451448,"73":-0.07488267385723484,"74":-0.058034361578041746,"75":0.12604522453344644,"76":-0.03796846358622897,"77":-0.009770148580495889,"78":0.059587446029009686,"79":-0.08759519901720872,"80":-0.0956405609979161,"81":0.23914562889483962,"82":0.19751891984187667,"83":-0.014295374553506643,"84":-0.036171641766441186,"85":0.0016244266926832885,"86":0.04638611110950897,"87":-0.13851629458771014,"88":-0.07107844129524936,"89":0.08965677452158469,"90":0.14955475145281738,"91":0.08008603430698612,"92":-0.047916449850395455,"93":0.015433708624783908,"94":-0.008044320328576117,"95":-0.11700313821148033,"96":0.12219603379095641,"97":0.04022129342226011,"98":0.015258096278017986,"99":0.3222342950872791,"100":-0.09941667030795821,"101":-0.06786231852827347,"102":-0.040673637602286906,"103":0.04496521298550833,"104":0.12928045845964453,"105":-0.24169728848252162,"106":-0.1754999453598751,"107":-0.12982365300424992,"108":-0.11791406287554747,"109":0.016370170184623993,"110":0.030199951935565534,"111":0.020899692044231245,"112":0.07081851640430266,"113":-0.22357686450555764,"114":-0.2108289708534559,"115":-0.010949626039373758,"116":-0.11459991668429059,"117":-0.14532803069233222,"118":-0.008938909972724417,"119":-0.027550176429201063,"120":-0.27037093844497456,"121":0.006410877807290683,"122":-0.03807807708365477,"123":0.05735413256190364,"124":0.195169043408035,"125":0.1895367487412831,"126":-0.00952419952835454,"127":0.03865688395222255,"128":0.12673283109310052,"129":-0.22511205703658335,"130":-0.06351354286361044,"131":0.15059705629420483,"132":0.14747874844174494,"133":0.17203649026421458,"134":-0.05320848975491794,"135":-0.027462421042487216,"136":0.16352191906843996,"137":0.1723580858254429,"138":-0.03030223568454522,"139":0.18314327033526476,"140":0.14505041825569098,"141":0.03581654009237753,"142":0.020467718965049016,"143":-0.07641384651808669,"144":0.04128226538128673,"145":-0.0006240198620180675,"146":0.010317487479723123,"147":-0.13079452855225984,"148":0.1052710694154318,"149":-0.03984976362242602,"150":-0.01770283626036484,"151":-0.11801310972432588,"152":-0.1901331032160378,"153":0.11428736125975142,"154":0.035177173671624234,"155":0.023623623162268483,"156":-0.0298827932197188,"157":0.032139802426758436,"158":0.0038420812574522724,"159":0.15477802000300483,"160":0.14408622264189616,"161":0.09261194262048011,"162":-0.24250842867427946,"163":0.08674814571036482,"164":0.011268427615893915,"165":-0.0008002145644113743,"166":-0.01080810379485888,"167":-0.029782927393283542,"168":0.16202644541887018,"169":-0.04803186247934335,"170":-0.061511069609868935,"171":0.013729226004493004,"172":0.1140804949431059,"173":0.12560273481443576,"174":0.005330184027985861,"175":-0.0688053003690947,"176":-0.03050938555647491,"177":-0.00669839724876126,"178":-0.08313448609907612,"179":-0.06552509182370878,"180":-0.08190291072598185,"181":-0.0019654460641704984,"182":-0.004953291779679831,"183":-0.317629208551559,"184":0.07390639666928388,"185":0.11611439648171926,"186":0.01133526785995239,"187":-0.09469506690754775,"188":-0.057009454051585653,"189":-0.01862788258458308,"190":-0.02324336516837394,"191":-0.31234571730949695,"192":-0.006529540806905524,"193":0.19210096683213065,"194":0.15333376265911047,"195":-0.033128153994361566,"196":0.05372517561915678,"197":0.07298350498071401,"198":-0.000983419031661384,"199":-0.2566490254584208}},{"sx":5,"sy":5,"depth":8,"w":{"0":-0.03757777583853018,"1":-0.1442198776057904,"2":-0.012937145123478225,"3":0.11688976280094147,"4":0.13197600801920478,"5":0.07685458753122458,"6":-0.03767397851954986,"7":-0.14170068943707675,"8":-0.18765215686928033,"9":0.07801124582055219,"10":-0.028692239310158175,"11":-0.016532975050255274,"12":-0.03972521838421256,"13":0.11471528176135071,"14":0.04587696171837957,"15":-0.10054037578303196,"16":-0.2675229632008451,"17":-0.12478020224941552,"18":-0.023280891290519478,"19":0.04690558601949004,"20":-0.06177435365524395,"21":0.20696905036486757,"22":-0.010404653268428845,"23":-0.19401546937203012,"24":-0.08376523059479736,"25":-0.20297828054605216,"26":-0.09019584090500056,"27":-0.14724666510484263,"28":-0.1256087931148339,"29":-0.0010845207747850064,"30":0.04838845935222893,"31":-0.14543881495387465,"32":0.03899178431078432,"33":-0.3405822343995856,"34":-0.08183628512101493,"35":0.03506372555945441,"36":0.00835156384097556,"37":0.10796027162923406,"38":-0.008594424629235129,"39":-0.01916656372093812,"40":-0.11234168421407843,"41":-0.06629556080040794,"42":-0.06652360598728586,"43":-0.03897284451316111,"44":-0.08161520596477709,"45":0.048506925263011084,"46":0.012172586540610543,"47":-0.06026939677203578,"48":0.04245639635804658,"49":0.18341390237401264,"50":-0.02756632331243226,"51":0.12664373331529602,"52":-0.06613638743469506,"53":0.049660768853554166,"54":0.03223128822128445,"55":-0.0022522884865293484,"56":-0.06391997413713918,"57":0.16386754706617268,"58":-0.14391465909894233,"59":0.1642142568451365,"60":-0.020565640637659,"61":0.03718960624014361,"62":-0.0054093717559517565,"63":-0.07479358081890167,"64":0.1750009266221292,"65":-0.1934539012757105,"66":-0.2405025130202333,"67":0.04537633615349328,"68":0.07188247350550944,"69":0.08834693238939384,"70":-0.03268649873426432,"71":-0.1753584014201065,"72":0.07741069003117369,"73":-0.21668241862447546,"74":-0.15586606456830646,"75":0.22579076860286695,"76":0.1579906823099095,"77":0.04783795451416187,"78":-0.03279188290101517,"79":-0.13170656347410367,"80":-0.23079454836354854,"81":0.051142236183838875,"82":-0.004735504981373467,"83":0.022887691478439106,"84":0.023543171109998394,"85":0.16673413599982395,"86":0.010822748560516026,"87":-0.06632505602340534,"88":0.14269387831285454,"89":0.15187329903142532,"90":0.08868859308933838,"91":0.06574541092280752,"92":-0.03395046615352533,"93":0.22269662077670263,"94":-0.02805065452014932,"95":0.1535215156344995,"96":0.05331042663122077,"97":0.07223981366761381,"98":-0.1283473644311146,"99":0.05553299762601845,"100":0.23380350266103855,"101":0.20261036239041574,"102":-0.03588581455182576,"103":-0.020734614953542008,"104":-0.0958303267965214,"105":-0.16941058514911553,"106":0.029175935444983946,"107":-0.21996446688408006,"108":0.27660800930519175,"109":0.02262423284206416,"110":-0.029864426804091845,"111":-0.08482748109108519,"112":-0.04646235400977089,"113":-0.013348640512426091,"114":-0.06650677807187526,"115":0.03654058589062912,"116":0.1322216268093376,"117":-0.06550480332682017,"118":0.017186067093229306,"119":0.03188335847238366,"120":-0.09126119260223026,"121":0.04426845572060672,"122":-0.07839745806658728,"123":0.045716258792214415,"124":-0.10782062457101052,"125":-0.029185746826695926,"126":-0.052646787617105874,"127":-0.09046201955523747,"128":0.06418862386128266,"129":0.26634510393777006,"130":0.0007905913903406169,"131":-0.031488534314774504,"132":-0.03187336010887674,"133":0.12972923036632572,"134":-0.020872197444921456,"135":-0.005128698605652141,"136":-0.0006788932672157703,"137":-0.012652713090324763,"138":-0.11389096521569868,"139":-0.05962454466710777,"140":0.17762033778952713,"141":0.09180336992498837,"142":-0.06198969645731612,"143":0.0281083844731479,"144":0.14496661075634548,"145":-0.04849300745332228,"146":0.04769681827925718,"147":-0.07176171430925782,"148":0.06761287374224215,"149":0.025364377508034757,"150":0.02163012616872897,"151":0.0093912968994128,"152":0.13710346211470215,"153":0.00895856470859252,"154":0.021448183375182638,"155":0.03285761699475185,"156":-0.030711976379525857,"157":-0.006458723254662182,"158":0.0010313965584372114,"159":-0.018937422981735945,"160":0.05390186037098366,"161":0.030861080615299852,"162":-0.2251026122756122,"163":0.14036524751607832,"164":0.1618571795795116,"165":0.17607143653964327,"166":0.025022931483332737,"167":0.10006035514350219,"168":0.03158117703018321,"169":0.1171863812840394,"170":0.03246980657050397,"171":0.027122979142187892,"172":0.12399787508694918,"173":-0.004473167099850106,"174":0.051770806390535586,"175":-0.28063007430728687,"176":0.043125248321960005,"177":0.160695031950477,"178":-0.10174290961056477,"179":0.16926711299463676,"180":0.12161332876180843,"181":0.004064471568949069,"182":0.00212480180577087,"183":-0.263584234007646,"184":-0.040593027171594374,"185":0.07094953376543853,"186":-0.015173441271841516,"187":-0.22832924633382362,"188":-0.06104005588090381,"189":-0.004286124833586739,"190":0.030740084428254426,"191":-0.2154462753243668,"192":0.1803180789690121,"193":0.14657813183895763,"194":0.0748051813641374,"195":0.09073866683721138,"196":-0.18868381560371633,"197":-0.17462777462858725,"198":-0.017623896146593605,"199":-0.03068580179182409}},{"sx":5,"sy":5,"depth":8,"w":{"0":0.0739190460652594,"1":-0.08637688402193697,"2":0.07407982053798515,"3":-0.22906320911062075,"4":0.10158977404281792,"5":0.09949769054567163,"6":-0.047317383612792994,"7":-0.06709349493530029,"8":-0.18664814086542755,"9":-0.12589995926100242,"10":0.027430636821574976,"11":-0.17818266117303133,"12":0.16474881931315813,"13":0.2137091982037247,"14":-0.008701209264411008,"15":-0.22085921259407756,"16":-0.09051927955513552,"17":0.09075623019984863,"18":-0.09239247591402738,"19":-0.10759935221146193,"20":0.17932989258313078,"21":0.20684751379072056,"22":-0.0121732188445847,"23":-0.18872872385975134,"24":-0.08462689591944586,"25":0.1663321321339404,"26":-0.006774906702320998,"27":-0.08030028967050874,"28":0.07878891007711122,"29":0.27595829101531566,"30":-0.05445446001026234,"31":-0.2750224785789813,"32":-0.0067946245143881675,"33":0.10394338945482456,"34":0.04829051920322458,"35":0.0528490604542985,"36":-0.025312157841021588,"37":0.13583277626223098,"38":-0.017823980694974696,"39":-0.275185318996594,"40":-0.06893666145403193,"41":0.10575588184402453,"42":0.1893472255986547,"43":0.016624114080211944,"44":-0.27692197265397384,"45":-0.13228025616163094,"46":0.04225817990362114,"47":-0.0007845947324323218,"48":-0.18354024446718012,"49":0.09205690018304771,"50":-0.05082627847539262,"51":-0.02565691607230066,"52":-0.09905014506352802,"53":-0.1747434089110691,"54":0.0011844158165178976,"55":0.0030776032347940613,"56":-0.09902884594567041,"57":0.0894222932035807,"58":0.1372427142879428,"59":0.06926745022296674,"60":-0.06325490022211157,"61":-0.1199755482147732,"62":-0.03172556749836649,"63":-0.01079884323716185,"64":0.1163752079038656,"65":0.0046886878584610605,"66":-0.1262749668612337,"67":-0.06278547143788692,"68":0.15606286852717344,"69":0.09722356315556868,"70":0.013606866867181402,"71":-0.047435189346477225,"72":0.05996713956758525,"73":-0.21660473358547389,"74":-0.12364532063782897,"75":-0.04685541021383516,"76":0.048634801327666066,"77":0.13769608336956068,"78":-0.028288585971621056,"79":-0.17831666231375462,"80":0.13345277118507093,"81":-0.25055291451168116,"82":-0.11120758081549996,"83":-0.1690863594195787,"84":-0.19973676784577174,"85":0.21774884554669433,"86":-0.02301765950266022,"87":0.29466463758835354,"88":0.05330281727019219,"89":0.06789251277478613,"90":0.03982561729233079,"91":-0.04838479018601228,"92":-0.054799582643542066,"93":0.044575561687775225,"94":0.09691745996057208,"95":0.08276567217683296,"96":0.21324046058771104,"97":0.05473966553551609,"98":-0.044815656765261475,"99":-0.208055029985094,"100":-0.16032899354810037,"101":0.015820569963029954,"102":-0.03887529830073393,"103":-0.031053897374044136,"104":0.08550495327624356,"105":0.10424748201468016,"106":0.00016012899039384104,"107":-0.06085539019750446,"108":0.05252602941061407,"109":0.034987259363127174,"110":-0.0048273808432668045,"111":-0.11479794626536936,"112":-0.015458889738109454,"113":0.24428684630615816,"114":0.17178511884475797,"115":0.08643098953988962,"116":0.2123737157036436,"117":0.019820994646628357,"118":0.016308372520963482,"119":0.015400408761527167,"120":0.09667054473659051,"121":0.0632058333474467,"122":-0.028090191044137534,"123":0.09785692590061025,"124":0.005680084052938573,"125":-0.06312976748098033,"126":-0.011695275900535892,"127":-0.05450819777125462,"128":0.05863118091405848,"129":0.09369306516854686,"130":-0.0787556923814065,"131":0.12079654106640098,"132":-0.11719072544115063,"133":-0.13777536366295,"134":-0.007393030249348317,"135":-0.131956044509112,"136":0.15078808013631534,"137":-0.20671376840602526,"138":-0.039953383870608254,"139":-0.023099642117265787,"140":0.007252672450740279,"141":-0.04704832456868685,"142":-0.042656081317078744,"143":-0.13678527355698913,"144":0.002422866621573089,"145":-0.10797056208047136,"146":-0.08820254420973198,"147":-0.0939129842203487,"148":0.3182499985869409,"149":0.09266034737432119,"150":0.03365435338444964,"151":-0.1698339764645677,"152":-0.07041672440003112,"153":-0.3007595670750235,"154":-0.025339850173761364,"155":0.058628639159521934,"156":0.15664376346777034,"157":0.07364526742565114,"158":-0.012754652346467596,"159":-0.05311158116481535,"160":-0.2625900868811928,"161":-0.317308014759974,"162":-0.03293807695048653,"163":0.17225122147133712,"164":0.005499743492727809,"165":0.008629622382696957,"166":-0.02756231334895258,"167":-0.09638499153077894,"168":-0.41010598705437146,"169":-0.029769985658948932,"170":-0.047420309908542894,"171":-0.05263337725438558,"172":0.03667607827720927,"173":0.3011516090082543,"174":-0.04749302979820382,"175":-0.2585710828976041,"176":-0.14942436430058173,"177":-0.023984344311584485,"178":-0.10678904256883726,"179":-0.12294993676137331,"180":-0.012069162752058842,"181":0.2821928998242321,"182":-0.009592962529191918,"183":-0.03628231780347754,"184":-0.17673800283753707,"185":0.11900883197677888,"186":0.06388143602516144,"187":-0.05574391225568512,"188":-0.021091616512167476,"189":0.19158403253465525,"190":0.005092279402684948,"191":0.03996975192516793,"192":0.03214052503228711,"193":-0.08693424996403647,"194":-0.09108360488337326,"195":-0.02827277735571128,"196":-0.27892796330225794,"197":-0.012670499495377624,"198":-0.014618179922959874,"199":0.05462343206038728}},{"sx":5,"sy":5,"depth":8,"w":{"0":0.1060020896914048,"1":-0.1076851214324782,"2":-0.0934547764765405,"3":0.03419101673372034,"4":-0.048387574482683854,"5":0.08456804585520811,"6":0.09697875169645731,"7":0.04535015459636137,"8":0.008392056618682048,"9":-0.004865654036462957,"10":-0.100781035745061,"11":0.14395741288860026,"12":0.06064519343607783,"13":0.18502697022647596,"14":-0.0794433218930015,"15":0.05028285374208924,"16":-0.2506144432168168,"17":-0.10588859242759169,"18":0.0786978086035095,"19":-0.037166573978061355,"20":0.16161392388550644,"21":0.02153714696557474,"22":-0.002809427713676263,"23":-0.17541279330152665,"24":-0.012500308381659468,"25":-0.14216149508272213,"26":0.11287971419254525,"27":-0.1912749106754931,"28":-0.04478609621973162,"29":0.14355342897865095,"30":0.015023772202580396,"31":-0.008333486721474727,"32":-0.15152500985324172,"33":0.17608057369470018,"34":0.1054401433502025,"35":-0.15290506005961427,"36":-0.026139548147351442,"37":0.19503395141720967,"38":0.004647976302265122,"39":-0.2011798092316591,"40":0.09799689250246828,"41":0.24147156390320926,"42":0.006580242111550314,"43":0.06074306316468059,"44":-0.07488289446198367,"45":0.01885442704757838,"46":0.007747886916414899,"47":0.29320671268518284,"48":0.07936159463833099,"49":0.09633487058834411,"50":-0.10765757445248575,"51":0.09176176980256048,"52":0.09937520251666113,"53":0.03567806538814913,"54":-0.02669273428738205,"55":-0.066437181374683,"56":0.1266184133020548,"57":0.027611138396568185,"58":0.05974783719285086,"59":-0.09131022457136867,"60":0.19886754369916254,"61":0.12661774751751415,"62":0.02491925221272089,"63":0.024838107106290214,"64":0.09141678539977222,"65":-0.04868530338921352,"66":-0.006750229820602337,"67":0.14828514525391231,"68":0.19785299383143998,"69":0.21729687495099317,"70":-0.01737341948609786,"71":0.030793098357524584,"72":-0.01128879944478051,"73":0.13780803361162836,"74":0.2105916268360031,"75":0.1660436088395655,"76":0.10915553512017269,"77":0.24203707762063212,"78":0.028815113330176993,"79":-0.0599101325695814,"80":-0.03848019976428566,"81":0.061750294311903486,"82":-0.16839156240327546,"83":-0.021783743762892212,"84":0.05167902698838462,"85":0.09488963043300641,"86":-0.052749589862833964,"87":-0.02046454347903108,"88":-0.07160894758908652,"89":-0.030604002235669423,"90":-0.08567408433348386,"91":-0.06983778850055279,"92":-0.06490868559102826,"93":-0.14208652846197214,"94":-0.037453245972941106,"95":-0.010078320086823654,"96":-0.10012269437324649,"97":0.14349002104791012,"98":0.034265126603626905,"99":-0.08489434212687226,"100":0.00023079500871381044,"101":-0.2770628195435305,"102":0.0034411200512538347,"103":-0.35291631043541544,"104":0.08229452011019502,"105":-0.14237136218164667,"106":-0.24493852619833853,"107":0.08037584187182721,"108":-0.1270068689977253,"109":-0.03724152182759761,"110":-0.025473747836484727,"111":-0.4157697106780145,"112":0.08502121766679856,"113":0.02223308001633234,"114":-0.15424369456460235,"115":0.040392672608147245,"116":-0.017881763104501062,"117":-0.07355095232165612,"118":-0.021895256976314347,"119":-0.06358576075026043,"120":-0.09017112018907926,"121":-0.1661023524613951,"122":-0.1797386602976021,"123":-0.01362731729240258,"124":0.131461558804177,"125":-0.05683058882257122,"126":-0.003695212327983016,"127":-0.2944335782156646,"128":-0.17905057291773588,"129":-0.2628080388682474,"130":0.047346075053115104,"131":0.08147191677807054,"132":0.0453095965388258,"133":-0.039703612342263446,"134":-0.005013832115131495,"135":-0.18142405881799656,"136":-0.010903553409980709,"137":-0.0142709951320507,"138":0.15495907943379383,"139":-0.16941318800763733,"140":-0.08454677846847566,"141":-0.06304860451566073,"142":0.01975235561744765,"143":-0.176837686357039,"144":-0.006651538386215433,"145":-0.05708154142398761,"146":0.051214620481225485,"147":-0.00912647356401092,"148":0.007564942568332391,"149":-0.04331170414563445,"150":0.013474771122074309,"151":-0.08830970507217328,"152":0.05735379275709223,"153":-0.029292114196254864,"154":0.07064207272705011,"155":0.056589411225673715,"156":-0.048559149942626036,"157":-0.08505987456608445,"158":-0.007586689273569096,"159":-0.022996936168055003,"160":-0.13263043761519785,"161":-0.18575927411614812,"162":0.06670588210409016,"163":-0.05690757378682027,"164":-0.0034092593701609266,"165":0.152162879124009,"166":-0.041192584462084444,"167":-0.26170298402525527,"168":-0.08891910025925283,"169":-0.03682634902806043,"170":0.0806608233874442,"171":0.004429054028508343,"172":-0.11689646506799253,"173":-0.0021816162317075134,"174":-0.003943543030263334,"175":-0.09222914470442185,"176":0.008963063241855031,"177":0.2064388836774352,"178":0.09223140633777972,"179":0.12786124138343996,"180":-0.15751429963056607,"181":0.06254919824734614,"182":0.020498490526846495,"183":-0.016813785653617838,"184":-0.054501564955826476,"185":0.07000850301312093,"186":0.025625277289794714,"187":0.09912682243201866,"188":-0.17365136448611185,"189":-0.04031005527279961,"190":-0.006542925069764989,"191":0.0941282318224804,"192":0.03444446432707571,"193":-0.08177503112949656,"194":0.029618813432543474,"195":-0.017171380947479366,"196":-0.18907983448002516,"197":0.011975375967939076,"198":-0.03977872976802653,"199":0.2085843464832646}},{"sx":5,"sy":5,"depth":8,"w":{"0":0.19314046429151496,"1":-0.05834292164131197,"2":-0.08594302511955752,"3":0.17252036799839585,"4":-0.12628779587510744,"5":-0.051469545776500834,"6":-0.004287752301310143,"7":-0.07177731344734048,"8":-0.030682417532385507,"9":-0.04689781105597012,"10":-0.08002762797682803,"11":0.23289763078267586,"12":0.03229598179060557,"13":-0.07503264142914398,"14":0.051878935503596464,"15":-0.08006369839178391,"16":-0.15861155039950295,"17":-0.0006767006591703138,"18":0.08388251243785581,"19":0.2431817578756304,"20":0.14672765331065968,"21":0.1597471180091674,"22":-0.0019369800356250745,"23":-0.09319961864540142,"24":-0.07586636697328433,"25":0.10928543619800886,"26":-0.07831182787534864,"27":-0.14230052827300177,"28":0.1544473436984738,"29":0.05134029934686075,"30":-0.029493525070233444,"31":-0.2133282066017559,"32":-0.09030318115618459,"33":-0.12797406670862765,"34":-0.029511111592182223,"35":0.10283547703480322,"36":-0.07692891273590564,"37":-0.23415449082622006,"38":-0.03184887979126514,"39":-0.028136491029486788,"40":-0.15949325944907913,"41":0.16329973018867877,"42":-0.149302519697958,"43":-0.07226917415152088,"44":-0.1305907857088277,"45":-0.2908082382181225,"46":-0.016582759962987036,"47":0.017443161413418243,"48":-0.1235297649475201,"49":0.14288333398371722,"50":-0.10463643257748105,"51":0.11932636148942807,"52":0.08805604119289281,"53":-0.11677032041588233,"54":0.0017799132718890217,"55":0.03357725365222313,"56":0.00650807554019344,"57":0.033185143290852696,"58":0.0010365243707231644,"59":-0.0998074251786977,"60":0.1130491293646163,"61":-0.14035654143553614,"62":-0.00013455410018132715,"63":-0.10141020049166811,"64":-0.07226146740903891,"65":0.12401053021495517,"66":0.15123919568374644,"67":-0.034567100619612365,"68":-0.0139675499689868,"69":-0.08377894132483094,"70":-0.05056211593718181,"71":-0.1454128250755985,"72":-0.08325561561548504,"73":0.20127863309820782,"74":0.06764402976506524,"75":0.18448042595682973,"76":-0.06277745802805426,"77":-0.16090507419774283,"78":0.04226951504866849,"79":-0.1976893291440478,"80":-0.10124939270145296,"81":0.00860669558145547,"82":-0.08504989126076663,"83":0.09603873838596623,"84":0.17376924826014264,"85":-0.071299440470559,"86":-0.020233587599247826,"87":-0.05261907209750494,"88":-0.018035005887254575,"89":0.010609803168035453,"90":0.0995757774389913,"91":-0.06599503675390729,"92":0.25369984195312517,"93":-0.03788169497194442,"94":0.01793611739830137,"95":-0.04300879046437395,"96":-0.17359788954259706,"97":0.009228722202695471,"98":-0.12294332371315458,"99":-0.007842099629758143,"100":-0.09341927464036709,"101":0.01768752130640686,"102":0.011111258595759772,"103":-0.2653187557777099,"104":-0.07086279366650032,"105":0.0017572890960078347,"106":-0.03274331072138389,"107":-0.16195742416538583,"108":0.08731925977569542,"109":-0.020355697086677504,"110":0.009891836447568315,"111":-0.1163274260420239,"112":-0.11335007804195835,"113":-0.07473658677220042,"114":-0.04988132076696689,"115":0.1956972858580289,"116":-0.047724784071160674,"117":-0.22751150401829134,"118":0.043028753489801695,"119":-0.09389836732429882,"120":0.26618915252539777,"121":-0.004071319562380898,"122":0.1350683764208648,"123":0.0661710642428148,"124":0.0403371297161882,"125":0.08637042997666938,"126":0.05112447403509103,"127":0.16060822185036466,"128":0.13859816951859016,"129":0.22700437983885507,"130":0.26694023743270306,"131":-0.05792061814434652,"132":-0.06563819529276242,"133":-0.07295032127792296,"134":-0.00146660640892568,"135":0.04954311530074146,"136":-0.1120345603386856,"137":0.23296489503407106,"138":0.07055997494938816,"139":-0.039278898588248054,"140":-0.01803517557713959,"141":-0.17370952609812504,"142":0.026176498957489917,"143":-0.03722566277813205,"144":0.0012263443846904656,"145":0.3248903540542092,"146":-0.028334325153275882,"147":0.05577833115047538,"148":-0.10984228510947133,"149":-0.16255791452905968,"150":0.0010899828088130122,"151":0.049240659695806634,"152":-0.03200561558477403,"153":-0.04882272860976965,"154":0.12417108668106148,"155":-0.05153637610186087,"156":-0.024698110331852412,"157":-0.1616250262593484,"158":0.057726459599146115,"159":0.15890988281074275,"160":0.31449147110649256,"161":-0.03224479563888705,"162":0.1557772040156951,"163":0.09990905724931137,"164":-0.11138064060520986,"165":-0.022933609461325093,"166":-0.02640904921046268,"167":0.25362191046055854,"168":0.17678325153986987,"169":0.20931538031685842,"170":0.21254645699823826,"171":0.023726150527419176,"172":0.04742416000165077,"173":0.05367975433320289,"174":-0.019692312644708068,"175":-0.021578536075061598,"176":0.02779893195209366,"177":0.09845884486982043,"178":0.10596712042871206,"179":0.04088850276666555,"180":0.031147687310751484,"181":-0.08259224848511633,"182":0.03056035264980182,"183":-0.02470020818744949,"184":0.012104072922869386,"185":0.04815566951351822,"186":-0.03719385200088694,"187":-0.07275369301275138,"188":-0.016663700488314264,"189":0.06987802273324625,"190":-0.0363855457733665,"191":0.1297108428196678,"192":-0.03031749305042524,"193":0.004135113566634201,"194":-0.0347564644500273,"195":-0.006487901671115658,"196":-0.2522565001052505,"197":-0.060887944210056805,"198":-0.01029806759678063,"199":0.1789093105287744}},{"sx":5,"sy":5,"depth":8,"w":{"0":0.10947161506695223,"1":-0.20378774992952228,"2":-0.011321726866250692,"3":-0.06302067217938932,"4":0.04908788943043466,"5":0.08378645325144203,"6":0.009529010350575877,"7":-0.0754142781710173,"8":-0.07674244777505239,"9":-0.0463838132525858,"10":-0.1139626920034277,"11":0.02399080598824584,"12":-0.08380907413607298,"13":0.0984419197853549,"14":0.01465749957011378,"15":-0.050877728735233364,"16":-0.2074333530018173,"17":-0.1630786292471459,"18":-0.08571198163460016,"19":0.12783108086468653,"20":-0.09673738186065856,"21":0.010508168727240494,"22":-0.012596365319982601,"23":-0.1427154765557191,"24":-0.18274183919284134,"25":-0.19304501875975588,"26":-0.004376714846917741,"27":0.08055620258510891,"28":-0.013246967493648575,"29":0.09577677966730246,"30":0.04127190771086964,"31":-0.12124604315186782,"32":-0.13479324501929932,"33":-0.020350577770087183,"34":0.17673832272929038,"35":0.07538084509048286,"36":0.023467186256497876,"37":0.007442082493584645,"38":-0.0044815651360836555,"39":-0.17374895682573818,"40":-0.03141723015501832,"41":0.08320146831902465,"42":0.1742955334253893,"43":-0.1076347278840563,"44":0.15487673792991752,"45":-0.036292504693435694,"46":0.029900490406765585,"47":0.055403635751197625,"48":-0.10060613994241038,"49":0.18159323351891513,"50":0.1635119996461777,"51":-0.18282538479528496,"52":0.06951061829324685,"53":0.13968978013477262,"54":-0.0017964392947994144,"55":-0.044430088718106886,"56":-0.07270735087330085,"57":-0.02839638441688671,"58":0.17905045109579226,"59":-0.13389177497728313,"60":0.008438912939332932,"61":0.18227346056666058,"62":0.009111459541123941,"63":-0.11556518062124777,"64":-0.052830743126760824,"65":0.10624686308654564,"66":0.2248251174005404,"67":0.05298461195568793,"68":-0.033712253025137875,"69":-0.03375911125778799,"70":0.02741494771304682,"71":-0.05393012753028305,"72":-0.11400143831248895,"73":0.16174670376552977,"74":0.0731765594045233,"75":0.16289790577298546,"76":-0.026384712194315266,"77":-0.0639219157417759,"78":0.03512282548845325,"79":-0.1598389711149973,"80":-0.05120182249655828,"81":-0.00821504442032389,"82":0.0934552057392526,"83":0.07247851763049785,"84":-0.03473544757630348,"85":0.04340385192027512,"86":-0.008709593360675935,"87":0.16308589062419676,"88":0.1548312940134158,"89":-0.24370805468011675,"90":-0.07416749499048955,"91":-0.08380824552730617,"92":0.021624315724420706,"93":-0.04263566686972074,"94":0.01982020177555429,"95":0.04041335325656051,"96":0.03783084656443856,"97":-0.03163502930098365,"98":-0.22585269825047072,"99":-0.0077670797032546295,"100":-0.005818794297258242,"101":-0.12103222788559974,"102":-0.011065848720537185,"103":0.08323525855890995,"104":-0.047073068453034515,"105":-0.010677656067479172,"106":-0.022561670466407162,"107":0.08252356888514173,"108":-0.10333525584331447,"109":-0.05749758485066104,"110":-0.0340568887891817,"111":-0.05231122659276769,"112":0.09072882922797983,"113":0.036243070173013786,"114":0.003114267342178112,"115":0.11892877903115653,"116":-0.05837829502650069,"117":-0.06352980045866795,"118":-0.01891931872787857,"119":0.07610910843832144,"120":-0.009954337765975282,"121":0.033920346268492316,"122":0.10275288633581162,"123":0.25784768365864424,"124":-0.02190404247693979,"125":-0.020403565908305873,"126":0.01817890673283856,"127":0.12242769215330833,"128":0.26062671873374543,"129":-0.28082568091484095,"130":0.06589062468376289,"131":-0.10648569485140119,"132":0.005639487335699609,"133":-0.09830183451373607,"134":-0.005171496473511023,"135":0.14548065162854032,"136":0.2540343594551646,"137":-0.18504866318467925,"138":-0.16294806902471878,"139":-0.04142974669680482,"140":-0.12977168278555892,"141":-0.11470158682488771,"142":-0.01736877730529234,"143":0.12456958865957876,"144":-0.012157385127990297,"145":-0.00024276571282551014,"146":-0.05747474287302963,"147":0.054397731984650345,"148":-0.07823008869243636,"149":-0.20645816610008472,"150":-0.03550663155446862,"151":0.02982516709777836,"152":0.04114855788206694,"153":0.24561821072549606,"154":-0.0015979015623122145,"155":0.01245940680152406,"156":-0.10778906038084275,"157":-0.09521620069063744,"158":0.0139745419361018,"159":0.0561822740708109,"160":0.07208851003186457,"161":0.032632341391283806,